#pragma once
#include <stdint.h>

const int8_t conv1d_1_kernel[80] = {
54,-119,84,62,114,81,55,46,115,-84,-125,-39,-1,27,107,90,-39,39,85,-75,-108,69,100,79,28,-87,102,127,120,63,80,-113,78,83,126,101,48,-79,107,98,64,113,95,-110,68,40,62,75,125,-114,-29,126,102,-57,42,88,-85,0,109,43,73,118,127,58,-107,39,18,-76,91,124,54,-91,-36,-59,-33,88,86,-38,-97,-109
};
const float conv1d_1_scale = 0.0029306839494144215f;
const int8_t conv1d_1_zp = 130;
const float conv1d_1_bias[16] = {
0.010639346,-0.012722539,0.0462506,0.034382455,-0.021453764,0.074761935,0.0,0.036423296,0.014035368,0.15886196,0.14823325,-0.014357441,0.015332456,0.05128565,-0.0018121381,-0.032198533
};

const int8_t conv1d_2_kernel[1536] = {
-86,-107,-82,100,-99,107,37,-118,124,100,-110,54,49,88,-76,-106,-112,-121,52,94,-112,45,78,-114,92,103,-73,-121,80,-85,100,-101,-89,76,-65,84,-105,-119,117,-99,88,-75,-69,-102,-111,88,102,-98,-12,-84,62,-87,97,-93,-121,-94,-107,103,-125,-107,-79,96,105,119,76,-126,85,-116,84,-120,-122,-124,-123,77,94,-128,-124,112,74,93,119,-117,-111,106,-119,115,95,-91,-62,52,-80,100,55,-101,123,109,-87,-96,-106,-111,79,-115,111,-127,-71,-122,-119,124,-126,97,-110,-109,-117,-99,109,123,113,-89,-98,113,104,90,-103,-121,-121,116,90,109,111,124,103,85,-60,106,114,124,-114,-124,-87,-86,-120,-93,124,-93,-23,-116,89,95,125,-92,105,83,-46,100,105,-102,-107,-118,98,-67,-118,85,-96,109,-87,58,93,-108,120,-121,-105,-110,-71,40,64,122,122,107,-121,-79,-108,-117,-113,-101,-113,-88,93,113,-113,101,86,-120,116,-75,92,107,122,-112,100,-97,-128,91,-102,100,-83,-118,67,87,15,22,-94,-96,74,84,-92,-124,120,106,105,126,113,126,102,110,98,-103,-106,75,120,84,98,114,74,-99,112,-106,92,88,127,121,-85,-69,-121,-116,-108,-116,-120,56,-108,-97,-113,-122,-110,119,108,122,-113,-98,-72,-102,31,-118,59,-99,68,-114,91,51,86,120,-117,-96,42,101,-86,71,120,90,80,-95,83,77,117,-101,123,79,-119,114,-98,91,-108,77,-126,94,-118,-92,89,120,69,125,117,79,-127,-94,-76,-96,-119,96,78,-122,-110,-102,-114,113,74,76,-108,58,-105,98,108,109,86,116,99,-97,-105,-115,122,-111,-96,106,104,79,111,-98,-90,-91,-111,-79,64,121,-104,-115,86,-87,-83,111,-106,118,-115,85,-100,122,105,72,-126,-128,118,-103,-95,114,-100,-100,84,-124,89,-110,110,82,106,61,92,39,-117,123,125,-108,85,117,-58,89,113,-107,113,90,-67,-110,78,61,94,101,116,101,86,-127,114,-113,-121,-91,121,-107,48,70,67,77,76,-118,-127,-128,-116,121,-96,-124,59,-95,113,-93,101,-90,74,-97,80,109,98,-81,116,-126,-112,88,116,-79,84,24,-115,-87,-58,-120,93,-97,87,-93,123,0,116,124,-72,-85,80,-83,-109,-124,-70,-105,-108,-98,111,121,76,-101,-105,103,-84,-106,-72,-121,-100,109,-88,108,-127,73,96,-114,-109,-102,-119,-108,-101,-100,-106,80,-122,68,-77,67,-70,-117,97,120,127,-89,72,-98,109,-109,-2,-109,97,119,-85,-113,121,95,-117,-68,-101,-85,-99,96,92,104,-54,-86,121,108,97,85,118,-88,-89,90,-115,53,39,106,-69,-56,108,-106,19,-93,124,32,91,-83,-72,-118,-91,97,-120,106,108,-112,-84,91,-107,65,-77,111,98,-88,82,-85,-94,-87,91,101,122,-115,-55,-62,73,-85,-112,125,91,99,-87,-113,118,-127,116,-119,91,-92,26,99,88,106,48,-111,104,-71,-94,98,110,-106,110,80,127,115,24,110,88,58,121,123,118,-97,58,85,-105,85,54,82,92,116,-86,125,112,-93,117,121,-99,-64,-114,106,104,-100,89,-128,-96,95,115,-125,-126,-91,-63,-113,95,-72,-69,-126,-113,-114,122,-107,65,124,-89,98,105,105,123,123,-71,-110,85,-106,-84,121,65,-84,-88,-80,-55,-117,75,96,-126,-127,96,-114,-69,-70,125,-98,-102,121,-86,120,110,-101,111,-123,-109,-120,-108,118,76,62,104,-84,111,110,47,116,121,90,86,122,59,-116,-81,127,81,-97,-89,-61,123,-82,115,111,122,-75,123,-119,93,108,92,-99,125,100,119,115,-63,115,67,87,43,58,-85,101,103,99,86,-103,28,104,109,-124,62,-99,88,70,81,88,123,63,111,89,-112,118,101,-72,93,-95,78,-92,115,-115,-42,-128,97,-122,-106,-91,-108,-115,-97,-126,116,-80,-94,114,-83,-88,112,81,-108,48,-117,78,48,-59,-107,105,-74,-123,110,83,109,25,-102,-78,97,-107,127,75,94,120,-92,-92,-128,106,124,116,117,-124,-88,-62,88,-119,-102,-115,-57,-70,125,73,-122,91,77,24,-125,-109,119,-104,-118,-120,-127,88,-115,-74,-122,107,108,-119,124,-61,114,-118,-122,-125,100,103,-113,85,125,-118,-93,111,91,-123,79,119,114,-120,124,-123,77,-96,-103,-120,87,-125,124,-111,94,-106,123,116,94,-121,110,93,-89,36,68,79,103,-112,105,91,127,86,48,-121,-101,-66,-117,108,72,-87,118,98,51,105,39,-128,74,114,57,-81,124,-114,80,-104,99,92,122,123,99,121,94,91,-90,-119,122,81,-128,115,88,98,97,-92,51,123,116,-109,65,62,120,75,47,117,-68,123,123,120,72,114,-118,122,-122,-127,-113,87,-104,-79,98,-101,124,-127,4,69,-114,107,-92,-100,122,-117,53,-112,109,-89,82,82,-102,-40,-113,-94,-128,-96,-121,92,92,76,-127,116,-88,117,-102,112,-121,114,-125,90,-124,-97,-115,-126,-111,-99,-115,-100,-114,-102,119,-125,-115,-83,-93,-105,-94,127,-64,70,106,-111,-116,-91,-91,96,-126,99,-67,-88,-75,-76,-126,123,-101,-94,110,-100,-46,-97,-127,-66,-78,-122,97,108,98,-114,-79,91,110,93,-87,-72,127,-103,-128,101,78,99,83,-98,40,89,-125,-115,108,92,89,-67,-74,-127,122,-118,-63,-73,-100,-125,99,72,-101,112,-77,119,-76,112,-120,109,114,-81,88,119,125,93,-66,-30,91,-122,-101,97,-123,101,-100,-84,-108,-80,-119,122,-121,99,46,72,112,115,117,-99,107,-94,-97,-101,-112,-116,125,-125,69,104,43,46,101,114,102,78,105,-74,107,-109,-93,-110,118,-124,95,-125,-101,-86,83,94,94,-122,77,127,119,-84,-102,41,67,62,120,-108,-120,-92,106,-95,88,105,123,-62,-68,-121,-89,-121,104,111,95,-62,103,95,-114,75,111,125,-109,94,-113,-89,95,95,91,102,-98,-111,-102,-75,104,96,101,110,-115,121,-108,-78,-85,113,-88,121,91,-119,96,88,-93,121,110,126,110,-126,42,-109,101,79,114,76,49,-97,-100,-120,-86,126,-96,80,86,127,65,-116,112,112,120,95,102,-116,-127,123,-117,105,62,-95,116,-91,91,-115,-111,112,-124,-105,78,-99,86,99,-103,-124,-111,-101,79,84,69,-124,110,89,65,92,107,87,-107,109,-91,91,-103,-113,-77,120,-122,-77,-83,106,85,-99,-127,-96,-34,-41,81,-115,119,115,-101,76,-54,-103,-103,-124,-104,86,96,113,90,97,-76,-65,-98,-110,-69,-91,-128,-115,109,68,-104,119,-118,-115,-88,116,-95,-110,-107,67,-121,94,100,-100,119,-108,-119,126,119,114,-106,119,97,95,-99,125,72,-81,106,-114,94,-124,-116,42,90,117,-116,-95,117,-114,-97,-121,-124,-68,-107,-110,-73,77,-108,77,120,75,-103,116,-128,-78,-79,-81,91,-93,69,-71,106,119,-128,95,124,-91,125,106,-99,-114,-124,83,74,119,-113,-85,-77,-84,-123,111,89,-85,71,67,119,92,72,-92,-86,-98,85,116,-127,115,117,95,-125,97,92,-122,110,99,-121,106,67,109,70,111,103,92,70,91,-85,67,81,110,-67,66,-124,89,-97,127,96,97,-120,82,102,121,-108,106,-80,-118,57,93,-117,75,76,-123,-116,-58,88,84,40,-116,-90,82,81,106,-123,-97,-86,98,117,106,-99,-98,80,93,84,-119,-110,-99,100,-114,-78,101,-95,-94,-103,-96,-127,-80,82,126,114,-119,95,-75,85,83,-64,103,-78,83,-102,-95,118,80,-99,111,125,-81,121,104,-72,-117,-125,117,-116,-119,-78,108,-113,-66,-123,-88,-80,89,108,123,-121,86,-126,81,121,98,-89,118,112,-100,-98,121,116,-126,-107,106,-1,-66,78,-122,-123,103,92,-85,-56,-119,-103,105,123,117,-103,114
};
const float conv1d_2_scale = 0.004299133899165135f;
const int8_t conv1d_2_zp = 127;
const float conv1d_2_bias[32] = {
-0.010266494,0.060218684,-0.08700499,0.0808277,-0.12411591,0.11513821,-0.09951381,-0.00438176,0.037178718,-0.06541642,-0.06908384,-0.019100642,0.08111515,0.016815634,-0.07441189,-0.03347319,-0.29952824,-0.2139251,0.10704583,0.008705745,-0.0914854,-0.022494141,-0.017321331,0.018293574,-0.1923601,-0.056776974,-0.055386595,-0.0797436,-0.06711655,3.3066754e-05,-0.015529249,-0.074693285
};

const int8_t dense_1_kernel[1024] = {
-112,-87,-107,-34,-65,-112,121,-84,-83,-121,-38,-41,-59,-17,-62,-116,123,-65,-60,-128,-122,-110,-92,-24,-36,-109,92,-102,-91,-90,-76,-122,-42,-73,-36,-57,-76,-14,-93,-82,-16,-61,-119,-106,-44,-31,99,-33,80,-57,-7,-101,-29,-100,-47,-62,-68,-112,-70,-28,-77,-41,-44,-92,-127,-39,-32,-116,-53,-94,-33,-36,-117,-69,-123,-59,-112,-128,-31,-74,-81,-90,-77,-71,126,-53,-87,-56,-58,-115,-88,-101,-32,-91,-32,-45,-73,-36,-87,-106,-73,-65,-88,-127,-109,-31,122,-89,126,-49,-40,-86,118,-16,-46,-118,-62,-30,-124,-86,-89,-68,-108,-99,-43,-61,-36,-57,-115,-85,-33,-29,-26,-49,-117,-47,-105,99,-31,-76,-39,-85,117,-69,-16,-94,-97,-108,-64,-24,-96,-31,-115,-50,110,-41,-107,-59,-58,-43,-97,-85,-84,-92,-69,-36,-55,-39,-31,-125,-51,-28,-120,-83,-105,-54,-110,-53,-46,-128,-43,-46,-56,-128,-98,-97,-29,-36,-64,-67,-89,-114,-119,-113,108,110,-117,-1,-53,79,-31,-57,-70,-115,50,-55,-74,-40,102,-39,-97,-92,-31,-99,112,-98,-125,-45,-46,-38,-35,-58,-21,112,-59,-79,-70,-117,-81,-73,-118,-35,-89,-74,-122,-36,-24,-45,-55,-124,-99,-45,-88,-61,-123,-105,-123,-74,-115,-33,121,-58,-29,-92,-27,-41,-100,-73,-38,-81,-59,-82,-44,-106,-96,-69,-103,-27,-36,-47,127,-106,-67,-122,-111,-47,-70,-85,-58,-71,-47,-38,-113,-104,-11,109,-126,-46,94,-108,107,-117,-92,-44,-50,-18,-53,-59,-96,-128,104,-114,-125,-12,107,-26,-57,-54,-52,-100,82,-97,-83,-118,-78,-87,-84,-60,-62,-111,-64,-64,-124,110,-83,-112,-27,-47,-105,-67,-88,-82,120,108,-50,-81,-105,-46,-81,-64,-61,-43,105,112,-84,-81,-84,-49,-75,-91,-96,-105,-70,-17,-77,-49,-46,-122,-84,-65,-66,-89,-128,-77,114,-96,-77,-44,-55,-56,-116,-60,-70,-39,110,119,-63,-31,-78,-116,-117,-55,-126,-38,-34,-45,-48,-86,-78,-102,-37,-32,-99,-43,70,-88,-57,-54,-103,-39,-96,-86,-120,-99,-79,-28,-90,-33,-101,-105,-83,-119,-91,-103,-94,-33,-30,83,-112,-35,-32,123,-51,-60,89,-92,-49,122,-58,116,-65,-31,-29,-59,-90,-76,121,-18,-54,-95,92,68,-90,-34,-24,-67,-26,-92,-21,-17,-54,-6,-42,107,-98,-39,-123,85,-110,-31,-66,-14,-87,117,-76,-47,-92,-36,70,-111,-95,-46,-35,-56,-85,-37,-93,-104,-84,-31,-64,-89,-125,-121,-45,-89,-83,-106,-51,-87,-65,-38,-124,-90,-40,-86,-18,-112,-128,-74,-112,-66,-65,-56,-33,-37,-51,-106,-23,-117,-44,-39,-45,-25,-70,-125,-75,-72,108,-71,82,89,-59,-96,-122,-98,-112,-93,-53,-92,124,-111,31,108,-39,-63,-97,-72,88,-77,-54,59,-83,-51,-96,-104,-81,-92,-82,88,120,-89,77,-82,-80,-112,-116,-89,122,-91,-80,127,-102,-53,76,114,-64,-77,-29,-78,-106,-95,-64,107,-45,-31,-33,-100,-110,-112,-121,-53,-65,-67,-38,-40,-80,-38,-56,-96,125,-72,-55,-88,-94,126,-102,-24,-96,-41,-105,-41,-80,-103,-121,-22,-34,-39,-105,-41,-34,-56,-67,-52,-78,-113,-87,107,-62,-41,-88,-15,-109,-80,-38,-70,113,-59,-86,-34,-101,-73,-39,-67,-78,-107,-25,-107,-86,-63,-109,-91,-92,106,-42,-72,-66,116,-54,-33,-83,-39,112,-45,-31,-44,118,-68,-45,126,-51,-29,52,-123,-115,-67,-22,-57,-81,-65,-55,-61,119,-81,-78,-85,-67,-87,-58,-57,-118,-42,-63,-28,103,-75,-122,-93,-36,-40,115,-38,-67,-109,-127,-77,-102,-78,-43,-122,-48,-63,-115,-57,-93,-77,-88,-44,116,-103,-46,-92,-69,-107,123,-91,-48,-41,-106,-125,-87,-77,-58,-121,-64,-76,-83,-98,-18,-29,-35,-45,121,-85,-46,-28,-76,-36,-45,-61,-64,-95,123,-88,-121,-117,-25,-72,-64,-92,-104,-128,-78,-128,114,121,113,-94,-100,-31,-90,-54,116,-67,-111,114,-95,-49,-62,-60,-96,-24,-100,100,63,-83,37,115,-106,-68,-26,-39,-57,-105,-124,-48,92,-42,62,97,-69,-95,-88,-48,117,-65,-20,58,-68,-57,123,-43,-40,-120,-35,-52,-108,-32,-128,118,-41,-60,-68,-60,-123,-97,-31,-77,-118,-62,-52,-50,-126,-67,-55,121,-44,-38,-74,-78,-85,-45,-124,-100,-63,-88,-34,-96,-114,-100,-57,-115,-77,-126,-96,-91,115,-22,-83,-52,-80,-83,-79,-123,-107,-121,-54,-92,-86,-48,-45,-27,-101,-52,0,-76,-101,-39,-73,-90,-35,97,-72,-33,-70,-69,76,-106,-48,-18,-63,-31,-42,-87,-104,-38,38,110,-27,-47,-42,-70,-86,-97,-78,-65,-34,-66,-65,-58,-83,-42,104,-48,-90,121,-84,-59,-57,-90,-35,-26,-115,-100,-34,-124,-90,-70,-83,-25,-87,-27,124,-42,-106,-99,-98,-117,126,-127,93,-106,-55,-38,-113,-30,-1,-19,-58,-69,117,92,-54,-47,101,-60,-19,115,-13,-113,-87,113,-53,-116,-108,-53,-61,-106,-34,-92,112,-90,-35,-98,-50,-64,-123,81,-112,-123,-59,-85,-64,-110,-87,-90,-80,-58,-121,-87,-118,-41,-32,110,-85,-61,-61,-96,-72,-71,-47,-100,117,-41,120,-101,-68,-114,-92,-97,-93,115,-114,-59,97,-78,-92,-118,-69,-56,-91,-57,-108,117,82,97,-59,-37,-79,-50,-45,-39,-70,-70
};
const float dense_1_scale = 0.006099678488338695f;
const int8_t dense_1_zp = 177;
const float dense_1_bias[32] = {
0.0893875,0.08247268,0.07784262,0.059491035,0.0011647812,-0.03228615,0.0018517249,0.088337064,-0.08392974,-0.021055793,-0.18389754,0.05323925,0.038408034,0.07292583,-0.10490889,0.028629074,0.0495903,0.059574142,0.029218512,0.061431106,-0.060487334,0.05377748,0.020851513,0.16029209,0.08777946,0.00090164726,0.10691646,0.011009702,0.030309409,0.065384105,0.016303355,0.008815725
};

const int8_t dense_2_kernel[64] = {
80,-28,40,110,64,-44,47,-108,-39,-119,-30,-86,-73,59,54,-1,-59,42,-54,-127,107,37,97,-76,119,-47,100,-22,40,115,-37,-128,-3,0,-78,-121,-59,34,-27,66,-87,43,-104,72,26,-104,93,-90,80,-120,79,-56,-60,98,-127,78,-52,-121,-27,71,-21,52,75,126
};
const float dense_2_scale = 0.005236617256613339f;
const int8_t dense_2_zp = 138;
const float dense_2_bias[2] = {
-0.009509828,0.009509796
};

