#ifndef MODEL_WEIGHTS_H
#define MODEL_WEIGHTS_H

// Quantized weights (converted to int8 for space efficiency)
// Original range: [-0.4326529, 0.4186602]
static const float conv1_weight_scale = 0.00333848f;
static const float conv1_weight_zero_point = 129.59567261f;
static const int8_t conv1_weight_quantized[] = { 31, -94, -87, -54, 24, -3, -91, -77, 125, 61, 67, -18, -36, 78, -2, -106, -34, 89, 95, -96, -90, -50, 51, -119, 117, 113, 47, -9, -4, 45, -34, -66, -56, -72, 47, 103, -43, -23, -1, 35, 32, -117, -29, -37, -90, -4, -3, -83, 12, 59, -106, -113, 89, 104, 127, 7, -25, 26, -103, 27, -122, 97, 81, 106, -112, 68, 58, 125, -112, 16, -39, -34, 101, -109, -5, 104, -118, 0, 73, -88, -36, 33, -98, -56, -26, -79, 104, -38, -118, -76, -87, -78, 58, 123, -51, -111, -37, -93, 76, 105, -59, 13, 59, 23, 123, -72, 106, -82, -45, 118, 126, -36, -7, 88, -64, 35, 6, 120, 42, 52, 13, 126, 39, -35, 96, 45, -64, 24, 50, -35, 116, -39, -63, 93, -77, 91, 82, 112, -72, 87, -92, 102, 46, 35, 5, -39, -118, -5, -71, -42, 85, 75, -41, 69, -106, 20, -66, -107, 98, 27 };

// Original range: [-0.4467876, 0.4242464]
static const float conv1_bias_scale = 0.00341582f;
static const float conv1_bias_zero_point = 130.79953003f;
static const int8_t conv1_bias_quantized[] = { -25, -15, 121, -112, -29, -85, 96, 0, -77, -54, -59, 125, -97, -45, -110, -118, -1, -52, -104, -45, -6, 107, -123, 124, -6, 50, 5, -16, -68, -32, 5, 78 };

// Original range: [1.0000000, 1.0000000]
static const float bn1_weight_scale = 0.00000000f;
static const float bn1_weight_zero_point = -inff;
static const int8_t bn1_weight_quantized[] = { 0, 0, 0, 0, 0, 0, 0, 0, 0, 0, 0, 0, 0, 0, 0, 0, 0, 0, 0, 0, 0, 0, 0, 0, 0, 0, 0, 0, 0, 0, 0, 0 };

// Original range: [0.0000000, 0.0000000]
static const float bn1_bias_scale = 0.00000000f;
static const float bn1_bias_zero_point = nanf;
static const int8_t bn1_bias_quantized[] = { 0, 0, 0, 0, 0, 0, 0, 0, 0, 0, 0, 0, 0, 0, 0, 0, 0, 0, 0, 0, 0, 0, 0, 0, 0, 0, 0, 0, 0, 0, 0, 0 };

// Original range: [0.0000000, 0.0000000]
static const float bn1_running_mean_scale = 0.00000000f;
static const float bn1_running_mean_zero_point = nanf;
static const int8_t bn1_running_mean_quantized[] = { 0, 0, 0, 0, 0, 0, 0, 0, 0, 0, 0, 0, 0, 0, 0, 0, 0, 0, 0, 0, 0, 0, 0, 0, 0, 0, 0, 0, 0, 0, 0, 0 };

// Original range: [1.0000000, 1.0000000]
static const float bn1_running_var_scale = 0.00000000f;
static const float bn1_running_var_zero_point = -inff;
static const int8_t bn1_running_var_quantized[] = { 0, 0, 0, 0, 0, 0, 0, 0, 0, 0, 0, 0, 0, 0, 0, 0, 0, 0, 0, 0, 0, 0, 0, 0, 0, 0, 0, 0, 0, 0, 0, 0 };

// Original range: [0.0000000, 0.0000000]
static const float bn1_num_batches_tracked_scale = 0.00000000f;
static const float bn1_num_batches_tracked_zero_point = nanf;
static const int8_t bn1_num_batches_tracked_quantized[] = { 0 };

// Original range: [-0.1020580, 0.1020439]
static const float conv2_weight_scale = 0.00080040f;
static const float conv2_weight_zero_point = 127.50878906f;
static const int8_t conv2_weight_quantized[] = { 34, -76, -47, -50, -75, -38, 88, -30, -82, -60, 45, -115, 86, 15, -115, 79, 127, -7, 111, 39, -110, 122, 19, -65, 2, 9, -78, 55, -80, 83, 87, -57, 11, -48, 55, 64, -73, 33, -5, 77, -93, 109, 19, -126, -7, 102, 19, -98, -3, -123, -37, 47, 112, 6, -4, -67, -114, 64, 78, 78, 49, -105, -26, -26, 99, -12, 83, 6, 57, 29, 58, -43, 9, 10, 85, 6, 100, -69, -34, 23, 88, 98, -8, -89, -100, 50, 75, -1, 61, -88, 24, 102, 95, 27, 99, 59, 97, 100, -29, 82, -74, -39, -73, 81, -123, -93, 95, -93, 20, -16, -18, 24, -39, -17, 89, 36, -70, 112, 68, -66, -51, 90, -22, 31, -114, -50, 4, 78, 4, -113, 29, -65, 52, -78, 108, 42, 126, 66, -19, 118, -9, 65, -22, 74, -59, -11, -68, 94, 49, -90, -47, 122, 6, -17, -44, -127, 116, -13, -61, 37, 58, -83, -14, -61, 13, 30, 13, 47, 41, -94, -38, -2, -115, -71, 80, -107, -7, 6, -32, 90, -62, -42, 53, 43, -16, -56, -56, -24, 98, -92, 70, 41, 36, 72, 35, 79, -13, -92, 10, -29, 85, -128, -88, -44, 7, 22, -54, -95, 63, -24, 48, -43, 120, -92, 108, 95, -65, -43, -18, 16, 112, -8, 53, 2, -100, -123, -83, 46, 38, -109, -106, -99, -95, 19, 41, 29, -46, 62, 94, -124, -108, 35, 68, -14, -69, 50, 100, -116, -89, 17, -95, 8, 125, -92, -89, -22, -103, 103, 57, 120, 39, 96, -27, 41, -109, -41, -57, -28, 1, 20, -124, 125, -12, 113, -27, 66, 114, -87, -51, 121, -45, 87, 18, 47, 51, 108, -67, -114, 98, 1, -25, 101, 83, 49, 85, 34, 104, -76, 27, -73, -80, -124, -8, 43, 37, 37, 88, 41, -97, -111, -56, -49, -6, -51, 36, 35, 69, 110, -13, 97, -31, -4, -65, 123, -38, 76, 7, -50, -39, -10, 82, 86, 5, -90, 13, 58, -43, -20, -37, 24, -120, -43, -87, 92, 1, -95, 11, -119, -121, 32, 111, -122, 65, -18, 37, 34, 40, 21, -78, 71, -18, 67, -58, -85, -75, 96, 126, -112, -69, -125, -34, -55, 96, 2, 113, -22, 11, -100, 24, 58, 3, 26, -18, -35, -107, 15, 125, -77, -33, 24, -102, -109, 27, 108, -23, -88, 24, 41, -62, 71, -127, 85, -50, 66, -2, -98, -118, -109, 67, 6, 126, -42, -116, 93, 52, -49, 27, 74, -62, 107, -33, -124, 122, -57, 53, 23, -34, -127, -102, -110, -80, 81, 85, -35, -54, 9, 42, 62, -26, -29, -128, -51, 88, 38, 64, 126, -45, -34, 31, -30, -37, 5, -54, -18, -89, 41, -67, 37, 100, -60, -46, 105, -111, -24, -54, 64, 19, 75, 98, 49, -97, 84, -96, 46, 7, 115, -63, -16, 79, 21, 91, 114, 89, -24, 100, -50, 56, -78, 124, 40, 64, 43, -20, -97, -15, 117, 18, -126, 50, -24, -105, 127, 86, -93, -26, -23, -85, 35, -88, 17, 121, -21, -83, 62, -94, 103, -86, 27, -127, -31, -12, -60, 43, -15, -66, 10, 87, 20, -51, 101, -58, -51, -56, -99, -67, -123, 21, -37, 50, -110, 116, 15, 39, 124, -1, 26, -102, -44, -64, -40, 77, -97, 120, -128, 25, 96, -49, -105, 111, 62, 31, 78, 101, 109, -128, -92, -88, -19, 106, 85, -78, 4, -19, 48, 41, -92, -55, 74, 121, 120, 73, 86, -3, 48, 83, 49, 98, 73, -122, -87, -6, -127, -55, -52, 120, 68, -72, 45, -86, 47, -105, -101, 37, 6, -112, -6, -101, -120, 71, 47, -89, 126, 29, 106, -24, -127, 60, -27, -49, -47, 108, -50, -65, -71, 40, -115, -82, -72, 41, -124, 63, -54, 94, 13, -4, 40, -2, -95, -59, 63, 4, 51, 110, 15, 85, -96, -64, 81, -93, 96, 64, 98, -44, -10, 15, 110, 75, 58, 30, -19, 29, 40, -31, 112, -75, 112, -14, -30, -21, 2, -94, 105, -88, 14, -56, -35, -38, -123, -9, -6, -30, 127, -116, -8, -37, -44, 70, -115, -119, -48, 19, -17, 79, -64, -117, -30, 85, 21, -119, -123, 108, -120, 40, -93, -40, -16, 46, 121, -101, 4, 127, 109, 121, 7, -127, 109, 116, -50, 122, 94, 104, -7, -36, -79, 41, -110, 126, 61, -19, 15, 120, -60, -117, -58, 41, 42, -13, 103, 2, -56, -22, 111, 113, -60, -122, -64, -72, 67, -109, -9, -111, 92, -71, -47, -118, -65, -51, 118, 96, 105, 37, -113, 72, -62, 24, -45, 65, 24, 87, 27, -37, -95, -69, -73, -17, -104, -91, 92, 109, -115, 49, -67, -66, -102, -120, 72, -29, 123, 59, -90, -97, 31, 16, -106, 72, -22, 42, 102, 115, 5, -124, -35, 53, 106, -61, 116, 53, -20, -21, -105, 16, -2, 106, -67, -8, 88, -3, 52, 53, -119, 38, -51, -114, -77, 38, 127, 121, 110, 94, -65, 34, -70, 74, -6, 117, -124, 38, -119, 11, -25, -65, -19, -21, -7, -12, 92, -37, 110, -89, 77, -94, 39, 111, -33, -30, -106, 93, -108, 12, -60, 91, -100, -39, -103, -106, -21, -82, -111, -7, 68, -54, -10, -128, 29, -123, -69, 48, 23, 94, -22, -104, 41, -87, -58, -24, 101, 47, -55, 50, -88, -4, -4, 53, 98, 89, -63, 23, -128, 82, -96, 37, 70, -101, 112, 46, -110, -56, -88, -44, 93, 95, 24, -4, -100, -98, -98, 98, -120, 10, -64, -118, 62, -45, -119, 121, 122, -78, -114, -95, -99, 81, 25, 53, -77, 92, 115, -85, 9, -93, -117, 42, 30, -72, -14, -27, 72, 10, -48, 120, 93, 17, 126, -52, 90, -50, -86, 26, -8, 54, 87, 120, -2, -113, -52, -5, 65, -124, 97, -12, 124, -109, 118, -9, -17, -55, -95, -8, 43, 35, -75, -62, -34, -66, -27, 23, -29, 11, -11, -44, 62, -33, -62, -33, 55, -125, 74, 100, 25, 4, 31, 126, -36, -15, -74, 19, -4, -5, -87, 67, 91, -65, -102, 119, 11, -123, 118, -100, 52, 116, 46, -39, 78, -93, 89, 47, 69, 97, -114, -89, -90, -128, -36, -83, -128, -12, 84, 92, 21, 36, -103, 63, 29, 84, -3, -104, -79, 47, -43, -57, 85, 93, 60, -2, -54, -54, 57, 4, -2, -40, 78, -80, 33, 108, 20, 123, -121, -76, -3, -34, -32, -69, 104, -54, -83, 99, -8, 43, 13, 30, 101, -126, 70, -35, 41, 69, -55, 112, -80, 57, 64, -51, -14, -119, 48, -26, -47, 28, 83, -110, -48, -38, -124, 98, 53, 58, 101, 106, 113, 50, 28, -39, -47, 23, -15, 42, 105, -113, 112, 20, -110, -2, -63, 36, 65, 26, 109, -113, -49, -42, 91, 79, -63, -11, -60, -48, 17, -19, -51, -69, -104, -58, -83, -121, 97, -76, -3, -63, 33, 64, 8, -2, 25, 110, 12, -4, -89, 25, -61, -82, 43, 95, -122, -63, 70, -103, -16, 79, 41, -7, 19, 105, -6, 25, -20, -8, 51, -120, -42, 8, 23, -71, 107, -99, 14, -93, 36, -107, 62, -97, 41, -74, -64, 113, -84, 72, 112, 53, -47, -126, 74, -42, -9, -107, -106, -37, -48, -124, -85, -98, -126, 109, 38, -111, -46, 22, 126, -39, 113, -68, 26, -3, -38, 38, -35, 68, -84, -23, 73, 101, -90, 10, 127, 7, 123, -28, -117, -77, -106, 56, 61, -65, 79, -86, 59, 40, -73, 96, -111, -49, 1, -74, 20, 31, 70, -96, 49, 40, -124, 17, 75, -80, 24, 49, -15, 72, -42, -113, -56, 70, 85, 98, -126, 114, 17, 20, 117, 51, 49, 86, -27, 96, -103, -28, 114, -83, 90, 104, 51, -33, -89, -100, -2, -38, -49, -26, -94, 10, -30, -59, -102, -17, 21, 20, -16, -75, 51, 25, -64, 118, -34, -28, 61, 17, -57, -53, 21, 58, 11, -51, 98, -50, 122, 57, -83, 11, -94, -126, -47, -13, -7, -9, 85, 111, -126, -75, -54, -10, 50, 63, -50, -74, 108, 57, -42, -2, -36, -100, -27, -9, -43, 45, -99, -80, 58, 26, 94, 46, 68, 90, -118, -51, 68, 87, 81, 23, 9, -42, -5, -63, 113, 118, -21, -96, 57, -103, 16, 37, -34, 0, 66, -104, -113, 124, 123, 22, -124, 98, -68, 105, 82, -11, 78, 76, 60, 68, 63, 119, 73, -33, -91, 15, 57, -79, 123, -50, -87, -65, 126, -41, 65, -23, -113, 92, 125, 34, -123, 83, -127, 55, -2, 43, -21, 101, 82, 58, 24, -42, 2, 6, 92, 76, 14, -45, 48, -5, -55, 115, -63, 22, 31, -56, 4, -95, 51, 120, -81, 63, 100, 0, 50, 8, -4, -97, -105, 88, -18, -112, 118, 38, 5, -97, 85, -56, -23, -48, 21, -118, -6, 83, 27, 27, 65, -4, 32, 107, 109, 112, -7, -114, -119, -66, -33, -26, 16, 70, -49, -42, 60, -10, -42, -90, -62, -73, -9, 127, -84, -60, 107, -49, 52, -64, 90, 43, -106, 26, -113, -111, 84, 109, 79, -115, -52, 53, 88, 55, 113, -7, 28, -124, 42, -54, -78, 34, 116, 127, 110, 114, -123, 123, 18, 54, 103, 43, 68, -113, 65, 91, 77, -90, -49, 31, 34, -6, -6, 85, -128, -12, -18, 95, 7, -88, -49, -38, 123, -87, -86, 64, 74, 110, -37, 51, 27, 115, 8, -104, 56, 86, -75, 120, -128, 83, -97, -3, -60, 115, -50, -30, 18, -47, 116, -11, -72, -105, -54, -122, -126, -99, -8, -31, -112, -35, -107, 23, 127, -111, -22, -104, 47, 47, -39, -51, 0, -114, 57, -43, -126, 63, 26, 75, -106, -50, 45, -87, 35, -50, -120, -52, 36, 95, 10, 50, 109, -89, -42, -126, 94, 19, -15, -90, 100, -81, -24, 10, 111, 38, 114, -60, 15, 81, 85, -112, 39, 61, -25, 113, -107, -103, 94, 46, 70, 28, -100, -14, -115, -97, -49, 61, -40, 37, -1, 88, 47, 44, -117, -39, -11, -124, -119, 98, 56, 81, -89, -37, -22, 44, -70, 24, -57, -35, 28, -30, -46, 106, -16, -113, -120, 48, -74, 73, 26, -25, -72, 95, 23, 111, 27, -52, -67, 105, -59, 65, -59, 73, 120, -33, 97, 60, -123, -81, 97, 92, 23, -62, -57, 7, -102, 29, -78, 123, -102, -38, -23, -14, 122, 60, -40, -82, -76, -113, -60, -45, 29, -88, 29, 95, -6, 75, -111, -112, 49, 106, 76, -61, -13, -49, -37, 91, 5, 37, 66, -50, 113, -3, 51, -16, 80, 90, -94, -57, 123, 30, -114, 60, 97, -110, 84, -55, 101, 113, 48, -114, 126, -128, 33, -41, -111, -11, -10, -8, -33, -98, -24, 4, 81, -38, -33, -73, 120, -49, -38, -107, -7, 125, -38, -30, -128, 1, 49, -102, 109, -55, -59, 48, 102, 4, 125, 110, -98, 52, 124, -9, 102, -53, 77, 119, 19, 4, 65, 6, 117, -42, 102, 9, -101, 44, -10, 89, -15, -117, -106, -69, 38, 102, -126, 30, 25, 71, -15, -98, -102, -118, -86, 37, 85, -12, 38, 46, 29, -95, 18, 0, 3, -14, -57, 4, -128, 121, -69, 36, -23, -95, -128, -108, 103, 51, -99, -58, 63, 100, 94, -110, -78, -125, 107, -80, -98, -117, -68, -4, 11, -121, 99, 117, 67, 19, 114, 88, -104, -78, 37, 42, -16, 107, 30, -77, 91, 21, 86, 34, 17, 27, -77, -45, 40, 38, -43, 83, -10, -126, -101, 22, -17, 52, -93, -67, 110, 89, -125, -38, 74, -102, -44, -23, -100, -89, 0, -29, 63, 9, -62, -68, -60, -69, -115, -98, 66, -6, -95, 4, -102, 7, -103, -111, -55, 64, 93, -67, -15, 108, -124, -37, 22, -125, -44, -123, 63, -65, -65, -11, 122, -72, -21, -59, 11, -128, -72, 118, -28, 21, -61, 17, 72, 94, 83, 14, -30, 109, -5, -18, 41, 23, -66, 64, -101, -109, 19, -26, -95, -60, -105, 68, 57, -86, 54, 65, -5, 15, -33, -79, 44, -120, 51, -86, 103, -99, -65, 41, 16, -87, -64, -81, 4, 96, -70, -109, -32, 63, 13, -124, 11, 119, -8, -92, -117, -45, 22, -6, 107, 108, 109, 6, 17, -77, -56, 34, -63, 127, 115, -84, -28, -53, 76, 67, -24, -91, -7, 103, -7, 91, -45, -66, 119, 45, 62, 10, -8, 96, 63, -16, 0, 17, -106, -101, -22, -78, 87, -6, 114, 8, -109, -100, 23, -57, -21, -40, 86, 63, 36, -63, -56, 39, 44, 123, 53, -20, -76, 38, 87, -62, -46, -4, -108, 111, -26, -29, 102, 110, 85, -39, 122, -83, -33, -77, 70, 71, 96, 33, 126, 77, 80, 91, 117, -55, 62, -104, 95, 2, -23, 126, -6, -127, -90, -4, 17, -60, -34, -126, 67, 98, 67, 104, -5, -119, 124, -50, 1, 119, 47, -20, -60, -81, 109, 15, -121, -116, 39, -33, -120, 81, 126, -32, -107, 89, 41, -47, -102, -128, 13, 126, 91, 49, 109, -10, 121, -67, 110, -68, -39, -24, -45, -27, 90, -17, 71, 9, 46, 103, 63, -24, 21, -24, -100, -113, 10, -7, -65, 72, 72, 44, 125, 69, -26, -96, 76, 53, -62, 53, 22, 77, 10, -121, 18, 74, -107, 15, 77, 27, 13, 103, 11, 92, 22, -100, -86, 126, -35, 52, 53, -15, -127, -84, 40, 77, 16, 10, -22, 84, -112, -117, -107, 107, 47, 34, 83, -64, -55, 40, 88, 75, -100, 124, -44, 89, -110, -107, -95, 100, 89, 87, 69, -41, -61, 61, -34, -124, 15, 39, 2, -39, 112, -59, -113, 85, 116, -90, -21, 46, 1, -36, -78, -38, 107, 87, -122, -70, 18, -100, 49, 64, 57, -98, 52, -118, 58, -42, 11, -89, -81, 59, -28, 78, 2, 83, -73, -110, -42, 111, 31, -73, -100, -112, -18, -75, 74, -77, -55, 26, -32, -3, -10, 64, -76, 53, -100, -13, -69, 57, 97, 4, -56, -58, 83, 67, 58, -30, -128, -63, 51, -68, 68, -120, 105, 50, 57, 23, -119, 77, 106, -95, -126, -6, 49, 111, 122, 51, 81, 100, -15, 2, 49, 123, 84, -89, -87, 59, 121, 22, 92, -2, -45, -118, 32, -94, -42, 104, 40, -29, -83, 74, -65, 4, -125, -43, 69, -27, -28, -126, 89, -1, 98, -61, 50, 44, -96, 49, -125, -2, -47, 3, -15, 17, 77, -28, -88, -45, -55, -44, -84, -70, 70, -19, 56, -28, 115, -28, 108, -55, -105, -45, 108, -109, -43, -80, -29, 47, -115, 115, 59, 42, -1, 94, 23, 11, -103, -57, -125, 19, 92, -34, 119, -18, -90, -88, 125, -123, -96, 76, -28, 67, 91, -12, 26, 104, -76, -50, 21, -2, 55, 109, -106, -111, -13, -108, -93, 16, -39, -66, -116, -17, -79, -120, -18, -92, 12, 5, 97, -90, 92, -12, -120, 123, -42, -101, -5, 3, 61, 10, -36, -71, 30, -94, 102, -119, 43, -77, -44, -93, 27, 77, 23, -18, 66, -60, 126, 9, -50, 120, -85, 18, 56, 80, 12, -128, 16, 23, -51, -28, 23, 71, 121, 38, -61, 51, 48, -56, 15, -65, 48, 127, -84, -117, -52, -91, -125, -11, 88, 127, 70, -53, 67, -58, 54, 2, -53, -20, -45, 53, -125, -45, -11, 33, -109, -105, 120, -109, 88, -102, -14, 115, -20, -28, 70, 5, 81, 13, 103, -23, -65, -26, 61, -82, 110, -97, 127, 103, -76, -112, -28, -6, -31, 47, -54, -28, 109, -84, -85, 34, -2, 15, -92, -30, 7, -99, 87, -100, 65, 111, -110, 87, 48, 30, -44, 74, -90, 112, -115, -120, 6, 97, 67, 68, -79, 88, 101, 0, 16, -81, 32, 120, -45, 83, 123, 3, 6, -44, 87, 24, 57, 110, -82, -7, 104, -12, -61, 67, 33, -12, -66, 82, -117, 32, -93, -49, 62, -83, 34, -92, 75, -114, 72, -28, 106, 1, -45, 99, 37, 14, 27, 111, -83, 102, 58, 69, 72, -51, 22, -69, -12, -84, -15, -9, -4, -122, 93, 3, 113, 44, -84, -4, 117, 42, 12, -49, -78, -101, -12, 62, 31, 56, -102, 48, -8, -11, -77, -120, -123, -45, -128, 96, -47, 107, 69, -46, 87, -74, 101, -98, 65, 62, -17, -19, -118, 69, 86, -111, 29, 100, -99, -11, -93, -117, 97, -32, -76, 84, 2, -45, -43, 2, 102, -45, 54, 27, 55, 103, -92, 30, 95, -9, 58, 52, -17, 60, -121, 56, -102, 93, -71, -96, 86, -14, 127, -24, 41, 28, 47, 35, 69, -87, 0, -25, -82, -70, 38, -68, -24, -93, 53, 40, -2, 90, -37, 60, 104, -59, 97, 17, 114, -29, -92, -27, 73, 64, -2, -70, 112, 30, 70, -5, 55, 46, -95, -91, -74, 51, -44, 93, 122, -119, -10, 31, 111, -52, -12, 53, 20, 93, 85, -106, 66, -31, -82, -50, 12, -39, 71, -42, 22, 10, -103, -90, 11, 106, -98, 49, 98, 106, 24, 122, -109, -99, -101, -19, -99, 68, 91, 82, -93, -76, -107, -10, -19, -124, 10, 22, 58, 51, 2, 51, 43, -111, 105, 64, -82, 94, 17, 120, -14, -109, -70, 49, -66, -13, 13, -35, -49, -37, 68, -49, 109, -7, -50, 46, 6, 64, 110, -91, 8, -114, 46, 103, -101, 63, -43, -127, -53, 93, -115, -15, -66, -11, 51, -32, -104, -112, -90, 64, 38, -97, 113, -63, -80, -78, -3, 95, -22, -19, 27, -6, -1, -69, -116, -122, -22, -86, -20, -70, -93, -54, 72, 117, 7, 118, 40, 103, 28, 46, -11, -66, -5, -99, 40, 63, 14, -41, 86, -57, -62, 38, -109, -25, -79, -46, 71, -6, 43, 35, 51, -15, 106, -66, -28, 63, -58, 94, -54, -11, -42, -43, -75, 45, -128, 103, 28, -96, 94, 87, 30, -52, 36, -30, 72, 31, 55, -60, -64, -33, 85, -126, 105, -99, 61, -10, -122, 94, 118, -33, 44, -103, 90, -77, -105, -105, 70, 43, 92, 17, -95, -102, -107, -98, 35, 67, -90, -40, 80, 98, 107, 39, -39, 56, 4, -37, -54, -78, -114, 59, 63, 111, -124, 16, -47, 31, 109, 8, -87, -92, -66, 36, -112, -23, -39, 63, 85, -90, -21, -97, -109, -96, -43, 100, 19, -89, 112, -57, -113, 23, -92, -92, 80, 123, -77, -24, -33, -52, -113, 56, 10, -7, 12, -3, 73, 126, -41, 67, -54, -4, 48, 33, -35, -112, 45, -42, -60, -55, -51, -110, -10, -126, 100, -86, 82, 15, 47, -104, -15, 86, -27, -44, 6, 66, -16, -122, 5, 112, -114, -93, -70, 99, -84, 73, -21, 11, 88, -23, -112, -126, -59, -51, -54, 1, 125, -15, -75, -17, 90, -23, -9, 93, 118, 57, -11, -25, 85, -35, 82, 70, 3, 10, 70, -2, -19, 4, -91, -62, -37, -2, 30, 103, 21, -3, -12, 26, -113, 23, -103, -100, 113, 6, -72, 95, -49, -111, 127, -49, -16, 126, -18, -86, 19, 53, -2, -113, -77, -92, 21, -89, -35, -65, -114, 72, 37, 16, 74, 108, -64, -117, -24, 109, 92, -9, 92, -19, 110, -99, 64, 3, -13, 18, 2, -32, -94, 22, -97, -15, -35, 20, 103, -99, -89, 37, 98, -6, -57, -126, 35, -70, -8, -59, -67, -83, 77, 54, 30, -85, 16, 103, -53, 47, 55, -117, 25, 81, 126, 2, 64, -27, 28, 10, -92, -3, -55, -43, -43, -52, 31, -7, -119, 100, 55, 55, 89, -23, 18, -83, 101, -99, 69, -55, -127, 96, -95, 3, 102, 62, -99, -35, 35, -85, 87, -92, 91, 63, -110, -6, -29, -105, 68, -125, -80, 72, 92, -111, 103, 117, -102, -6, 73, 116, 44, -33, 94, -24, 99, 103, 109, 81, -123, 15, -75, -82, 69, 100, 64, -108, -69, -82, -28, 12, -86, -61, 89, 103, 105, 14, -35, -56, 21, -127, 62, -101, 81, 116, 112, -68, -96, -108, 8, 20, 68, -42, -33, 119, -2, -26, -113, 127, -97, -45, 100, 127, -98, 65, -76, -62, -63, 62, 122, -108, -98, -17, 121, 5, -36, -56, -80, -58, 113, 75, 71, -5, -62, 88, -67, -54, -32, 107, 120, -63, -24, 118, -115, 84, 104, -45, -47, -108, 94, -48, 47, 73, -10, 47, 3, -99, 108, 41, 115, 94, 31, 77, 97, 39, -45, -114, -102, 68, -75, 14, 98, -50, 48, 39, 29, 52, 5, -68, 35, -48, -81, 12, 100, 114, -65, -51, -33, -24, -1, -34, -71, -83, -82, 90, -108, -15, 110, -76, -9, -117, -8, -113, -91, 48, -55, 17, -32, -117, -58, 126, -120, -116, 14, 23, -62, 60, 26, 20, -110, 21, -109, -71, -51, -72, 122, 28, 115, -119, -99, 84, -66, 37, 87, 125, 76, -61, -104, 62, 15, 35, 126, -81, -27, 58, 0, -27, 60, -111, -37, 99, 15, 38, 110, 93, 28, 70, -40, -38, 20, -110, 76, 60, -39, 41, 63, -76, 11, 64, 116, 10, -23, -14, -109, -37, 52, -110, -72, -104, 48, 49, -35, -32, -31, -100, 99, -104, 5, -11, 83, -61, 67, -98, -39, 62, 41, 4, -102, -69, -106, -31, 105, 119, 89, 109, 41, -87, -17, -27, -94, -4, 41, -74, 46, 26, 124, -63, -14, -85, -107, 11, -28, -102, -111, -47, -83, -50, -8, -77, -20, -45, 69, -13, -85, -123, -116, -121, 39, 46, -128, 102, 107, -6, 30, 49, -58, 9, 15, -117, -59, -55, 17, -31, 106, 56, -39, -43, 26, -65, 14, -84, -38, 53, 121, -80, -74, 91, 30, -53, 110, 114, 99, -30, 52, 74, 46, 98, 83, 8, 63, -122, 0, -70, 46, 80, 66, 28, -87, -57, 30, -69, -53, 5, -78, -101, -43, -83, -118, -112, -105, -126, -106, -61, -51, -115, 50, -85, 7, 116, 15, 33, -118, 80, -122, -23, -121, 39, 52, -30, -36, -62, 65, 13, -35, 26, 37, -69, 40, -42, 49, -5, 1, -59, -8, 18, 88, 63, 5, -52, 43, 48, -102, -90, 45, 68, -114, -5, 12, -78, -120, 79, -36, -50, -60, 108, 92, -79, -74, 115, 1, 26, -48, -7, 21, 124, 55, -89, 79, 75, -78, -1, 120, 28, 23, -37, 21, 94, -125, 121, -66, -61, -98, 37, -65, 29, -3, 107, 120, 56, 100, 77, 122, 98, 80, -95, 39, -58, 66, -80, -120, 50, -122, -87, 127, -104, 87, -3, 44, 112, -25, 54, -90, -54, 116, -60, -13, 85, -87, -92, 126, -128, 52, 114, 83, 1, 75, 90, -19, 85, -68, 2, -31, -93, 111, -49, -43, 27, 95, -4, -67, -81, 44, -2, -98, -66, 59, -5, 11, -97, -64, -12, 27, -1, 116, -93, -59, 35, -89, 37, 56, 99, -9, -72, -97, -10, 76, 42, -54, -102, -39, 126, 91, -38, 4, -96, -108, 52, -87, -66, -47, -87, -124, 116, -105, 69, 119, 104, -128, -21, 109, -15, -126, -101, 24, -42, -37, 31, 66, 58, 120, 41, -32, -26, 54, -68, -80, 49, 37, -96, 60, -71, -37, 110, -110, -21, 122, 32, 71, 81, 98, -42, 50, 115, 54, 27, -73, -55, 15, 123, -50, -70, -60, -32, 39, -121, -72, 127, -53, 9, -59, 107, 43, 111, 49, 75, 67, -128, 72, 39, 6, 125, -2, 118, 77, 17, -34, -85, -22, 44, -102, 58, 37, -126, -37, 80, 18, 61, -94, -89, 54, 104, 13, 2, -54, -107, 49, 69, -68, 63, -41, -127, 117, 44, -85, -75, -127, 28, 121, -82, -18, -106, 92, 8, -16, 61, -59, 25, 93, 54, -50, 50, -116, -71, -128, 42, 74, 21, -64, -114, -113, -49, -43, -104, -29, 24, -58, 85, -105, 20, -59, -39, 116, 70, -45, 32, -127, -9, 85, -70, 110, -111, -37, -75, 126, -31, -35, 117, 115, 79, 94, -81, -30, 106, 104, -87, -124, -8, 74, -2, 75, 75, -116, 11, -29, -30, -70, 69, -128, -104, 47, -125, 122, -37, -120, 29, -33, -102, -37, -43, -91, 82, -21, -41, 68, -75, -91, -94, 26, -101, 20, 4, -47, 125, -41, -47, -126, 47, 0, 88, 59, -74, 82, 27, 72, -92, -34, -62, 30, 87, 104, -94, -76, -39, 43, 109, 68, 120, -84, 74, 74, -2, 95, 45, -41, -5, 51, -99, 89, 96, -18, -28, -43, 2, 98, 45, -69, -59, -34, 112, 26, 90, 53, -119, -72, -57, -4, 120, -3, 35, -69, -93, 107, 32, -70, -96, -11, 24, 21, 57, 87, -106, -17, -21, -110, 0, 35, 120, -38, -111, -48, -80, -101, -52, -32, 71, 4, 87, 24, -2, 42, 92, -1, 58, 94, 85, 7, 90, 74, -8, 26, -59, -101, -43, -36, 38, 76, 99, -96, -41, -63, 38, 66, -55, -52, 36, 41, 97, 119, 6, -109, -15, 67, 88, -108, -122, 112, 82, -8, 47, 44, -38, -106, 86, -19, 57, 17, 58, 126, -105, 72, -37, 83, 84, -83, 87, -55, 102, 92, 14, -45, -117, -33, 41, 120, -75, 33, 23, 84, 13, -31, -21, 30, -76, -89, -8, 113, -42, 61, 81, 122, -68, 2, 121, -120, -25, 14, 54, -92, 83, -46, -110, -110, -97, -74, -100, -102, 8, -93, -53, 121, 24, -124, 77, -12, 28, -48, 113, 108, -53, 14, -77, -36, -6, 1, 80, -115, -56, -115, 98, -122, -60, -63, -9, -115, 98, 51, -94, 66, -122, 61, 37, -58, -81, -11, 122, -53, 33, 44, 42, 75, -2, 101, -128, -89, -78, -6, -69, -58, -14, 64, 98, -23, 59, -45, 73, -105, 31, 103, -106, 90, 30, 71, 75, -27, 90, 82, 110, 81, 91, -108, 116, 108, -99, -108, -26, -3, 18, -24, -125, -35, -70, -128, 91, -7, -31, 9, 28, -83, 123, -37, -92, 82, -111, 31, -83, 105, -128, -23, -85, 76, -3, 10, 89, -47, -124, -43, 90, 97, 99, -34, 64, -128, -36, 41, 27, -4, 125, 90, -90, 93, 25, -17, 17, 117, 127, 96, -38, -75, -45, -43, -47, -9, 97, -55, -102, 67, -21, 14, 17, 2, 94, 11, 12, -111, 105, 68, 13, -66, 82, -113, -27, 95, 45, -97, 66, 112, -38, -14, -36, -48, -76, -10, -65, -2, -16, 83, 93, -24, 88, -89, 22, 48, 13, -17, 65, -72, -11, 31, 83, -49, 7, 122, -60, 122, 105, 116, 114, -98, 66, 20, 61, -56, -78, -41, 42, 7, 53, -108, -37, -52, 7, -112, 80, 48, -44, -117, 33, 99, -104, 102, 76, 127, -10, -23, -65, -21, -127, -58, 122, 66, 102, 61, 99, 49, 27, 114, 53, -42, -128, 119, 50, 107, 122, -37, -60, 55, 105, 16, 3, 9, 59, -2, 11, 102, 7, -72, -64, -56, -87, 46, 21, 36, -76, -87, -58, 102, 56, -82, 4, 114, 11, 96, 34, -30, -30, -20, 72, -121, 3, -96, -118, 119, 47, -77, 57, -94, -40, 15, -112, 105, 87, 121, 52, -104, 34, -74, 119, -121, 88, 10, 60, 79, -8, 50, -128, 110, 78, 36, 72, -98, 51, 127, 108, -52, -109, 90, -80, -37, 36, -43, -117, 93, -62, 88, 122, -33, -19, -108, -68, 112, -95, 38, 18, -30, 94, 3, 66, 45, 46, 66, 38, 100, 69, -123, 114, -66, -59, 80, 116, 41, 108, -35, -56, 97, 33, -33, -80, 114, 57, -42, -16, 116, -86, -17, 84, 50, -59, -125, 21, 29, 41, 123, -39, -92, -10, 71, -52, -26, 22, -36, -46, -41, -90, -105, 125, 110, 9, -6, 102, 73, -82, 47, -98, 60, 9, 111, 74, 114, 104, -6, -90, 86, -26, -81, -61, 13, -99, -56, -34, -3, 92, -4, -2, 31, -94, -72, 33, -114, 30, -103, 84, -128, 100, -61, 74, 26, 96, -117, -88, 77, -82, 38, -96, -92, 28, -84, 99, 2, 4, -11, 69, -48, 123, 74, -15, 35, 20, 95, 42, -109, 127, 127, -108, -26, 88, -53, -42, -41, 110, 51, -37, 102, 61, -34, -70, 30, 61, -95, 49, -26, -2, -34, -119, 85, -115, 60, 43, 88, 38, -107, 59, 46, -91, 112, -87, -114, 74, 25, 85, 37, 12, 121, -39, 13, -113, -6, 99, -59, 22, -26, -49, -82, -127, 20, 106, 123, -109, -51, 120, 13, -44, 82, -107, -50, 48, 38, -11, -53, -35, -84, 37, 65, -109, 100, 13, 75, -105, -95, -127, -119, -31, -124, 56, 72, 5, 126, -42, 5, 61, 26, 7, 106, 105, -32, -113, -24, -35, 14, -5, -90, -119, -114, 121, 48, 71, 7, -118, -13, 24, 120, 20, -94, 51, -56, 40, -48, 77, 80, 35, -41, 74, -12, 77, 2, -9, -92, -121, -87, 53, -73, 72, 63, -100, 97, 82, -80, -35, -14, 121, -116, 17, 116, -49, -92, 119, 13, 8, 116, -88, 76, 37, -88, -102, 23, 71, -69, 90, -125, -119, -56, -17, -116, -28, 99, -3, -88, -100, -91, -31, -2, -27, 110, 30, -25, -13, 101, -9, 58, -81, 60, -4, -9, -52, -31, 18, -90, -102, -128, 53, -96, -5, -89, 99, -67, 97, 97, -39, 75, -111, -119, 5, 9, 24, 24, 45, -66, -49, 22, -104, -34, 111, 103, 30, -101, 51, 79, -42, 41, -54, -126, -75, 99, -124, 71, 56, 83, -18, -29, 37, -80, 27, 98, 41, 37, 45, -80, 121, -86, 2, 71, 27, -113, 123, 21, -71, 24, 25, -118, -53, 14, 109, 42, 26, -100, 66, -107, -34, 78, -9, 86, 38, 55, -20, 26, 102, 93, -81, 80, -107, 113, 93, 63, 91, -119, 100, -99, 1, -85, 115, 110, -56, -33, 5, -48, 66, 50, 120, 25, -48, 63, -66, 67, 113, 116, 58, -42, 104, 86, 119, 39, -84, -117, -21, 115, 65, -61, -117, -48, 4, 33, 38, 85, 98, 89, 67, -112, -105, 69, -33, 37, 61, -6, 118, 111, -101, 91, 32, 83, -51, -33, -120, -69, 111, 60, 58, 13, 61, 12, 57, 107, 14, 16, -116, -98, 124, 39, 91, -20, -97, -39, -42, -21, -92, -70, -60, -84, -69, 16, 50, -97, -52, -77, 71, -69, 28, -84, 76, 34, -67, -120, 122, -74, 70, 15, 116, 101, -10, 42, 19, 63, -87, 101, 8, -86, -18, -28, -62, -102, -82, 44, 51, 66, -3, 34, -44, -93, -25, 90, 25, -58, 51, 28, -61, -49, 71, 21, 119, -126, -14, -6, -4, 9, 95, 114, 70, 30, -14, -25, 35, -96, -32, 107, 112, 33, 105, -104, -60, -83, 52, 81, 67, 23, 75, -92, 78, 79, 99, -117, -18, -86, -87, -80, 57, -97, -4, 30, -40, 124, 75, 63, -126, -16, -61, 25, 101, -61, -63, -9, -89, 113, 17, 74, -109, 26, 32, -56, 71, 46, -101, -19, 7, 36, -15, -108, 56, -100, -75, 70, 110, -75, 57, -52, -35, 116, -30, -17, 60, 95, -59, 48, 67, -43, 32, -125, -40, -62, -19, -127, -101, 88, 110, 2, -64, -94, 31, -58, 40, -26, 31, -52, -2, -117, 1, -124, -71, 71, 122, -119, -2, 13, -84, -126, -33, -52, 122, -42, -49, 18, -25, -31, -7, -50, -71, 19, -95, -41, -24, -114, 59, -49, 85, 75, -100, -112, 36, 103, -106, -111, -43, 102, -38, 23, 65, 86, 121, 107, -29, 64, -34, -82, -82, 79, 14, 106, -86, -18, 116, 28, -95, 63, 95, -35, 15, 110, 50, -76, -58, -88, 105, 10, 7, -73, -92, -122, -21, -56, 1, -125, 109, 10, 3, -121, -51, -127, 18, 111, 77, -61, 92, 25, 93, 36, -82, 51, -28, 5, 74, 76, -93, -34, -60, 103, -109, 41, 1, 115, 62, -128, 18, 87, -43, 65, -40, -32, -109, -8, 13, 14, 61, -62, -9, 91, 49, 95, -77, -113, 60, -37, -41, -68, 126, -126, 17, 21, -89, 121, -16, 71, -46, 86, -58, 76, 92, 47, 66, -112, -48, -12, -33, -57, 27, 99, -127, 69, 86, -42, -93, -119, 118, 123, 125, 25, 83, -23, 54, 114, 41, -7, 33, -22, 49, -33, 62, 124, -26, 66, 95, -8, -23, -34, 54, -77, 19, 37, -124, -62, -109, 68, -77, -19, -57, 66, 109, -97, 53, -89, -17, 83, 39, -26, -45, -28, 115, 76, -68, 3, 111, 55, -5, 75, -42, -16, -85, -83, -93, -46, 117, 11, -40, 20, -109, 122, 51, -29, -31, -18, -101, 54, 107, -93, 8, -17, 8, -59, -18, 66, 41, 120, -72, -44, 51, -72, -25, 37, -75, 43, -122, 98, -66, -67, 9, -69, -56, 36, -52, -95, -76, -100, -90, -60, 11, -54, -25, 86, 81, -18, -71, -47, 98, -30, -2, 20, 49, 81, 99, -87, -18, -75, -31, 108, -88, 114, -44, 57, 1, 42, 112, -51, -11, 54, -33, 44, 126, 20, -38, 100, -105, 81, -120, -67, -65, -42, -96, 8, 116, -41, -37, 43, -46, 117, 28, 78, 47, 47, 90, -16, 105, 29, -90, -62, -128, 40, 8, -23, -55, 127, -127, -14, 30, -44, 116, 64, 98, -97, 124, 54, 35, -10, 5, 83, 42, 79, 66, -25, 113, -65, 104, -23, -6, 30, 119, -95, -29, 87, 84, 92, 48, 37, -107, 51, 47, -12, -83, 0, 80, -14, 105, -3, 84, 80, 70, 25, 88, -4, 39, 2, 24, 54, -67, -96, -25, -96, -81, -84, -77, -26, 74, 14, 121, -56, 62, -66, 40, -101, 73, 116, -11, -82, -126, 93, 36, 26, 81, 104, 122, 48, 74, 105, 73, -23, 120, -1, -39, 78, 126, -98, 73, -126, 25, -13, -48, 6, 52, -128, 99, -13, -42, -126, 77, -89, -23, 11, 126, -104, -8, -85, 23, -30, 65, 42, 37, 8, -9, -98, -13, 55, -66, -20, -97, 66, -21, 55, 77, -48, -14, -93, 41, -6, 23, 51, 57, 117, 39, -126, 11, -95, 17, -13, -71, -113, -126, -10, -71, 127, 19, 82, 51, 111, -55, -101, -3, 68, -21, -4, -33, 52, -125, -79, 13, -105, -77, -67, 29, 62, 116, 24, -65, -36, -61, 75, 117, 80, -97, -71, -60, -33, 19, -82, 48, 120, -126, -123, 119, 125, 81, -66, -80, -19, 121, 56, -104, -77, 33, 22, 92, -89, -62, 24, 70, -124, -48, -4, 18, 85, 87, -17, 8, 124, -117, -64, 75, 23, 103, 38, -69, 38, 87, -98, 100, 121, -100, 62, 30, 3, -79, -105, -94, -79, -85, -65, -35, -67, -45, 30, 32, -23, 119, 45, -48, 13, -39, 64, 86, 13, 8, -104, -51, -86, -18, 122, 5, 4, 42, 15, 25, -92, -82, -35, 124, -71, -69, -91, 71, 68, 42, 45, 116, 8, -13, 31, 67, -31, -14, 47, -110, -89, 83, -108, 10, 12, -4, -28, -42, 66, 84, 16, 23, -119, -65, 60, 13, 24, 111, -70, -61, 109, -19, 73, -29, 121, 102, -28, 123, -35, -112, 71, 76, 65, -120, 23, 13, 85, 36, 28, 27, 75, 56, -52, 30, 86, 45, 122, 32, -27, 124, -123, 116, -35, 107, 58, -26, -26, 85, -89, 16, 21, -96, -27, 95, 122, 20, -111, -121, -70, 52, 87, 30, 126, -110, -7, -70, -3, -14, 33, 62, 107, 74, 19, -105, 49, -68, 22, 82, 17, -41, -123, -24, 100, -102, 78, 103, 0, 66, -20, 96, -44, -104, 45, -7, -114, 102, 112, -47, -7, -117, -57, -47, -77, 49, 79, 50, -110, 124, 25, -66, -13, 40, 47, -126, -72, -53, -68, -28, -78, 104, 40, 60, 105, 55, 40, -77, 4, 76, -24, -66, 119, 105, -52, 110, 14, -91, 89, -9, 15, -10, 91, 46, -11, -35, -103, 51, 127, 22, -53, 52, -67, -37, -120, 126, 116, -128, -107, -90, 98, -36, 90, 9, 102, -56, -21, 39, -47, 10, -4, 57, -43, 54, 116, -54, -52, -20, 29, 106, -44, -60, -100, 19, -33, -54, 114, -65, 68, -104, -100, 29, 37, 49, 121, -57, -74, -43, 62, 22, -48, 100, -66, 27, -29, -105, 123, -47, -85, -37, -44, 79, 59, 69, -99, 57, -31, 6, 61, 17, -91, -30, -128, 107, 119, -2, -32, -64, 24, 25, 77, 62, 10, -49, 114, -29, 9, 9, -52, -105, -24, -64, 107, 125, 81, -42, 124, -85, -73, 14, -47, 36, 16, 71, -93, 121, 29, -24, 78, 66, 100, -22, -40, 20, -21, 30, -76, 56, 61, -104, 90, -77, -123, -24, -41, 106, -94, -87, 72, -69, -128, -110, -68, 110, -93, -74, 59, 47, 95, -98, -120, -89, -62, -31, 104, 82, 119, 95, -28, -71, 95, -70, -10, -77, -58, 68, -100, 82, 85, -120, -127, -107, 122, 64, -60, -75, 75, -12, -75, 61, -96, -85, -19, 120, 67, 74, -55, 27, 56, -93, 1, 58, 50, -87, 106, 96, 111, 122, 59, 9, 123, 105, -105, 71, -51, -40, 90, -11, 11, 21, 126, -24, -53, -61, 114, 38, 117, -41, -28, 75, -46, -50, 25, 108, 114, -76, -47, -7, 116, -75, 125, 26, 115, 101, -37, 2, 51, -104, -114, -121, 16, 41, 13, -54, -109, -98, -24, 110, -11, 15, 118, 92, -62, -122, -5, -63, 0, -91, -26, 91, -59, -109, -20 };

// Original range: [-0.0978829, 0.0996590]
static const float conv2_bias_scale = 0.00077467f;
static const float conv2_bias_zero_point = 126.35369110f;
static const int8_t conv2_bias_quantized[] = { -85, 5, -13, 11, 69, 14, -1, 19, 3, 0, -80, -40, -63, -125, 7, -92, -36, -116, -92, 60, -101, -53, 19, -18, -107, -81, 10, -86, 116, 0, -20, 70, -15, 10, -22, -66, -107, 54, -73, -38, 28, -52, -14, 28, -76, 94, 78, -88, -104, 10, -114, 84, 82, 95, -124, -50, -65, 15, -44, -17, -85, 110, 99, 115 };

// Original range: [1.0000000, 1.0000000]
static const float bn2_weight_scale = 0.00000000f;
static const float bn2_weight_zero_point = -inff;
static const int8_t bn2_weight_quantized[] = { 0, 0, 0, 0, 0, 0, 0, 0, 0, 0, 0, 0, 0, 0, 0, 0, 0, 0, 0, 0, 0, 0, 0, 0, 0, 0, 0, 0, 0, 0, 0, 0, 0, 0, 0, 0, 0, 0, 0, 0, 0, 0, 0, 0, 0, 0, 0, 0, 0, 0, 0, 0, 0, 0, 0, 0, 0, 0, 0, 0, 0, 0, 0, 0 };

// Original range: [0.0000000, 0.0000000]
static const float bn2_bias_scale = 0.00000000f;
static const float bn2_bias_zero_point = nanf;
static const int8_t bn2_bias_quantized[] = { 0, 0, 0, 0, 0, 0, 0, 0, 0, 0, 0, 0, 0, 0, 0, 0, 0, 0, 0, 0, 0, 0, 0, 0, 0, 0, 0, 0, 0, 0, 0, 0, 0, 0, 0, 0, 0, 0, 0, 0, 0, 0, 0, 0, 0, 0, 0, 0, 0, 0, 0, 0, 0, 0, 0, 0, 0, 0, 0, 0, 0, 0, 0, 0 };

// Original range: [0.0000000, 0.0000000]
static const float bn2_running_mean_scale = 0.00000000f;
static const float bn2_running_mean_zero_point = nanf;
static const int8_t bn2_running_mean_quantized[] = { 0, 0, 0, 0, 0, 0, 0, 0, 0, 0, 0, 0, 0, 0, 0, 0, 0, 0, 0, 0, 0, 0, 0, 0, 0, 0, 0, 0, 0, 0, 0, 0, 0, 0, 0, 0, 0, 0, 0, 0, 0, 0, 0, 0, 0, 0, 0, 0, 0, 0, 0, 0, 0, 0, 0, 0, 0, 0, 0, 0, 0, 0, 0, 0 };

// Original range: [1.0000000, 1.0000000]
static const float bn2_running_var_scale = 0.00000000f;
static const float bn2_running_var_zero_point = -inff;
static const int8_t bn2_running_var_quantized[] = { 0, 0, 0, 0, 0, 0, 0, 0, 0, 0, 0, 0, 0, 0, 0, 0, 0, 0, 0, 0, 0, 0, 0, 0, 0, 0, 0, 0, 0, 0, 0, 0, 0, 0, 0, 0, 0, 0, 0, 0, 0, 0, 0, 0, 0, 0, 0, 0, 0, 0, 0, 0, 0, 0, 0, 0, 0, 0, 0, 0, 0, 0, 0, 0 };

// Original range: [0.0000000, 0.0000000]
static const float bn2_num_batches_tracked_scale = 0.00000000f;
static const float bn2_num_batches_tracked_zero_point = nanf;
static const int8_t bn2_num_batches_tracked_quantized[] = { 0 };

// Original range: [-0.1249768, 0.1248941]
static const float fc_proj_weight_scale = 0.00097989f;
static const float fc_proj_weight_zero_point = 127.54220581f;
static const int8_t fc_proj_weight_quantized[] = { 37, -78, 76, 14, 25, -73, -117, -47, 114, -80, 52, 31, 82, 24, 41, 73, -80, 66, 46, -31, -30, 49, 24, 108, -24, 40, 54, 37, -62, 113, -118, 91, -78, 53, -69, -23, 30, 68, 126, 15, -59, -2, 73, 16, 99, -77, -55, -38, 73, 126, 55, -62, -123, -111, 89, -82, 74, -28, 56, 101, 92, -128, 11, -11, 106, -9, 87, 80, 35, -90, 1, 23, 72, -74, 35, -71, 78, -101, 56, 3, -95, -48, 9, 77, 28, 61, 84, -24, 63, -16, 36, 43, -107, 60, 2, 36, 9, 120, 13, 124, 47, 104, 19, -119, 92, 44, 101, -47, 15, 46, 2, 92, 68, 22, 76, -126, -10, -23, 45, 87, 96, -118, 22, 117, -98, -15, -41, 61, -108, 31, -118, -9, 124, -19, 65, -76, -20, 35, -69, -127, -33, 24, -67, -103, 115, -101, 125, 87, -115, -15, 55, 33, -50, -109, -55, 114, -68, 119, 121, 75, 49, -115, -118, 100, -84, 11, 58, -85, 0, -31, -111, 22, 79, -19, -59, 101, -17, 62, 33, 26, -53, 55, 120, 28, 52, 79, 81, 26, -85, -5, -103, -43, -117, -44, -120, -44, 21, -83, -62, -105, -96, 109, 89, 14, -85, 8, -41, -65, 41, 119, -116, -99, 21, -100, -86, 70, -36, 8, -57, 73, 54, -7, -4, 43, -80, -104, -114, -41, -50, 53, -117, 63, -15, -76, -66, -7, 94, 90, 122, 121, 113, -93, 48, -90, -5, -61, -49, 93, 30, -36, 77, 11, -99, 36, 41, 101, -60, -97, 82, 13, 117, -31, -38, -8, 73, -124, -73, -94, -26, 91, -116, -39, -12, 4, 111, 74, 8, -86, -71, 75, 42, -29, -45, -93, -120, 122, -101, -83, -86, 14, -86, -9, 4, -48, -128, -78, -116, 66, 43, 89, 65, 53, -91, 102, -102, -123, -83, -40, -15, -9, -126, -67, -112, 102, 69, -25, 18, -65, 80, 69, -7, -106, 51, -71, -88, -20, -114, -128, -29, 37, -43, -34, -64, -69, 122, 4, 64, 3, 105, 25, -20, 107, 86, -54, 51, -37, 13, -84, 72, 51, 22, 79, -44, -13, 45, -121, 85, 18, -83, -86, 109, 97, -64, -120, -43, 71, 53, 124, -104, -84, 107, 109, -6, 75, 70, 125, 110, -57, -54, 20, 11, -60, 62, 117, -57, 123, 2, 19, -3, 94, -31, 52, -98, -23, 55, 12, -119, -51, 60, -63, -33, -66, 73, 80, -21, 89, 94, -10, 87, -81, -32, 83, 73, 29, 30, -123, -90, -94, -67, 25, -55, 92, 116, -3, -84, -86, 79, 75, -87, 36, -101, -14, -87, 106, -86, -27, 24, 56, -120, -55, 88, -44, -123, -59, 13, 3, -51, -14, 114, -65, 73, 60, 29, 11, -89, -91, -53, 44, 68, -74, 105, -97, 98, -94, 57, 37, -120, 47, -67, 96, 62, 60, -93, 46, -28, -92, 125, 39, 82, 59, -110, -55, -127, 60, -105, 110, -82, 72, 69, -44, 103, 98, -102, 40, -122, 67, 116, 46, -127, -46, -53, 2, 41, 14, 26, 63, 5, 33, -124, -63, 16, -50, -87, 125, 98, -101, -52, -121, 95, 74, -126, -6, -67, 79, -73, 5, 17, -41, 97, 31, 98, 32, 61, 10, -113, 110, -99, 79, -12, -33, -126, -48, 52, 115, 35, 97, -87, -48, -112, 111, -94, -39, -15, 109, -76, 13, -85, 67, 114, 71, -113, 5, 97, 71, 10, 74, -39, -58, -122, 6, -28, -37, 109, -42, -93, -126, -107, 116, -41, 27, -104, 107, -99, -27, -123, -37, 98, -58, 92, -119, -29, -21, 15, -63, -54, -77, 36, -55, 27, -95, 13, -121, 6, -24, 96, -123, -92, 47, 26, -68, -6, 49, 15, 99, -116, -97, -52, -37, -105, -117, -43, -21, -60, -14, 56, 115, -95, 117, 75, 55, -116, -105, -114, 113, 108, 48, 49, 81, 120, -72, 112, -81, -88, 123, -96, 80, -29, -88, 88, 36, 113, 72, 42, 106, -61, 44, 99, 102, -76, -9, 67, -58, 58, 56, -36, -24, 62, 44, -14, -88, 98, 116, 32, 46, -42, -39, -7, -124, 69, 13, 50, 109, 10, -24, -120, 66, -49, -65, 41, 95, 10, -51, -74, -39, 36, 116, -12, 24, 28, 121, -73, -117, 28, -115, -77, 8, 26, 125, 107, 87, 42, -28, -44, -71, -84, -43, 121, -90, -101, 43, -38, 99, 74, 86, -100, 36, -9, -68, -64, 63, 123, 125, 28, 12, -102, 83, 97, 78, 86, -41, 76, -38, -115, -21, -126, -52, -100, 96, 4, -23, 120, -31, -37, -114, -40, 88, 10, 63, -122, 96, 19, -35, 4, -117, -115, -9, 106, 52, -24, 72, 42, 68, 121, 93, -70, 48, -65, 76, 101, 107, 77, 3, -50, -49, 88, 32, 45, -12, 50, -12, -41, -94, 3, -95, -82, 118, 91, 23, -55, -20, -10, -71, -33, 48, 69, 34, 79, 72, -21, 106, -36, 12, 42, -71, 112, -71, 27, 76, -79, 52, 75, 2, 69, -106, -73, -104, -29, -91, -110, 10, 106, 62, -12, -47, -109, -103, -80, -27, -44, 35, 90, 114, -107, -100, -88, -21, -128, 37, 82, 17, 76, 32, -95, -67, 9, 119, -99, 33, -8, -3, -6, -48, 115, -100, 68, 71, -36, 98, 22, 17, -34, 118, -90, 47, 120, 115, -16, -49, 81, -91, 44, 95, 40, -4, 112, -3, -50, 43, -13, -114, -41, -1, 111, -37, -88, -77, 65, 77, -99, -76, -96, 13, 38, 78, -99, 9, -41, -22, 20, 106, -89, -32, 67, -57, -45, 81, -24, 114, -57, -63, -128, 21, 91, -81, -127, 0, -105, 40, -109, 24, 45, 39, 107, -102, -75, -17, -31, -116, -85, 57, 118, 64, 113, 110, -128, 28, -49, -36, -59, -60, 103, 2, -103, 2, -72, -24, 7, -61, 33, 50, 67, -82, 70, -25, -33, -101, 28, -87, 96, 79, -107, 94, 97, 104, -39, 70, -26, 45, 63, -107, -127, -80, 3, 10, 69, -127, 60, -107, 63, -48, 53, -61, 50, 114, 106, 5, -99, -90, 47, 103, 21, 47, 61, 30, 1, 48, 29, -128, 126, 84, -10, -41, -80, -70, -23, -24, -110, 21, 28, 25, -22, 59, 120, -80, 97, -47, -73, 108, -66, -22, 93, 47, -119, -123, -25, 123, -58, 7, -29, -75, 48, -57, -48, -11, -60, -46, -85, -82, 2, 60, -24, 93, 11, 105, 86, -95, 91, 106, 100, -22, 79, 58, 10, -57, -72, 57, 58, -128, 126, 23, 28, -81, 111, -104, -110, 77, -86, -107, -70, -110, 61, 18, 34, 27, 69, 84, -37, 33, -87, 114, -87, -39, 117, -126, 108, 77, 7, -107, -63, -115, -41, -73, 87, -76, -73, -28, 2, -26, -25, 44, 25, -41, 29, -39, 41, -92, -12, 22, 56, 75, -108, -59, -96, 14, -8, 96, 97, -83, 12, -46, 63, -69, 38, -122, -3, 121, -71, -20, -45, 103, 114, -25, 76, -108, -120, -81, -2, -4, -39, -16, 5, 108, -33, -55, -18, 94, 119, 94, -37, -121, -107, 26, 88, 83, -57, 28, 31, -49, 3, 15, -9, 39, -123, 124, -47, 120, 54, 51, -7, -15, 98, -113, 4, 44, 74, -49, 117, 26, -123, -114, 112, 47, -33, 6, 100, -40, -14, 4, 8, -9, 25, 123, -18, 123, 114, 122, 57, 112, -1, 13, 59, 63, 67, 75, 50, -106, -114, 73, -108, -24, -60, -43, -45, 40, -107, 39, 86, -33, -65, -31, -94, 10, 121, 32, -86, 38, -86, 10, -70, 127, 18, 120, 122, 1, 39, 62, -116, 65, 109, -37, -14, 6, -18, -50, -106, 13, -123, 36, 25, 28, -10, 74, -104, -43, -104, -108, -72, -118, 45, 31, -97, 73, 9, 21, 127, -81, -103, -49, 126, 22, 99, 20, -98, 116, -65, 22, -128, 10, 61, -120, 116, 60, 42, -12, 74, 108, -84, -127, 101, -2, 2, -24, -102, -45, 16, -97, -81, 17, -2, 65, -105, -124, -51, 125, -109, 78, -91, 115, 7, -110, 120, 42, -52, 127, 67, 42, 20, 80, 85, -108, 113, -30, 97, 46, 10, -30, -29, -17, -62, -123, 5, 116, -51, 103, -46, 35, -108, 52, 95, -95, -113, -49, 81, 109, -13, -11, -4, 69, 47, -21, 114, -95, 72, -118, 67, -113, 47, 52, 100, -13, -26, 12, -98, 105, 33, -90, -115, -51, 102, 21, 22, -82, 74, -7, -26, -48, -30, -116, -41, -41, 0, -17, 98, -50, -34, 115, 71, -124, 92, -120, 46, -53, 94, -71, -56, -45, -75, 117, -18, 26, 15, -107, -21, -32, -67, -91, 8, 58, -106, 61, 126, -48, 116, 36, 14, -54, -64, 59, 47, 106, 71, 55, 105, -39, 125, -64, -82, 121, 99, 109, -124, -36, -46, 107, -54, -126, 68, 24, -76, 4, 39, 34, -117, 118, 26, 5, 20, -95, 56, -79, -22, -82, 5, 25, 35, -2, 13, 45, 32, 63, -109, -117, 41, -128, -19, 73, -56, 10, 35, 19, 114, 68, -99, -61, -81, -77, 126, 116, 109, -38, 82, 74, -92, -28, -93, -128, 84, -25, 103, -32, 63, 89, 120, 53, -14, -118, -78, -112, 95, 78, -67, 43, 10, 121, 59, -93, 47, -115, 81, 120, -89, -121, 7, -58, -73, -25, -16, 110, 105, -16, 52, 0, -7, 70, 50, -21, 18, -10, -114, 108, -105, 29, 92, -125, 113, -51, 68, 92, -68, -93, 30, 62, -19, 80, 47, -88, -44, 34, -22, -82, -128, 79, 18, 33, 98, -36, -90, 125, 73, 3, -58, -101, -55, 39, -57, -84, 26, -87, -60, -84, 21, -71, 24, -102, -48, -78, 68, 51, 82, -95, -2, -94, 112, 67, 0, 15, -82, -35, 127, -40, -78, 57, 13, -3, 74, -3, 116, 69, 48, -52, 40, -8, -73, -108, -84, 69, -12, -94, 80, 111, -122, -21, -2, 127, -17, 20, -54, -85, -104, -82, -19, 97, -79, -58, 28, -9, 49, -29, 33, 121, -50, 89, 33, -107, 13, -42, 25, 79, 21, -110, 108, -2, -70, 69, -128, 111, 63, -80, 58, -20, 66, -26, -90, -50, -84, 57, 31, 110, -114, -72, -84, -106, 52, -66, 66, -16, 85, 36, 114, -68, 17, 101, -27, 71, 66, 34, 15, 0, -59, -2, 125, -38, 2, 52, -105, -119, 49, -109, 84, -101, -9, 50, -81, -11, 97, -3, -60, -98, -21, 72, 42, 112, 57, -21, 114, -34, -72, 9, 113, -42, -87, 124, 89, 48, -3, 86, -76, -6, 10, 79, -34, -5, 75, 112, -119, -55, -31, 104, -96, 100, -65, -75, -89, 55, -13, -45, -90, 72, 72, -39, 71, 41, -94, -71, -122, -36, -12, 125, -77, 86, -37, -64, 17, 41, -77, -110, 44, -20, 77, -26, -8, 37, 26, 47, -84, 71, 118, -11, -123, -54, -128, 15, 85, -103, 16, 87, 121, -71, -69, -18, -106, 68, -79, 94, 64, -114, -100, -19, 34, 78, 106, -63, 36, 10, -81, 74, 29, 64, 33, 53, 122, 99, 111, -110, 88, -43, 107, -98, 53, 33, -1, 112, -54, 47, -70, 51, -125, -127, -21, -59, -109, 51, 37, -17, 26, 41, 8, -71, 101, 92, -123, 98, -32, 11, 7, 37, 99, 42, -15, 19, -21, -52, 45, 126, -94, -67, -31, -103, -40, -27, 51, 90, -97, -99, 92, 51, 53, 109, -45, -36, -99, 121, -71, -109, 95, 105, 95, 43, 41, -93, -103, -92, 92, -74, -126, 28, 100, 91, 67, 122, -44, 114, -17, -87, -109, -109, 104, -81, -74, 111, -128, -16, -38, 102, -85, 11, 105, -45, -94, 31, -41, 81, -10, -36, 35, -68, 106, 3, -96, -75, -48, 107, 32, 15, 57, 12, 103, 70, 24, 6, 77, -66, -47, -124, 36, -97, -66, 57, 5, 61, 9, -28, 102, -85, 50, -10, -56, -98, -102, -96, -73, -77, -103, -90, -101, 100, -68, 51, -84, 116, -121, 123, 59, 20, -22, 46, -49, 68, -95, 126, 97, -11, -97, 93, -39, -44, -12, 78, 43, -55, -98, -17, -12, 45, -86, 127, 119, -126, -100, 85, -110, 102, -29, 69, -127, -85, -51, -80, 82, -14, 63, 106, -23, 66, 57, -55, -42, 40, -30, -41, 10, 109, 1, 12, -121, 122, -59, 80, -89, 13, -72, 124, 125, 118, 64, -80, 21, -19, 114, 41, -35, 13, -55, -46, 15, 24, 106, 97, 2, 75, -85, -17, 55, -109, 33, -82, 43, -126, 34, 66, 91, -86, -79, 86, -23, 7, -116, 70, 32, -46, -119, 55, 102, -11, -88, -72, 66, 102, 56, -45, -55, 46, 15, 74, -24, 108, 22, -30, 60, 7, 96, -94, -91, -40, -43, -66, 23, -32, 28, -43, -41, 110, 103, 103, -66, -41, -46, 75, 42, -30, -119, 66, -108, -31, -42, -70, -112, 66, 28, -45, -85, 5, 120, -52, 121, -76, -23, -76, -68, 37, 113, 39, -61, -80, -68, -88, -25, -36, 18, -43, 116, -100, 1, -100, -23, -109, 117, -92, -14, 21, -100, 102, -104, 62, 52, -82, 93, -81, -64, -49, -13, 94, -114, 70, -41, 63, -4, -55, 111, 20, -3, -81, 80, 19, 22, 81, 7, 57, 30, -48, -90, -114, -114, 102, 97, -95, 26, 50, -111, -12, 69, 118, -112, -28, 20, 76, -111, -3, -6, -119, 61, -62, -125, -64, -72, 117, -6, -30, -49, -122, 69, 43, 64, -58, -125, -75, -125, -3, -112, -19, 12, 85, 106, -34, 38, 33, 119, -91, -25, -5, 67, 76, 23, 111, 37, -46, -20, 92, -26, 65, -32, 89, 52, 80, -120, -55, 33, -59, 72, -26, -58, -39, 33, -116, -88, -22, 122, 82, -51, 34, 67, -69, -62, -19, 37, -85, 25, 107, 118, -30, 29, -55, -98, -19, 64, 90, 125, -58, -84, -110, 95, -102, 112, -78, -11, 92, -99, -88, -25, -127, 39, 126, -42, 46, -48, 54, 11, 47, -99, 116, 49, 7, 85, 113, 42, -94, -48, 98, 80, -110, 104, -112, 81, 95, 2, 5, -6, 11, -82, 92, -22, -3, -33, 47, 22, -110, -54, -87, 40, 46, -30, -36, 126, -2, 78, 18, -32, -59, -64, 125, 17, 108, -43, 8, -70, -49, 101, -10, -90, 76, 88, -30, 98, 69, 126, -12, 69, 13, -10, 102, 46, -120, 126, 88, 61, 114, -50, -40, -36, 66, -14, 81, 44, 97, 66, -80, -76, 73, -97, 68, 32, -34, -30, 55, -44, 94, -83, -123, -13, -83, 115, -87, 27, 95, -34, 23, 1, 86, -109, -87, 77, 118, 78, 60, -7, 9, 47, 19, 40, 93, -109, 107, 109, -117, 78, 102, 63, -51, -56, -117, -24, -82, -25, 85, 6, 101, -95, 124, 5, 24, 96, -77, 107, -113, 76, 93, 40, 44, 64, -26, -11, 80, -35, 49, -32, -45, 53, -42, -56, -83, 108, 119, -22, 83, -42, 125, 17, 48, 71, -93, 83, -8, -89, 102, 49, -12, 7, 41, 75, -90, -34, -67, -51, -65, -102, -88, 91, -54, 35, -20, -105, 3, -64, 82, -37, 100, -80, 14, -107, 69, 26, -21, 79, 87, 118, 35, -105, -109, 101, 72, 95, 2, -127, -120, -34, 1, -92, -59, 27, -24, -76, -31, 39, 96, -51, 59, 33, -83, -85, -96, -95, 66, -59, -111, 60, 94, -83, -1, -37, 123, 76, 76, 33, 11, -78, 119, 2, 17, 82, 74, -107, -61, -120, 33, -100, 3, 67, 9, 117, 62, 54, -68, 108, -51, 102, -37, -89, 40, -49, -72, -55, -84, 68, -97, 68, -106, 87, 82, 87, 71, -30, -97, -55, 107, 93, 6, -62, -55, -72, 60, 53, 33, 45, -25, 104, -61, -30, 112, -31, -109, 67, 56, 113, 101, 78, -23, 79, -81, 99, -60, -59, -126, -82, -112, 16, 124, -17, -57, -101, 55, 42, -17, -120, 94, -27, -11, 77, -105, 20, 19, 16, -65, 21, 6, 50, 72, 92, -86, 84, 88, -19, 122, 65, -9, -99, -88, 10, 6, 75, 20, 67, -116, -126, -22, -68, -32, -102, 126, -60, -72, 32, -41, 48, 57, -40, -97, -11, 60, -117, 99, -78, 80, -32, -78, -29, -79, -80, -45, -63, -89, -77, 77, -23, -68, 99, -41, -80, 12, 49, 75, 3, -110, -18, -120, -76, -111, -82, 108, 80, 13, -44, 26, 73, 46, -41, -87, 112, -121, 119, 64, 62, 122, 28, 47, 98, -74, 80, -50, -127, 124, 13, 17, 74, -128, 116, -2, -11, -128, -84, -30, -66, 119, 32, -124, -10, 58, -14, -103, 13, -105, 39, -116, 117, -31, -97, 9, -94, 68, 33, 17, -124, 111, 3, -45, 29, 113, -118, 17, 83, -23, -104, 90, 101, -88, -33, 116, 54, 93, 104, 64, 41, 51, 73, -30, 28, 106, 101, -36, 15, -44, -71, 104, 85, -61, -113, -114, -76, 41, 31, 122, 69, 57, 92, -39, 120, 69, -33, -114, -120, -28, -116, 39, -38, 36, -23, 95, 35, -26, -36, -27, -86, -57, -35, -114, -93, -97, -76, 51, 6, 16, -107, 0, 8, -91, 39, -81, 99, 41, -115, -52, 4, -34, -101, 29, 23, -7, -126, -79, 78, 6, -62, 19, -33, -62, 80, 113, -105, 67, 55, -28, -106, -62, -115, -35, -10, 25, -71, 79, -69, -5, -8, 46, -5, 88, 3, 21, -113, 48, -92, -21, -80, 72, 118, 97, -47, 112, -89, 55, 45, 10, 124, -4, 82, 127, -84, -119, -111, -62, -84, -2, 7, 77, -47, -50, 10, -47, 34, -86, -79, -109, 124, 72, -8, 58, -8, -57, 94, 48, -95, 77, 2, 109, 94, 121, -43, 48, -120, -96, 37, -75, 107, 56, 35, -100, 106, -117, 22, -42, -36, -97, -25, -25, 29, 78, -57, -107, 53, 31, -36, 36, 112, 109, 36, 103, 68, -98, -88, -79, -61, 9, 77, 39, -114, 76, 95, -85, 25, -24, -27, -88, 15, -88, 125, -21, 20, 63, 23, 100, 95, -94, 88, 5, 79, 3, 2, -104, 5, 77, 89, 111, 111, -119, -27, 15, 88, -3, -101, 104, 14, -59, -28, -4, 44, 74, 33, 62, -33, -120, 126, -124, 26, 30, -89, 48, 48, -111, -23, 10, 62, 48, 67, -95, -77, 19, 122, -9, -34, -10, 59, -115, -109, -87, -22, -87, -58, 12, 54, 87, 118, -87, -105, 32, 76, 42, -10, 101, -64, -74, -53, 72, -42, -81, 46, 109, 74, -85, 123, -116, 57, -82, -29, 93, -115, -52, 39, 111, 84, 21, 68, -128, 62, -72, -96, -74, 120, 94, 121, -75, 53, 16, 59, 73, 91, -102, 119, 95, 126, -113, 54, -101, -106, -13, -15, -13, 41, -42, -11, 111, 123, -6, -14, 101, -83, -60, 80, 95, 88, -17, 17, 112, 5, 107, -44, 78, 10, -84, -93, -61, 39, 33, 27, 25, -71, 123, 26, 82, -73, 48, -77, 112, -84, 65, -24, -73, -102, -102, -14, -42, -87, -68, -46, 99, 83, -101, 13, 112, 8, 43, 30, -76, 74, -94, -11, 19, 33, 71, -94, 40, 89, -57, -46, 124, 116, 21, 61, -84, 1, -13, 111, -52, 27, -83, 32, 71, -25, -127, -10, 17, -87, -104, 0, -23, 3, 1, -40, 9, -94, -39, 76, 47, -50, 125, -72, 123, -42, -42, -75, 33, 4, 17, -22, -91, -110, -121, 91, 73, -66, 48, 71, -20, 77, 47, 66, -56, -92, 73, 33, 47, 107, -63, 68, -52, -127, 71, 90, -92, 66, -57, 29, -5, -106, -120, 127, 31, -48, -90, -77, 59, 29, 71, -111, -69, -116, -109, 7, -82, -71, 70, -35, -55, -58, -32, -9, 108, 42, -126, 114, 13, 70, 124, 84, -55, 61, -53, -108, 76, 74, 72, 75, 67, -64, 104, 33, -22, -81, 24, -61, -56, 33, -33, -49, 59, -73, -113, 34, 85, -21, 38, -104, -58, 104, 39, -124, -107, -9, -61, 88, 75, 29, 118, -109, 30, -99, 94, -37, -119, -42, 110, -37, 0, -108, -119, -11, -57, -30, 65, 107, 110, -92, 36, -41, -112, -84, -62, -69, 106, 80, 58, -54, -91, -109, -58, 24, -119, -78, 84, -24, -48, -19, -34, -26, -59, -128, -19, 89, 71, 59, -18, 57, -109, -80, 102, 22, -14, 41, -15, -75, -49, 2, -69, -115, 84, -85, 47, -65, -13, 87, -78, -52, -19, -112, 97, 106, 103, 127, 25, -22, -93, 43, 110, 57, 82, 10, -11, 27, -59, -106, -116, -116, 110, 57, -107, 3, -69, 42, 30, 84, -92, -43, -75, -111, 109, 77, 47, -127, -16, 13, 6, 108, -25, 73, 78, 69, -101, 83, -96, -89, -54, -38, 127, 66, 29, 2, -122, 59, -2, 82, 122, -76, 10, 123, -118, 4, 47, -71, -72, 111, 94, -102, -18, 33, -90, 124, 64, 20, -60, 91, 32, -98, -82, -24, -30, -112, -125, 5, 44, 59, -39, -66, 80, 78, 123, 78, -25, -62, 99, -60, 50, 23, -8, -81, -103, 110, -57, -42, 0, 11, -72, 100, -30, 95, 5, -36, 27, -38, -107, -52, -62, -53, -16, -111, -84, 86, 96, 13, -38, 74, -11, -117, 44, -31, 68, -99, -86, -51, 32, -44, 114, 18, -119, 79, -40, 7, 82, 19, -88, 66, 31, -98, -61, 119, 93, -29, -114, -108, -102, -14, 41, -79, -27, 89, -28, 110, 63, -79, -92, 12, 63, 17, 126, 63, 23, 31, 67, -16, -23, -68, -61, -7, -63, -92, -111, -7, 54, -64, 52, 12, 101, 33, 121, -105, -52, 40, 63, 69, -49, -124, 92, -32, 12, -89, 86, 7, -118, 62, -126, 36, -35, 87, -111, 7, -4, 67, 79, 10, -21, -13, -88, -101, -103, -68, -112, 85, 91, 96, 36, -91, -118, 64, 3, 43, -124, -22, 41, -42, 71, 126, 11, -29, 88, 67, 8, -24, -83, 49, -63, -14, -72, 89, 57, -72, -57, -89, -119, -77, 18, 54, -11, -51, -24, 67, 6, -39, 25, 124, -35, -77, -5, 95, -86, 21, -33, 56, 91, 46, 88, 69, -128, -62, 6, -96, 23, 48, 33, -72, -66, -14, 69, 35, 4, 1, -15, 62, -32, 97, -44, -95, -73, 35, 20, 10, -55, -102, -36, -112, -32, 72, 16, 57, 39, 87, -54, -15, -104, -106, 39, 111, -12, -53, -16, -42, -16, -62, -122, -8, 96, 104, 28, -122, -73, 122, -106, -67, 22, 15, 93, 49, 43, -36, -17, 4, -119, 16, -27, -43, 19, 34, 88, -121, -9, 10, -111, 89, -38, 83, -64, 109, -116, 107, 10, -6, -69, -94, 17, 13, 63, 96, 63, 88, -35, 86, 105, 73, -64, -126, -101, -91, 4, 67, 109, 16, 105, 73, 81, 2, -118, 46, 34, 121, 110, 53, 64, -21, -15, -95, -111, -43, -40, -121, 84, -23, 45, -69, -124, -107, 50, 88, -66, -59, -122, -110, 118, 42, 87, 39, -102, 8, 33, -118, 33, 98, 68, -10, -72, 32, -100, 37, 114, 26, 70, 17, 119, -102, 10, 25, -94, 31, -71, -76, -38, 70, -62, 110, 27, 11, 79, -1, -100, 77, -106, -66, 4, 61, -34, -40, 27, 58, 72, 102, -21, 120, 51, -89, 122, -29, -102, 119, -110, 97, -97, 22, 19, -52, 118, -127, -49, -8, 51, 21, -40, 107, -64, -22, -6, 69, 102, -97, 103, 44, 97, -49, 86, -4, -7, 79, 117, 91, 27, -37, -66, 120, 113, 96, -69, -109, 29, -117, 8, 4, 89, 99, -6, -114, -85, 102, -83, -90, 105, 121, -21, -6, -10, 50, 108, 83, 30, -24, -49, -88, -30, 51, 36, -16, -43, 7, 79, -57, 105, -45, 80, 110, -100, 8, 45, -26, 118, -61, -20, -30, 59, 49, -17, 73, 29, 39, 96, 91, 36, 13, -2, -40, -47, 27, -92, 58, 1, -67, -44, -125, 37, -120, -59, 104, 20, -6, -45, -87, -54, 12, 9, 120, -42, 38, -114, 15, 12, -10, 52, 18, -65, 29, -33, 116, 99, 117, 96, 9, 46, -107, 22, -80, 62, 38, 32, -107, -43, 99, 124, 112, 56, -56, -126, 30, 108, 100, -112, 79, -104, 26, 67, 30, 120, -110, 88, -78, 40, 80, -94, -21, -18, 51, -84, -94, -32, 73, 54, -80, 79, -119, -56, 54, 61, -112, 54, 81, 94, -82, 19, 5, -93, -24, -5, 78, -110, 106, -92, 58, 9, -36, -97, -75, 11, -60, 95, -57, 38, 110, -46, 5, -13, 98, -100, -79, -92, -43, -33, 116, -24, 101, -85, 29, 21, 71, 9, 106, 85, -62, 92, -40, 87, -121, -58, 72, -70, -60, 36, 79, -48, 44, 121, 16, -77, -60, 90, 106, -68, -10, -41, -54, -26, 40, 57, 81, 49, -35, -94, -12, -10, 44, 50, 33, 109, -37, 32, -76, 102, 88, -14, 80, 77, -52, 8, 29, 47, -116, 91, 118, 59, 102, 8, 59, -53, -67, -17, -99, 3, 28, 73, -88, 6, 92, 34, 105, -16, 54, 117, 104, 91, 66, 9, 50, 124, -93, -108, -82, -112, 40, 125, 76, -124, 97, -122, -121, -64, 90, 91, -99, -116, 15, 116, -88, 105, 74, 6, 37, 26, 122, -37, -19, 34, 124, -13, -13, -6, -125, 45, -32, -125, -62, -64, 5, -101, -30, 118, -33, -17, 105, 29, -45, 65, 110, 70, 112, -121, 68, -124, -15, 108, 90, 114, -87, -113, -36, -49, 42, 115, 85, 110, 48, 16, 74, 97, 125, 7, -12, 63, 29, -19, -125, -110, -61, 37, -93, 73, 59, 51, 24, -71, -66, -114, 22, -99, -53, -78, 127, -72, -50, 78, 65, -83, -67, -15, 72, -90, 119, 123, -61, 26, -121, -38, 65, -43, -72, -16, -16, 82, -14, 67, 96, 127, -116, -63, 72, -46, 19, -109, 112, 67, -127, -76, 62, 10, -110, -116, 16, -76, -41, -71, -110, -78, 36, 121, 47, 53, 28, -8, -41, 25, 102, 107, 62, -47, 19, 82, 105, -123, 7, -72, 125, -83, -36, 30, -10, -28, -59, -50, -63, -13, -35, -115, 53, -49, 44, 7, -41, 87, -84, -116, 84, -63, 73, -91, 87, 87, 99, -107, -124, -58, 106, 112, -71, -124, -18, 117, 27, -125, 11, -69, 52, -86, -56, -81, -71, -51, -63, -16, 6, 26, -80, 56, 42, 110, 81, -51, 60, -2, 4, 89, -69, -49, -54, 29, 21, 104, -62, -95, 78, -80, 109, -126, 25, -108, 5, -22, 38, -30, 17, -37, 42, 82, 31, -78, -86, 1, -53, -45, 67, -3, -52, -66, 67, -18, 94, -5, -31, -46, 42, 118, -16, -37, -36, -101, 78, -59, 80, 32, -39, 32, 95, -47, 72, -35, -113, 23, -75, -104, -126, 25, -91, -64, 29, 106, -60, -81, 75, 108, -3, 6, 31, -49, -65, 114, 6, 75, 17, 4, 36, 50, 64, 33, 47, 24, -29, -69, 67, -64, -52, 124, -26, 113, 63, -88, -121, 58, -99, 112, -98, 37, -44, 84, -5, -81, 75, -27, -33, -62, -100, -40, 82, 93, 90, -80, -111, -26, -76, -90, 127, -42, -86, 26, -128, 24, 78, -79, -8, -27, 12, -85, -109, -126, 25, 66, -59, -126, 29, -5, 62, -83, 39, 107, -44, 56, -52, 23, -127, -52, -69, -37, 108, -126, -97, -57, -63, -9, 6, -56, 31, 21, -69, -23, 104, -74, -127, 114, -72, -29, 20, 37, -120, 94, -91, 49, -120, 72, -42, 68, -94, -82, 123, -29, -12, 43, -61, -27, 40, -117, -68, 5, -71, 10, -21, 85, -10, -10, 9, 71, -86, 5, -86, -56, -72, 106, -91, 25, -43, 18, -116, -87, 39, -40, -96, -76, -83, 121, -75, -85, -79, 109, -27, 104, 63, -79, -37, -69, -71, -36, 123, -116, -29, -54, 42, 109, 105, 16, -56, -16, 83, -84, -37, -78, -4, -90, 45, 64, -95, -46, -51, 38, 21, 31, -59, -125, -71, -10, 73, 110, -98, 46, -47, -29, -37, -40, -62, -128, 84, -81, -13, -25, 125, 26, -12, 4, 88, -80, -126, 33, -25, -48, -81, -13, 84, 84, 15, 43, 108, 46, 28, -119, -103, -41, 42, -30, 97, 48, 36, 21, -101, 125, 94, -65, 28, 11, 103, 97, -117, 56, 83, 121, 115, 108, -119, -94, -58, 115, 32, -44, -79, 92, -17, -55, -108, 34, 61, 55, 101, 81, 51, -20, -114, 4, -19, -91, 64, 14, 64, -5, 86, -62, 77, -50, 83, 34, 41, 28, 82, -59, 21, 79, -21, -120, 100, 70, 55, 60, 87, -121, -113, -9, 109, 90, 68, -51, -20, 123, 83, 6, -18, 58, 38, -61, -82, -58, 118, 100, -12, 126, -77, -105, -64, 24, 99, -126, -35, -107, 32, 87, -44, 65, 102, 127, 94, 0, -109, -60, 30, 44, -112, 23, -26, 64, -19, 89, -18, -61, 35, 33, 127, 49, -95, 107, 51, 1, -98, -81, -94, 42, -105, -41, -124, 21, 9, 25, -1, -2, 56, 80, -92, -13, 2, -18, 31, 110, 70, 121, -18, -52, 37, -38, -85, 63, -116, 127, -95, -32, 97, 71, -40, -54, -125, 97, 115, -117, 125, -61, -99, -116, 116, -105, 73, 72, 120, 112, -12, 67, 39, -97, 23, 31, 56, 39, -40, -16, 27, 122, 106, -77, -42, -76, -72, 46, 78, -59, -85, -17, -78, -108, -57, -77, 122, -66, -106, -114, -16, 117, 57, 44, -93, -70, 54, 119, -21, 74, 13, -117, -41, 81, 16, -4, -125, -69, 71, -52, -17, -2, 12, -59, 67, 50, -77, 114, 30, -99, -28, -63, -94, -53, 9, 43, 30, 6, 84, 85, 10, -8, 124, -47, 81, 12, 6, -68, -110, -3, -32, -77, 74, 79, 120, 20, -78, -49, 10, 109, 30, 72, -70, 46, 87, 119, -8, 87, 44, -124, 122, -77, 120, -109, 79, -80, 112, -7, -101, 122, 29, 114, -73, 84, -84, -30, -64, -14, 37, -106, 126, 32, -106, -4, -63, 52, -61, -88, -7, 73, -5, 9, 9, -84, 113, 23, -21, 99, -63, 11, -80, 17, 126, 51, -119, 54, -124, -84, 57, 93, 26, 24, -94, -116, -106, -37, -23, -118, 121, -74, -78, 1, 95, 118, 107, 115, -3, -82, 23, -93, 20, -82, -76, -46, -93, -7, -100, 113, 85, 38, 78, -16, -18, -51, 18, -69, 89, -76, -45, -51, -69, 108, -28, -104, 41, 46, -63, -124, -38, -52, -58, 127, -49, 81, -91, 100, 93, 102, 36, -54, -126, 16, -51, -54, -54, 93, -64, 22, -97, -70, -13, -44, -77, 119, -109, 70, 21, 44, -93, -52, 66, 1, 122, 100, -46, 94, -22, 26, -113, -89, -103, -23, -68, -53, 65, -63, 103, 81, -112, 17, -80, -114, -103, 6, -21, -96, 125, 18, 77, 82, -52, -112, -9, 60, 44, 67, -11, 32, -35, 121, 69, -38, -84, 35, 90, -89, 63, -105, 86, -121, -86, -9, 116, -89, -110, -97, 34, 94, -87, 122, 16, 63, -53, 85, -101, -84, 35, -26, 63, -27, -54, -94, -73, -113, 68, -109, -95, -72, -127, 28, 108, -21, -107, -98, -98, 59, -110, -12, 52, 14, -86, 96, -101, -77, -83, 1, -49, -86, -15, -128, 125, 95, 9, -112, 25, 124, -3, -15, -40, 109, -98, -104, 32, -100, -98, 52, 33, 118, 4, -23, 84, 79, -93, -122, 122, 49, 95, 9, -56, 123, -66, 50, -1, -79, 112, -128, 115, 48, -83, 1, 41, 87, -63, 4, 26, 47, 26, 27, -93, -86, -90, 37, 67, -17, -95, 16, 41, 96, 124, 55, 66, -87, 6, -50, 112, 93, 66, -32, -66, -114, 42, -50, -77, 95, -55, 109, -65, -7, 23, -41, 12, 55, -111, -31, 80, 38, 91, 7, -46, -9, -39, 77, 5, 32, 64, 70, 121, -84, -100, -3, -116, -121, 98, -63, 51, -120, 24, 106, -26, 59, -116, -126, 12, -92, 83, 62, -59, -114, -3, 43, -5, 3, 46, -85, -66, -43, -98, -6, -19, -98, 70, 94, 62, 11, -116, -101, 91, -104, 41, -83, -56, 25, 81, -8, -45, 71, -110, -63, 53, 15, -47, -30, 15, -12, 109, 98, 42, -15, 109, 21, -73, 115, 121, 23, 106, -70, 30, -26, -65, 16, 87, -93, -52, -64, 63, -4, 12, 76, -79, 99, 7, 39, -54, -57, -35, -128, 5, -42, 83, -66, 64, -57, 20, 13, 114, 74, -90, 109, -50, -58, -59, -124, 7, 1, 115, -1, -87, -5, -27, 22, -108, -24, -94, -60, -31, -81, 126, -13, -15, -47, -24, 56, -104, -9, 5, 20, 108, -106, -114, 62, 1, 27, 107, -72, -64, 124, 11, 30, 18, -97, 29, 57, 111, 48, 76, 10, 57, 117, -89, -32, -25, 103, 58, -5, -119, 88, -121, 110, 48, -77, 39, -49, -39, -13, 39, 93, 50, -89, 110, -79, 59, 14, -12, 103, 51, 8, 71, -124, -38, 83, 72, -41, -35, -65, 62, 100, -43, 33, -48, 59, 22, -67, 113, 86, -126, 63, -85, -62, -26, -84, 97, 117, -12, -34, 84, 27, -13, -110, -34, 4, 109, 33, 85, 48, 125, 11, -105, -77, 0, -13, -54, -43, -62, 108, -42, -44, -121, -67, -40, 35, -119, -40, 124, -90, -53, -76, -36, 122, -13, 34, 3, 41, -12, 43, -41, 89, -25, -40, 17, -44, -75, 34, -11, 123, -68, 51, 57, -54, -109, 1, -89, -120, 61, 35, 12, 22, -25, 116, -46, 76, -70, -61, -91, 68, 125, -20, 125, 58, -102, 54, 86, 91, 17, -119, -50, 118, -67, -90, 6, 68, -83, 93, 44, -43, 27, -125, -114, 23, -53, -26, -4, -7, 71, 36, 80, 74, 36, -48, -89, 57, 7, 63, -73, -67, -54, 42, -109, -114, 12, -14, 79, -37, 123, -119, -80, -12, 58, -93, 121, -32, 19, 55, -42, 97, 23, -93, 67, 42, 18, 49, -102, 106, 28, 87, 81, -26, 42, 28, -41, 47, 57, 12, 40, 105, -108, -48, 127, 126, -54, -37, 117, 5, 108, 72, 12, 111, -116, 26, 114, 13, -108, -12, 29, 121, -119, 127, -29, 73, 110, -97, 64, -2, 55, -54, -103, -104, -36, 20, -49, 90, -54, 123, -82, -91, 110, 73, 40, -98, 57, -36, -110, 6, -122, -73, -77, -51, -30, -28, -4, -6, 76, 26, 26, 49, -39, 124, 25, 3, 21, -77, 62, 126, -115, -31, -79, 6, -8, 0, -97, -22, -101, 11, -110, 67, -47, -103, -86, -9, -116, -68, -83, 11, 114, -47, 65, 1, 21, 57, 101, 65, -19, 73, -121, -25, -55, 117, -85, 28, 58, -124, 86, 101, 70, -51, 64, -68, -4, 79, -107, -13, 4, -55, 92, -56, -6, -38, 56, -67, 57, -50, -99, -42, -34, -33, 23, -82, 117, -17, 24, 47, -74, -99, 115, 5, -51, -7, 72, -84, -58, 59, 88, 125, -72, -88, 84, 74, 60, -44, -81, 96, -8, -59, -21, 0, 17, -46, 93, -13, -54, -72, -40, -84, -31, 41, 90, -9, -31, 78, -27, -99, -108, -46, 16, -25, -87, 110, 23, -70, -104, 40, -46, -56, 4, -99, -53, 49, 99, 43, -74, -123, -49, 39, -84, -89, 103, 70, 41, -102, -118, -51, -32, 93, -89, 24, 80, -27, -94, -107, -5, -110, 76, 103, -1, 23, -65, 54, 69, 93, -96, 29, 110, 127, 79, -9, 56, 6, 100, 34, -77, 11, -62, -120, -65, 113, -53, 113, 64, -81, 106, 14, -11, 123, 35, 108, -4, 118, 99, -49, -101, -58, -12, 44, -80, 100, 106, 24, 59, -106, 97, -98, 111, 1, -59, -72, 12, 27, 46, 19, 15, 23, 18, 102, 92, -75, 36, -103, -26, 44, -40, -12, 59, 37, 36, 48, 99, 123, -9, 66, 10, -10, 0, 58, -82, 58, -56, 15, 47, 97, 70, -69, -57, 80, 13, 7, 107, -40, 94, -124, 67, -59, 127, 18, 121, 7, -40, 22, 47, 59, 75, -72, 22, -66, 89, 10, 126, -123, -11, 86, -1, 103, 29, 124, -10, -93, -109, 104, -127, 10, -74, 120, -116, 42, -98, 106, -108, -59, -75, 50, -14, 24, 79, -37, -120, -46, -69, -38, -87, 86, -37, -122, -6, 65, -49, -7, -98, -20, 15, -35, -75, 77, 38, -71, -102, 119, -10, 17, -27, 32, -110, 30, -108, 114, -48, -96, -59, -17, -104, -56, 61, -57, 15, 72, -109, 59, 45, 39, 77, -84, -4, -94, -119, 109, 60, 35, -112, -78, -76, -92, -100, 72, 83, -64, 30, -91, -17, 54, -125, 95, 30, 99, 40, 16, 0, 97, 122, 41, 114, 82, 75, 90, -96, -124, 16, -15, 3, 89, 2, -43, 118, 124, -112, -56, 53, -99, 3, -59, 124, 64, 38, 21, -47, -71, -48, 77, 20, -8, -14, -95, -126, -45, 95, -79, -118, -93, 18, 10, -85, -65, -97, -7, -74, 29, 60, 44, 118, -3, -37, 105, -27, -57, 18, 116, -94, -65, -100, 99, 85, 26, -48, -120, 109, -69, -63, 64, 109, 81, 24, -68, 114, -27, -57, 125, 117, 30, 101, 59, -70, -95, -45, -59, -117, 76, 53, -113, -43, -120, -68, 2, -66, 43, -46, 68, -84, -24, 47, 14, -7, 125, 7, -118, -38, -123, 117, -34, 119, 103, -46, 22, -34, -20, 68, -62, -17, 93, 25, -10, 9, -62, -110, -125, -19, 3, 84, -114, 111, -112, 1, -127, -3, -24, 45, -23, 106, -109, -24, 69, -75, -85, 120, -32, 94, -1, -60, 30, 87, 53, 61, 106, 37, -37, -47, 105, 36, -63, 108, 61, 107, 63, -87, 12, -94, 67, 78, -122, -88, -83, -105, 98, -70, 111, -39, 81, -43, -46, 4, -87, 37, -84, -70, -76, 93, -67, -76, -104, 87, 78, -2, -68, -102, 38, -28, -76, -99, 32, -53, -35, 87, 17, 80, -33, 76, 40, -65, -4, 80, -4, -128, 101, -29, -57, 93, 127, 61, -37, 56, -93, -16, 73, 83, 72, 88, -36, -106, -62, 12, 126, -8, 106, 102, -19, -71, 76, 34, -37, -77, -126, -85, 124, 8, -88, 19, -47, 97, -125, -28, -34, -12, 70, 113, -70, 47, -26, 68, 63, -38, -87, 40, 37, -78, 95, -5, 113, 47, 37, 41, 81, 73, 119, -82, 38, -25, 13, -20, 66, 69, 126, 85, 77, -13, 110, -12, -127, 59, -89, -116, -87, -20, 60, -12, -127, 43, 93, 14, 81, 37, -2, 119, -90, 0, -84, -79, 48, -104, -97, 12, -26, 100, 117, -122, 70, 87, -84, -99, 76, 57, 119, -115, 74, 107, 35, 84, -73, -51, 94, 73, -113, 68, -103, -67, 43, 39, 117, -112, 98, 55, 120, -101, 70, 45, -16, 7, -117, 104, 112, -89, -64, 72, -40, 102, -12, 27, -20, 68, 81, -50, 70, 21, -114, -19, -55, 67, -114, -29, -78, -60, -35, -52, -43, 113, -19, -108, 17, -15, 18, 54, 2, 117, 61, -22, -48, -121, -126, 77, -31, 32, -111, -97, -57, -83, -48, 96, -102, 9, 46, -28, -26, 32, 94, 119, -127, -68, 39, -70, 59, 7, 84, -52, -9, 86, 114, 57, 87, -65, -23, -112, -53, 112, 62, -35, 124, -34, -20, 121, 43, 81, -91, -79, -120, -64, -24, 111, -79, 126, 68, -3, -106, 9, 12, -9, 67, 98, 24, 125, 92, 110, -21, 39, 47, -64, -124, 84, -107, 1, 120, -70, -78, 37, 101, 125, 17, 84, -96, -90, -18, 6, -67, -85, -26, 72, -60, -16, -109, 120, 116, -35, -96, -108, -26, 2, -24, 115, -69, -117, -7, 93, 10, -57, -38, 99, 82, -55, 64, 84, 64, -109, 120, -40, 16, 8, -22, 121, -82, -98, 120, -48, -123, 89, -60, 73, -87, -95, 4, -76, -71, 18, -72, 54, 8, -79, 25, -18, 17, 40, 19, -107, -68, -34, 11, -91, 122, -71, -30, -47, 9, -56, -24, -66, 126, 25, 99, -65, 84, -45, 91, -15, 62, 9, -39, -87, -120, -83, -66, 114, -107, 105, -13, 118, -124, 125, -93, 29, 10, -77, 17, 65, 93, 10, -110, 103, -93, 73, 45, 7, 78, -10, 9, -22, -59, -107, -104, -4, 81, 114, 4, 75, 54, 43, -24, 70, 20, 54, 83, -15, -103, 39, 74, -81, -113, 127, 127, -121, -123, -115, 27, 25, -53, 106, 116, 97, -70, -111, 88, -68, 12, 107, 23, 83, 127, 121, -17, 13, -65, -107, 11, 52, -14, 123, -30, -44, -111, -108, -47, -45, -33, -84, -19, 64, 61, 106, -74, 46, 6, -27, 55, -3, -81, -8, -85, 2, 122, 91, 41, 2, 45, 113, -92, -39, -79, -88, -67, 45, -40, -8, -42, 88, 73, 93, -48, 28, 66, 12, 75, -6, -50, 23, -5, 126, -6, -108, 109, -66, -92, -18, 69, 19, -9, -57, -63, -36, 30, 44, -98, -36, -93, 17, -88, -111, -37, 50, -85, 69, -30, 26, -72, 73, -21, -32, -109, 104, 6, 60, -59, 118, 82, 64, 91, -14, 73, -105, -51, 126, 76, 45, -25, 52, 7, -43, -86, 32, -32, -89, -28, -15, -6, 107, 99, 79, -13, 93, 100, -61, -54, -100, 48, 17, 66, 66, 51, 122, -74, 29, -70, -1, 49, -10, 62, -27, 78, -71, -106, -32, 102, 34, 116, 38, 44, 116, -29, 72, 76, 106, 35, 110, -117, -30, 35, 42, 109, -76, -113, 61, 21, -22, -45, 97, -14, 94, 74, -99, -40, -47, 31, -89, -47, -63, 22, 75, 26, -119, -104, 40, 127, 60, -78, -22, -23, -83, 61, 55, 81, 11, 11, -58, 98, 99, 50, 28, -114, 51, -73, -40, -67, -100, -85, -90, -90, 78, -107, 110, 104, 39, -40, -83, -78, 15, 70, -70, -118, -60, -74, -102, 57, 111, 29, -107, -125, 61, 31, 22, 10, -78, 15, -66, 64, 70, -30, -79, 15, 21, -33, -104, 27, -100, -71, 3, 15, -49, -65, 106, -101, 118, -109, -94, -27, -101, -128, 95, -9, -66, 93, 85, -69, 55, -86, -16, 66, -34, -112, 46, 47, -80, -4, -52, -122, 62, 111, 105, 43, 19, -83, -102, 15, -74, -65, -22, 123, -50, 108, -121, 63, 31, 46, 97, 72, 46, -107, 53, 97, -127, -50, -117, -54, -9, 39, -28, -33, -72, 124, -75, -2, -60, 62, -87, 12, 43, -17, 56, 118, -40, 22, -67, -65, 44, 124, -6, -99, 126, -122, -123, -32, 117, 107, 28, 14, 84, -79, -115, -57, -19, 86, 70, 92, -32, 123, -23, -43, 43, -28, -45, 93, -69, 54, -34, 40, -32, -96, -33, 43, -61, -112, -74, -3, -81, -127, 117, 11, -112, -91, 99, 70, -74, 11, -42, -72, 45, -7, 21, -14, -78, -32, -93, -21, -35, -8, 17, 41, -66, -59, -56, 10, -64, 103, -33, 69, 33, 7, -29, -60, -24, 93, -43, -103, 79, 24, -108, -27, 73, 76, -84, 123, 3, 110, 4, -113, -30, -94, 117, -20, -67, 96, -102, -98, 39, 112, -11, -37, 120, 17, 32, 118, -90, -41, -70, -63, 119, -122, -28, 60, 4, 103, 37, -47, -14, 8, 11, 108, 35, 74, 116, 70, -25, 34, 74, -43, -36, -49, 33, -63, 50, 101, 43, 118, 85, 119, -14, -82, -105, -40, 50, 81, -123, 22, -77, 102, -89, 119, 97, 33, 120, -105, 56, -8, 98, -93, -66, -115, -33, -56, -99, 84, -99, 85, 64, -65, 17, 112, 28, -119, 116, -16, -76, -92, -25, 51, -115, -30, 126, 88, 106, -76, 102, 99, -109, -53, -29, -84, -78, -96, 24, 19, 125, 21, -12, -77, 7, -109, 100, 80, 53, 1, 106, 91, -3, -123, 105, 94, 87, 28, 50, -1, 20, 114, 105, -66, -102, -17, 25, -84, 124, 63, -27, -107, -96, 35, 5, 56, -93, 63, -13, 83, -29, 110, -2, 110, 49, -8, -65, 41, 88, 59, 54, -37, -75, -103, 92, -5, 103, 85, 36, 66, 109, 71, -59, -22, 95, 100, -85, -70, -97, -20, -127, 39, 38, -38, -32, -111, -57, -102, 21, 89, 26, -114, 89, 86, -27, 3, 94, 30, -118, -69, 49, -54, -32, 40, -27, 107, -75, -21, 109, 108, 65, 86, 99, -62, 86, 8, -23, -15, 78, -82, 82, -45, 67, -83, -42, 20, -118, 51, 71, 58, -56, 24, 127, -124, -14, -83, -70, -23, -71, -88, 17, -73, -72, -118, 58, -86, 72, 106, -63, 123, 6, 81, -109, 127, -12, 27, -74, -86, -24, -128, 106, -52, 61, -32, 38, 65, -66, 47, 99, -40, 113, -127, 39, -41, -119, -3, -86, -107, 118, 110, 123, -128, 1, 126, 58, -15, -100, -66, 58, 2, 99, -99, -89, 2, 0, 117, 124, 23, -37, -22, 125, -66, -43, 81, 32, -84, 95, -109, 77, -83, 48, -115, -72, -52, -89, -29, -98, 89, -69, 64, 127, 116, 107, -98, -58, -113, -71, 103, 116, 53, 106, 88, -96, 37, 48, -79, -108, 125, 127, -74, 68, 54, -38, 36, -123, -24, 63, -48, 45, 46, -77, -36, 54, -67, -125, -109, 65, -96, 117, -31, 92, 53, -124, 62, 86, 81, 13, 125, -53, 34, -71, -113, 57, 80, 61, -72, 63, 19, -69, 19, 12, -7, -91, -123, -10, -123, -116, 20, -17, 36, -61, 9, -114, -28, -122, -27, -28, 125, 54, 109, -120, 102, -86, -12, 54, -5, -27, 122, 15, -74, 126, -88, 106, -123, -36, -13, -9, 113, -101, -42, -10, 78, 71, -105, -32, 116, 90, -11, 117, -38, -29, 120, -27, 104, 68, 121, -29, 65, 95, -81, -1, -18, 78, 25, 92, 48, -113, 62, -73, 127, -77, -95, 13, -68, -19, -47, -95, 115, 59, -50, 1, -84, -98, 42, -115, 73, -13, 87, 96, -12, -39, 23, -46, -10, -53, -38, 75, 102, -108, 113, -75, 7, -73, -37, 15, -88, 105, 117, -91, -12, -126, -78, -43, 9, -98, 92, -28, -111, -128, -34, -91, -46, -44, 117, 111, -105, 30, 15, 62, -24, 41, 17, -45, -69, -58, 6, -57, -62, 88, 72, -89, 16, 121, -70, 13, 115, 25, -58, 27, -116, -83, -128, -38, -92, -91, 117, 108, 72, -74, 82, 100, 30, 46, 86, -32, 30, 18, 83, -42, -24, 94, 6, 96, -123, -1, -78, -103, -59, 42, -68, 97, -51, -30, 8, 102, 26, 95, -60, -69, 88, 3, -75, 95, -30, -53, -125, -104, -102, -92, -67, 49, -51, -27, 42, 65, 44, -25, 99, -114, -41, 106, -122, -50, 127, 35, 26, -22, -16, 64, -101, -88, -90, -25, -58, 31, 49, -73, -119, 115, 83, -25, 51, 117, -27, 100, 24, -83, -51, -117, 59, 98, 8, -46, 115, -4, -109, -52, -3, 26, -99, 113, 90, -18, -128, 58, -24, 127, -16, 7, 108, 66, 87, 75, 99, -48, 104, 14, 119, 44, 57, 102, 69, 60, 93, -99, 56, 53, -108, -68, 45, -104, -71, 76, 82, -19, -4, -5, 21, -42, 66, -118, 105, -71, 85, 114, -103, -27, 64, 93, 6, -9, -112, -31, -45, 28, 24, 106, 115, -87, -77, 84, -67, -80, 11, -115, -124, -43, -24, 30, -63, 90, 30, -73, 81, 23, -82, -48, -112, 82, -7, 110, 77, -33, 21, 116, -111, 75, -13, -107, -91, 67, 88, 53, 1, -10, -79, 3, -69, -96, -39, -52, 12, 34, 0, -6, 10, 101, -30, -125, -37, -3, -8, -4, 80, 75, 87, 66, -83, -83, -68, -58, 102, -117, 18, 46, 24, 2, 1, 98, 52, -65, -109, 13, 113, 56, -40, 83, 91, -47, -62, 96, 31, -62, -65, 42, 53, 94, 121, -120, -20, -73, 69, -126, 102, 50, -106, 84, 77, -57, 87, -101, -59, -92, 25, -73, -29, -2, 125, 101, -66, -93, 106, 61, -61, 32, -105, 40, 2, -62, 116, -78, -31, 88, 100, -117, -19, 18, -110, 78, -67, -74, 42, 96, -59, -67, 71, -51, -2, -38, 81, 60, -94, -22, -109, -47, 94, 90, 65, 45, 1, 98, 86, 84, -107, 47, -21, -30, -91, 32, -98, 64, -89, 60, 51, 108, 53, 1, 36, 23, 27, 4, 95, -76, 20, 69, -107, 34, 19, -6, 9, -68, -24, -95, 87, -103, -81, 93, -95, 105, 25, 35, 122, 33, -106, -100, 127, 31, 57, -56, -8, -52, -73, -97, -123, 108, -119, -104, -111, -37, 87, -97, 88, 39, 95, 4, -111, -40, -50, 40, -56, -15, 126, 2, -95, 53, -104, -23, -86, -107, 12, -103, 40, 102, -16, -76, -124, -79, -36, 102, -21, 2, 79, -125, -20, 0, -115, -25, -34, -23, -24, -125, -3, -99, -20, 17, -34, 78, 35, 25, 25, -59, -61, -15, -91, -24, -128, -101, 103, -87, -104, -29, -63, 15, -85, -106, 39, 39, 6, 23, -42, -22, 25, -2, 27, 56, -51, 67, 56, 44, 102, 67, -95, -83, -6, -49, -48, -66, -13, 18, -92, 5, 10, 21, 10, -90, -59, 37, -76, 96, -127, 66, -75, -76, 31, -97, 78, -32, 34, -14, 90, 65, 20, -6, 84, 97, 15, 13, 38, -115, 50, -18, 37, 65, 28, -124, 99, 45, -7, 74, 23, -14, 101, -42, 111, -121, 8, 79, -112, 101, 76, -75, 13, -79, -15, 107, 36, -59, -123, 22, 124, -36, 47, 44, 112, 91, -4, -37, -49, -75, 30, 107, 73, 99, 63, -57, -35, 26, -85, -82, 25, -26, 8, -46, -49, -110, 107, -42, -49, 14, 12, 118, 48, 123, 36, 56, -19, -124, -26, -59, -100, -71, -31, 35, 33, -39, -47, -113, 12, -91, 29, 119, 92, 96, 66, 125, 61, -32, -10, -104, 8, -63, 5, -121, 56, -95, 101, -5, 64, 65, 80, -124, -16, -100, 39, -18, 1, -50, -71, -26, 78, 91, -62, -36, 46, 122, 78, -116, 28, 24, 39, 34, 75, -22, -74, -53, -38, -26, 65, 111, 96, -58, 80, -47, 21, 51, 106, 41, -80, -87, 94 };

// Original range: [-0.1212988, 0.1242021]
static const float fc_proj_bias_scale = 0.00096275f;
static const float fc_proj_bias_zero_point = 125.99220276f;
static const int8_t fc_proj_bias_quantized[] = { -10, 105, 125, -7, -23, -18, 103, 0, 31, 75, -66, 83, -109, 3, -99, 75, -83, -35, 106, 11, -82, -54, -33, 96, -40, 15, -26, -108, 122, 60, 118, -118, 31, 51, 120, -79, -3, -13, 75, -95, 122, 50, 113, 1, -107, -73, 42, -118, 69, -127, 40, -32, -27, -108, 120, 115, 88, -50, -114, 64, 118, -2, -1, 122, 59, -10, -71, 122, 127, 11, -66, 56, 41, -3, -19, -104, 29, -28, 111, 79, -112, 24, -42, -59, 80, 70, -31, -41, -124, 44, -57, 124, -49, 26, -5, 6, 108, 39, 64, -106, -125, 103, -91, -11, 100, 80, 87, -15, 96, -28, 9, -14, 9, -110, 72, -3, 95, 43, -83, -45, -31, 112, -28, 24, 89, -28, -117, -54 };

// Original range: [-0.3600310, 0.3544852]
static const float transformer1_attention_in_proj_weight_scale = 0.00280202f;
static const float transformer1_attention_in_proj_weight_zero_point = 128.48959351f;
static const int8_t transformer1_attention_in_proj_weight_quantized[] = { 85, -123, -25, -116, -112, -99, -109, -112, -80, 115, 37, -57, 84, -47, 112, -10, 124, 125, 120, -127, 59, 53, 106, 90, -106, 115, 94, 11, -72, -112, 72, -61, -98, 89, 105, -60, -105, 86, 11, 95, -28, 41, 48, 115, -47, 57, -119, 89, 61, -67, 24, 62, -120, 85, -105, 36, -46, -1, 78, 38, -30, -30, 87, -60, -118, 36, -58, -54, -96, -20, -30, 67, -104, -17, -11, 86, -56, -16, 97, -114, 41, -67, -33, 119, 25, 105, -28, 90, -99, -29, 44, -105, -16, -32, 49, -110, 62, -51, -110, -99, -20, 37, -91, 64, -123, -97, -33, 123, 112, -99, 61, 53, -73, -110, 113, 84, 60, 50, 6, 107, -121, -120, -86, 51, 75, -114, -124, 63, -12, -34, 48, 113, 47, -16, 90, 124, -35, 107, -85, 88, -88, 49, -103, 96, 84, -120, -56, 51, -62, 107, 73, 61, 98, -104, 126, -102, 38, 125, -96, -30, 103, 41, -121, -64, -64, -53, -79, 79, -33, -35, 108, 105, -60, 90, 119, 122, 58, -105, -39, -128, -18, 84, -128, 115, 52, -107, 85, -70, 84, 59, 123, -110, -22, 72, -27, -57, 80, -30, 82, 59, 36, 59, 60, 28, -31, -100, -43, -54, 63, -65, 56, 86, 71, -89, 76, 120, -65, 92, -77, -67, -63, 68, 75, 72, -40, 7, -73, -37, -29, 82, -52, 30, 46, 74, -87, -70, 48, 32, 47, 80, 78, -102, 15, -23, -65, -110, -123, 24, 115, -39, 58, 32, 75, -53, -108, -32, 75, 10, 42, -34, -93, -39, -56, -121, 69, 122, 72, 40, 62, 40, 121, 111, -33, 22, -39, 78, -34, 60, -110, 111, 29, 38, 41, 92, 18, 103, 21, -54, -99, 42, -101, 77, 48, 10, -114, 8, -63, -42, -113, -45, 2, -19, 99, 24, 49, 41, 127, 105, 14, -92, -91, -27, -95, -72, 26, 21, -62, -26, 65, 97, -116, -99, -51, -128, 73, -39, -120, 59, -44, 21, 38, -119, -54, -118, -33, -101, 13, -30, 112, 127, 81, 122, 123, 22, -106, 74, 127, 35, 49, -72, 123, -125, 92, 103, -100, 71, 10, 38, -59, -26, -108, -66, 25, -107, -50, 92, 96, 66, 47, -102, -87, 120, -128, 56, 65, -28, -82, 61, -81, -81, 77, -120, -75, 111, -104, -128, -67, -128, 64, -6, -28, -40, -109, 62, 64, 65, -9, 26, 43, 83, -112, 60, -89, 68, 110, 8, -28, 97, 106, -39, 97, -38, -50, -120, -70, -77, 126, -126, 43, 110, 64, -59, -112, 22, -67, 71, -101, -45, -70, -118, 38, 95, -50, 0, -54, -123, -4, -119, 17, -61, 57, -119, 79, 53, 103, 88, -74, 73, 105, -81, -116, 41, 114, -105, 58, 60, 123, 95, 113, 55, -85, 85, 77, -66, -99, 119, -34, 44, -45, -32, -33, -56, 107, 106, -31, 25, 99, 115, 45, -88, 18, 19, -29, -76, -107, -105, 11, 105, 46, 98, -120, -97, 88, -114, -33, 36, -76, 13, 105, 39, 78, 88, -63, 38, -52, 24, -100, 54, 105, -106, -81, -61, -91, 123, 40, 75, -71, 123, 113, 120, 122, -112, -105, -126, 37, 75, -98, 29, -74, 54, 49, 22, 108, -44, 49, -59, 56, -90, -65, -20, -103, -107, -113, 80, 114, -63, 108, -123, 26, -22, -21, -126, -23, -93, 31, 46, -78, 25, 58, -92, 80, 111, 107, -21, 28, -98, -21, -72, -55, -118, 41, -43, 69, -65, 127, 17, 91, -116, -33, -20, -97, -100, -15, -29, 67, -111, 88, 36, 36, 39, 76, -99, -65, 28, -77, 22, -51, -113, 125, 29, 56, -48, 82, -90, 119, 34, -28, 71, -29, 31, 38, -67, 109, -60, 39, 82, 81, 117, -46, -77, 83, 24, -31, -46, -91, -113, -26, -19, 30, 87, 91, 33, -59, -68, 94, -105, -70, 23, -75, -41, 92, 80, -88, 78, -56, 54, -91, -111, 100, -59, -37, 54, -78, 79, -110, 97, 117, -104, -84, -48, -97, 65, 107, -124, 92, -89, -53, 105, 81, 50, -59, -88, 67, -82, -17, 67, 113, -127, -82, -114, 37, 102, -100, -97, 35, -34, -92, 50, -86, -86, 30, 12, 84, -103, 22, 112, -87, 59, 123, 70, 69, -121, 109, -76, -120, 87, -79, 90, 51, 81, -58, -43, 36, -111, 117, 29, -105, 42, 51, 104, 62, -94, -69, 63, -90, 28, -119, -89, 92, -62, -45, -35, 106, -128, -19, 14, 58, -23, 98, -73, -74, 55, 37, 110, 87, 35, 38, 86, 69, 105, 76, -100, -61, 120, 37, 115, 78, -69, -47, 115, 87, 103, -45, 112, -126, 72, -127, -127 };

// Original range: [-0.0388912, 0.0724216]
static const float transformer1_attention_in_proj_bias_scale = 0.00043652f;
static const float transformer1_attention_in_proj_bias_zero_point = 89.09363556f;
static const int8_t transformer1_attention_in_proj_bias_quantized[] = { -1, -50, 0, 106, 57, 100, 71, 15, -121, 38, 77, -87, -90, -125, 58, -111, 89, 89, 89, 89, 89, 89, 89, 89, 89, 89, 89, 89, 89, 89, 88, 90, 73, 103, 66, 125, -119, 77, 98, 53, 100, 101, 48, 57, 108, 93, -126, 113 };

// Original range: [-0.2477400, 0.2488070]
static const float transformer1_attention_out_proj_weight_scale = 0.00194724f;
static const float transformer1_attention_out_proj_weight_zero_point = 127.22602081f;
static const int8_t transformer1_attention_out_proj_weight_quantized[] = { 60, 51, 10, -64, -54, -68, 83, 95, 78, -119, -90, -29, -35, 50, -95, -77, -117, 123, -28, -101, -115, -69, 95, 18, -2, -75, 70, -13, 33, -50, 104, -63, 68, -68, 8, -13, -65, 64, 51, 69, -24, 93, -109, -51, 66, -28, -79, -79, 124, 50, -71, -82, -98, 101, -53, -25, -44, 58, -99, -6, 94, -36, 59, -123, 93, 68, 106, -33, -52, 79, -36, -28, -116, -85, -81, 67, -50, 11, -95, 82, -109, -5, -55, 120, -15, 46, -48, 83, -81, -123, 17, -35, 1, -49, 7, -68, 66, 94, -48, -114, 78, 75, 126, 96, 96, -126, 40, -99, -9, -108, -51, 58, -63, -17, -117, -30, 88, 38, -72, 57, -115, -12, 7, 0, 4, 68, -111, 29, 99, 125, 15, 80, -3, -1, 72, -55, -53, 103, 96, -67, -34, -5, 26, -89, -77, 5, 121, 81, 54, 92, 56, -105, -16, 50, 107, -2, 23, -5, -98, 10, 111, 125, 46, -81, 108, -71, -68, 98, -86, -116, -58, 16, -47, -87, -81, 89, -63, 68, -101, -123, -6, -48, -114, 62, 93, -3, -30, -65, 85, -43, 77, -21, 43, -48, 71, -127, 75, 37, 5, -84, 66, 11, -13, 58, 57, 63, -12, 5, -112, 6, 55, 64, -24, 47, -97, 11, 7, 17, -114, -99, 62, 64, 27, -20, -22, -70, 67, 73, 0, 73, 103, -27, -50, -62, -50, -41, 59, -28, 64, -40, -60, -47, -3, 63, -70, 122, 6, -38, -82, 55, 36, 94, 17, 37, 52, 14 };

// Original range: [0.0000000, 0.0000000]
static const float transformer1_attention_out_proj_bias_scale = 0.00000000f;
static const float transformer1_attention_out_proj_bias_zero_point = nanf;
static const int8_t transformer1_attention_out_proj_bias_quantized[] = { 0, 0, 0, 0, 0, 0, 0, 0, 0, 0, 0, 0, 0, 0, 0, 0 };

// Original range: [1.0000000, 1.0000000]
static const float transformer1_norm1_weight_scale = 0.00000000f;
static const float transformer1_norm1_weight_zero_point = -inff;
static const int8_t transformer1_norm1_weight_quantized[] = { 0, 0, 0, 0, 0, 0, 0, 0, 0, 0, 0, 0, 0, 0, 0, 0 };

// Original range: [0.0000000, 0.0000000]
static const float transformer1_norm1_bias_scale = 0.00000000f;
static const float transformer1_norm1_bias_zero_point = nanf;
static const int8_t transformer1_norm1_bias_quantized[] = { 0, 0, 0, 0, 0, 0, 0, 0, 0, 0, 0, 0, 0, 0, 0, 0 };

// Original range: [-0.2498021, 0.2490534]
static const float transformer1_ffn_0_weight_scale = 0.00195630f;
static const float transformer1_ffn_0_weight_zero_point = 127.69136047f;
static const int8_t transformer1_ffn_0_weight_quantized[] = { -98, -122, 8, -24, -65, 1, 59, 125, 27, -48, 91, -26, -6, -53, -48, 113, 108, -22, -76, -42, 13, 8, -3, 24, 97, 61, -43, 41, -82, 40, -69, -31, 122, 26, 40, -52, 115, -12, -11, -113, -116, 32, -58, 111, -43, 78, 12, -50, -61, -94, 95, -32, 100, 77, 101, -18, 96, 108, -7, -10, -40, 119, -100, -89, 117, 120, -3, -109, 62, -9, -6, -44, 54, -97, 93, 66, -26, -70, -76, -6, -105, -12, -45, 127, -33, 118, 111, 61, -87, 65, 102, 54, 80, 13, 55, -36, 31, 94, 25, -45, 41, -26, 38, -2, -4, 123, 91, -62, 98, -90, 51, 95, 106, 53, 58, -117, -113, -121, 95, -1, 60, -126, 28, 24, -62, -79, -107, 20, 66, 105, 43, 54, -93, -74, -24, -21, 74, -34, -94, 63, -120, -22, 67, 126, 40, -123, 39, -101, -74, 9, -116, -102, 104, 103, -56, 87, -91, 34, 49, 93, 9, 123, -128, -111, -5, 8, 78, 81, -115, -128, -73, 56, 103, 108, -121, 2, -59, 34, 123, -88, -61, 38, -6, 111, -120, 28, 124, -51, -98, -24, -38, 71, 83, -83, -84, -18, 34, 66, 99, 68, 122, 87, -43, -5, -9, 28, 61, 69, 51, -40, -117, 87, -116, 87, -43, 103, -29, -100, -53, -54, -75, -86, 29, -122, -111, -58, 18, -34, 17, 41, 98, 56, -79, 8, -29, -119, 124, -35, -58, 11, -125, 21, 20, 22, 35, -56, -9, -17, 10, 95, -83, -110, -104, 25, 78, -15, -16, -46, -113, 105, -102, -77, -39, 28, -114, -74, 38, -36, -103, -104, 40, -27, -125, 60, 90, 25, -9, -70, 68, 103, 15, -3, 8, -61, 13, -119, -30, 62, 44, -38, -38, -77, 102, -63, 52, 54, 33, -71, -13, 75, -114, 48, 12, -100, 68, -82, -99, 99, -38, -102, 0, 55, 59, -8, -91, -53, 85, 105, 19, -119, -121, -16, -3, 2, 79, 101, 41, 13, -42, 124, 50, -28, -67, 58, -74, 122, -28, 88, -20, -38, -102, -29, -23, 126, -19, 33, -85, 56, 12, -72, -60, 117, 85, -22, 28, -90, -9, 124, 118, 76, -25, 110, -60, 73, 45, 49, 18, 80, -55, 80, 47, -95, 73, -6, -44, 75, -39, -59, -95, -81, 16, -34, 91, 73, 81, -103, 3, -11, 105, -86, -18, -23, 120, -8, 125, -51, -82, -126, -75, -39, -17, 1, 86, 89, -96, -85, 41, -94, -39, -45, 125, 38, -49, 30, -125, 37, 32, 99, 25, 21, 7, 80, 81, 41, -78, 39, 73, -112, 73, -100, 26, -56, -99, -32, -80, 71, 8, 53, 97, -37, 115, 75, -6, 65, 112, -113, 115, 43, -88, -86, -25, 37, 121, -2, -89, 125, 48, 62, -123, -44, 110, 40, 84, 60, -118, -15, -74, 26, -93, 114, -18, -108, -118, -92, 18, -4, -75, -16, -62, 88, 16, -43, -97, 107, 84, 16, -1, 110, -87, 83, 60, -19, -33, -49, -65, -50, 39, -68, 122, -9, -38, -31, 69, -128, 99, 102, 105, 69, 45, 124, -40, -108, 63, 66, -81, 38, -110, -5, 92, -68, -127, -95, 67, -39, 78, 8, 24, 122, 86, -42, -81, -102, 54, 118, 20, -43, -90, 114, -107, 68, 4, 17, 35, 84, 98, 123, -49, 14, -16, 52, -75, -123, -121, -49, -59, -22, -6, -4, 112, -96, -84, 74, -95, 120, -57, -5, -23, 68, 26, -31, -87, 1, -45, -31, -108, 44, -48, -40, -8, 68, 38, -54, -53, -100, -24, 76, -111, 80, -6, 54, -108, -51, -59, -69, 21, -128, 93, 24, -117, -89, -117, 1, -79, 43, 118, -26, -84, 38, 44, -56, -79, 17, -54, -46, 78, -64, -98, -3, 71, 62, 21, -45, -29, 21, -105, -84, 64, -78, -76, -31, 119, -88, -11, -60, -78, 68, 36, 66, -56, 48, 36, 27, -91, 24, -15, 77, -69, 35, 19, 76, 61, -109, -105, 52, 9, 61, 70, 0, -50, -126, -13, -113, -115, -6, -81, -37, -67, 117, 101, 124, 81, -60, -24, 46, -90, -121, -58, -123, -88, 109, -96, -125, 65, 42, 32, 59, -119, -82, -58, 99, -114, -81, -5, -63, 64, 112, 122, 107, 29, 98, -98, 11, 45, 118, 76, 120, 11, -120, -34, -90, 76, 65, 24, 92, -97, 52, 58, -106, -88, -117, -24, -73, 65, 99, 32, 4, 28, -122, -116, 52, 72, 108, -11, -112, 5, 93, -48, -71, -57, -76, -72, -94, -104, 63, -14, 121, -67, 36, 123, -72, 2, 85, 95, -2, 124, -72, -113, -12, 87, 94, -118, -19, -16, -114, -128, -36, -49, -99, 95, -16, -114, 101, -88, -43, -10, 104, -114, 74, 81, 83, -56, -20, 19, 83, -29, 66, -122, -53, -127, -101, -23, 34, -119, 4, 74, 12, -17, -55, 96, 28, -122, 10, 15, -105, 83, -6, 68, -71, 0, -101, -115, -78, 41, 50, 103, -8, 93, -127, 39, -40, -11, 80, -48, -57, -94, -111, -116, -94, -60, -92, -73, 92, 0, 113, -43, 109, -69, 28, -59, 103, -57, -102, -12, -79, -102, 101, 29, -106, -41, -62, -7, 34, 100, 53, -4, 38, -5, 15, -64, -43, -27, -117, -6, 97, 99, -71, 88, -105, 26, 8, -69, 54, -74, 21, -53, 58, -111, 124, -115, -39, -9, -100, -28, 43, -97, 22, 21, 49, 82, -16, -46, -48, -52, -23, -68, 46, 110, 33, -15, 87, -119, 41, 109, -104, 43, 62, 39, 101, 114, 85, 35, 105, -83, 14, -121, 86, 80, 29, 67, -117, 8, -68, 24, -109, -66, 44, -108, -6, 95, -39, -50, 59, 12, 58, 4, -41, -100, 113, -125, -85, 122, -25, -106, 8, 15, 90, -1, 70, 83, -4, 115, 37, 70, -35, -80, -2, 66, -116, 17, -126, -42, -71, -81, -8, 118, -2, -69, -126, 15, 61, 62, -105, 91, -112, 65, -110, 1, -3, 43, -72, -56, -85, 76, 83, -31, 63, 90, -122, -102, 54, -18, -64, 102, -88, 117, 83, -124, 39, -34, 103, 98, -56, -7, 112, -2, 14, -92, -26, -38, 118, -109, -13, 36, -10, 95, 97, -110, 75, -90, -85, -88, -60, -104, -23 };

// Original range: [-0.2486529, 0.2457885]
static const float transformer1_ffn_0_bias_scale = 0.00193899f;
static const float transformer1_ffn_0_bias_zero_point = 128.23864746f;
static const int8_t transformer1_ffn_0_bias_quantized[] = { 100, -75, -97, -127, -113, -123, 114, -61, -57, -11, 125, 97, 72, 59, 74, 80, 58, 49, 71, -76, -59, 68, -89, -119, 125, 74, 78, 5, 40, -85, -27, -58, 127, 114, 69, 107, 110, -20, -102, -30, 25, 117, -3, 88, 104, -72, -2, -83, 98, -1, -17, 34, 111, 121, 75, -110, 56, -29, -91, 60, 122, 120, 0, -57 };

// Original range: [-0.1249198, 0.1249599]
static const float transformer1_ffn_2_weight_scale = 0.00097992f;
static const float transformer1_ffn_2_weight_zero_point = 127.47954559f;
static const int8_t transformer1_ffn_2_weight_quantized[] = { 93, 109, 2, 0, 79, -119, -113, 94, 92, 92, -105, 119, 88, -74, -109, 115, -116, -106, 80, 68, 71, -49, 26, -28, 65, 113, -120, -119, -61, -112, 39, 86, 45, -3, 85, -93, -31, 51, -10, 105, 123, -54, 98, -46, 122, 103, 25, 53, -80, 6, -38, 28, -71, -21, 45, 113, 9, 24, -108, 84, -38, -61, -100, 106, -18, -51, -70, -76, -22, -104, 53, 75, 93, -38, 109, 1, -111, -48, 14, 29, -28, -54, -66, -119, 45, 127, -19, 5, -101, -29, -128, 104, 81, 26, 54, -9, -124, -51, 55, 23, -56, 15, -78, -1, 100, -56, 14, -96, 46, 45, 36, 24, -44, -34, 122, 46, 33, 122, -88, -49, 89, 43, -13, 39, -6, -4, -105, 30, 109, -63, 124, -17, -26, 27, -40, 44, -113, -6, 50, 55, 2, -22, -15, 18, -117, 16, -23, -89, 35, 43, -52, -6, -24, -12, -60, -33, 45, -70, 95, 46, 100, 107, 80, -23, -84, -26, -81, -128, 59, -108, 109, -78, 55, -127, 38, -33, 94, -11, -76, -15, 102, 62, 58, -24, 24, -94, -56, 73, -77, -96, -13, 16, -68, 4, 84, -105, 97, -113, -6, 45, 87, -21, 33, 125, 105, 61, 10, 43, 67, 91, -9, -108, 82, 66, -92, 106, -101, 102, -55, -39, -9, -128, -26, 85, 22, 32, 115, 68, -91, -113, -75, -41, -56, -122, -53, 60, -56, -66, 18, 83, -95, 124, -52, -56, -118, 55, 67, 67, 2, -54, 15, -119, 58, -124, -89, 99, 36, -89, 54, 27, 90, -114, 28, 85, -41, -68, -113, -51, 83, 30, 44, 58, 7, -91, -63, 78, -52, -50, 62, 1, -73, -62, -34, 94, 107, -30, 46, -35, -115, -119, 90, -45, -10, 69, -120, 31, -58, -17, 52, -110, 29, -105, -82, -43, 53, -89, -86, 43, 38, -51, -21, 124, -37, -78, -12, 127, -115, 38, 49, 15, -91, 10, 20, -79, 93, -63, 104, -21, 1, 76, 126, -16, -7, -10, -42, 108, -81, 126, -3, 67, -87, 28, -115, 6, 76, 60, -108, 96, -51, -115, 77, -34, 3, 112, -52, 74, 13, 14, -96, 55, -45, 50, -47, 118, 77, 46, 118, -50, -124, -44, 0, 25, -30, -110, 110, -3, 14, 98, 118, 70, 88, 119, 22, -90, 56, 113, -107, -6, 39, 94, 10, 65, 63, 31, -57, 58, -65, 124, -33, -101, -51, -83, -41, -54, 95, -2, 106, 105, 122, -38, 104, -85, 56, 96, 28, -96, -49, -28, -65, 33, 77, -106, 5, 24, -109, -54, -69, 28, -116, -37, -37, 94, -127, 25, 125, -26, 61, -2, 32, 103, 82, 100, -65, 98, -80, 10, -32, 52, 56, 14, -2, -110, 118, 75, 69, 64, -4, 57, -97, 43, -26, 107, 17, -18, -27, 36, -63, 24, 67, -119, -34, 1, -56, 23, -15, 81, -79, 127, -48, -104, -58, 36, -19, -117, 56, 38, -125, -127, -121, 75, -53, -116, 103, 95, 83, -16, 111, 120, 14, -56, 68, 63, -51, -124, -46, -4, 19, -50, -81, -115, -83, 20, 44, -125, 34, 105, -82, -14, 92, 88, 35, -99, -30, 80, -26, 56, 32, -32, 6, 22, -5, 33, 108, 119, 33, -60, 40, 18, -43, 14, 64, 79, 3, -12, -109, -73, 58, 121, 90, 78, -54, -20, 66, 8, 80, 91, 39, 88, 72, 39, 41, -96, 89, 82, -59, 13, -21, 28, -58, 25, 114, -66, -115, -11, 31, -126, 105, 112, -34, 61, 12, 105, -116, -108, 76, 34, 9, 54, 99, 13, 87, 21, -57, 102, -59, 12, -38, -66, -62, 24, 99, -108, -77, -13, -107, 46, 83, 111, -58, 54, -78, -64, -39, -56, 26, -25, 27, 32, -93, -101, -109, 126, 18, 43, -13, 11, 118, -11, -96, 36, 46, -10, -26, 66, -113, 31, 6, -36, 92, -80, -43, 113, 25, -63, -62, 17, -10, 106, 98, 50, -86, -32, -71, 59, -16, -88, -18, -65, 82, -60, 101, -95, 42, 13, -46, -30, 104, -59, 6, -3, 18, 120, 51, -68, 125, -20, 68, -52, -89, -37, 101, -49, -103, 31, 96, -86, 24, -12, 124, -21, 31, 35, -9, 14, -32, -111, -89, 121, -7, -73, 113, -114, 66, -7, 105, -27, -66, -30, -71, 73, -97, 24, -63, 36, -17, -34, 66, -120, 126, -119, 116, -109, 47, 82, -102, 67, -97, 122, 10, 11, -54, -25, -67, -25, -81, -125, 67, 50, -104, 19, 22, -67, 89, -53, 121, 96, 108, -10, 43, -41, -64, -3, 77, 116, 124, -99, 44, -77, 56, 50, 45, -43, 35, 92, 103, -47, -34, -64, -50, 92, -45, -7, 53, -76, 24, -10, 72, -108, -99, 64, 111, 85, -50, 101, -3, 52, -95, -46, -55, -24, 113, 39, -17, 43, -34, 98, 31, -47, 52, 50, -37, 101, -58, -59, -12, -4, -37, 17, -91, 70, -117, -11, 12, -91, 44, -74, 68, 87, -5, 16, -69, -47, -12, 56, 95, -81, 49, 54, -7, 71, 1, 63, -49, 119, 45, 104, -56, -95, 93, -63, 99, 50, -7, 77, 48, -1, 59, 60, -111, 23, 108, -25, -120, 11, 50, -50, -83, 74, -84, -56, 106, -98, 100, 25, -24, 54, 62, -42, -15, 31, -93, -81, 121, -42, 56, 49, -116, 9, -65, -23, -85, -42, -110, 29, 0, 117, -49, -83, -50, -70, 99, 61, 119, 19, -114, 16, -126, 112, -115, 73, 92, -61, 85, 34, -123, 92, -78, 15, 18, -23, -102, -22, 50, 48, 87, 38, -97, -110, -41, -19, -44, -64, -26, 94, 117, 15, 61, -99, 87, 43, -106, -55, -57, 116, 84, 32, 32, -15, 87, -54, -38, 12, -50, -119, -91, -30, -50, 67, 125, 16, 91, 77, -102, 100, -109, 4, -37, -49, -68, -54, 87, 108, -48, 87, 58, 112, 3, 63, 51, -71, 109, -119, 104, 126, -103, 74, 22, -5, -68, 44, -71, -109, -91, 19, 84, -11, 113, 127, 25, 111, -101, 118, -83, 95, -52, -106, 127, 108, 41, 6, -24, -79, 75, -91, -121, -58, -87, 61, -38, -121, -31, 2, -82, -75, -34, -66, 16, 50, -57, -90, -91, -8, 98, 72 };

// Original range: [-0.1229870, 0.1074265]
static const float transformer1_ffn_2_bias_scale = 0.00090358f;
static const float transformer1_ffn_2_bias_zero_point = 136.11047363f;
static const int8_t transformer1_ffn_2_bias_quantized[] = { -92, 76, 98, -116, -114, -18, -70, 93, 11, 83, 0, 46, -36, -1, -49, -9 };

// Original range: [1.0000000, 1.0000000]
static const float transformer1_norm2_weight_scale = 0.00000000f;
static const float transformer1_norm2_weight_zero_point = -inff;
static const int8_t transformer1_norm2_weight_quantized[] = { 0, 0, 0, 0, 0, 0, 0, 0, 0, 0, 0, 0, 0, 0, 0, 0 };

// Original range: [0.0000000, 0.0000000]
static const float transformer1_norm2_bias_scale = 0.00000000f;
static const float transformer1_norm2_bias_zero_point = nanf;
static const int8_t transformer1_norm2_bias_quantized[] = { 0, 0, 0, 0, 0, 0, 0, 0, 0, 0, 0, 0, 0, 0, 0, 0 };

// Original range: [-0.3438763, 0.3177920]
static const float transformer2_attention_in_proj_weight_scale = 0.00259478f;
static const float transformer2_attention_in_proj_weight_zero_point = 132.52630615f;
static const int8_t transformer2_attention_in_proj_weight_quantized[] = { 51, 45, 69, -39, 42, -93, 77, 66, 38, 76, 31, 122, 9, -29, 69, -42, -51, 85, -22, -28, 82, -16, 73, 25, 24, -74, 97, 59, -14, -103, 79, 31, -26, -21, -32, 2, 84, 38, 118, -99, -28, -69, -77, -47, -28, 110, 88, -105, -99, 112, -111, -30, 38, -78, -46, 70, -42, 65, -29, -120, 85, -107, 33, 55, -15, 125, 100, -90, -38, -82, -76, -41, 33, 86, 100, -30, -44, -84, -49, -78, 111, 46, 101, 55, -93, 76, -82, -61, -111, 51, 53, -69, -60, 119, -95, -28, -80, 93, -49, -15, 89, 17, -36, 98, 37, -22, -108, 23, -56, 95, 34, 23, 65, -33, -108, -28, 60, 116, -39, 51, -37, 108, -116, -113, -30, 43, -82, 65, -91, -41, 85, -14, 34, 54, 43, -23, 124, 78, -20, -104, 18, 36, -37, -105, 119, 73, -55, 73, -125, -98, 62, -116, -90, 86, -9, -70, -86, 122, -107, -14, -67, 48, -114, 64, -92, 61, -80, -86, -93, 26, -127, 35, 90, -11, -102, -127, -123, -11, -20, 62, -99, 21, -86, 33, 113, 60, -59, -42, -99, 64, -51, 80, 76, -47, 70, -56, -97, 29, 119, 67, 123, 42, -61, 61, -112, 47, 70, 56, 126, 71, 23, -126, 8, 96, 66, 18, -93, -124, 49, -70, -100, 122, -51, -40, 69, -62, 98, -6, 73, -57, -58, 16, -48, -24, -40, -81, 50, -82, 91, 17, -72, 19, 63, 107, 31, 75, -128, 31, -115, 70, 114, -38, 111, -117, 38, -33, 48, -80, -55, -61, 40, 49, 70, 40, 16, -57, -7, -48, -18, -116, -95, -72, -43, 92, 43, 83, -52, 84, -14, 121, 73, 122, 74, 12, 43, -23, -127, 97, 93, 72, 21, 11, 112, 101, -113, 62, 59, -21, -48, 98, 27, 87, -96, -107, 56, -6, -28, -65, -117, 37, -38, -81, 63, 54, -111, -72, -81, 35, 70, 83, 111, -88, -100, -5, 96, -48, -119, 0, 48, -18, 65, -31, -94, -88, -52, -100, 72, -79, 69, 77, 76, 86, 24, -63, -59, -111, 25, -109, 22, 122, 16, -81, 80, -83, 125, -17, -127, -105, -70, -41, -44, 90, -124, -19, 107, -108, -67, 60, -115, 69, -71, 44, -49, 109, 36, -36, 103, 39, -23, 49, 50, -125, 37, -115, 104, 40, -20, -75, -95, 116, 48, 28, 51, 106, -29, 125, -123, -33, -104, -83, -28, 108, -125, 76, -31, -54, -36, 67, 82, -107, -20, 108, 80, 103, -106, -110, -99, -106, -87, 88, -90, 87, -105, -44, 109, -13, -17, 64, 27, 5, -95, 104, -105, 113, -72, 50, -114, -86, -120, 41, -65, 72, -28, -29, -35, 107, -67, -63, -28, 69, 34, -73, 84, -15, -107, -55, 102, -120, 68, -75, 109, 4, -116, 72, 35, -69, 86, 115, -98, 63, 74, 80, -71, 104, -65, -96, 72, -41, 117, 63, 55, -18, 72, 84, -95, -45, -123, 113, -102, 6, -44, 24, -76, 127, 100, -25, 99, 55, -63, -55, 53, 43, 77, -68, -82, -40, -76, -25, 75, 33, -40, 55, -123, -67, -12, -58, 10, 32, -17, -21, 94, -113, 22, -47, -100, -118, -20, 50, 103, 82, -53, 22, -25, -50, 47, 81, 124, -102, 43, -77, -27, -104, -116, 100, 52, -127, 48, -96, -86, -26, 110, -61, -92, -32, -58, -105, 12, 122, 112, 51, 86, -33, 34, -44, 72, 71, -35, -98, 50, 40, -63, 42, -90, -57, -46, 33, -113, 117, 97, 106, 29, 49, 60, 109, -57, 66, 107, 77, 46, -124, -126, -18, -119, 40, 112, -62, 72, 57, -128, -22, 54, 85, 107, 37, 110, 22, -38, -39, 91, -88, -74, -78, -121, -90, 53, -123, 118, -107, 66, -109, 40, -14, -91, -58, 33, -56, -119, -21, -125, -47, -68, -95, -41, -49, 110, 119, 57, 91, -5, -75, -110, -85, -119, 70, -89, 58, 91, 83, 63, -43, 95, -42, 23, 75, 53, -85, -22, 93, 33, -115, -57, 90, 61, -126, -71, -74, 118, -118, 55, 37, 11, 21, -111, -19, 53, -87, 83, 116, -38, 27, 78, 48, -101, -32, -101, -9, -68, -75, -76, 11, -90, 44, 28, -89, -17, 37, 18, 32, 17, -63, -26, -34, -69, 60, -101, 75, -92, -53, 106, -84, 95, -101, -79, -10, 53, 58, -45, 34, -47, 51, 24, 114, 115, 59, 93, -16, -42, -91, -113, 71, -18, -15, 95, 12, -14, -73, 31, -39, -60, 29, 35, -20, -1, 112, 113, -93, -47, -80, -45, -110, 42, -85, 50, 120, -100, -89, 36, -117, 58, -85, -80, -126, -10, -83, 54, -44, -122, -47 };

// Original range: [-0.0424627, 0.0282724]
static const float transformer2_attention_in_proj_bias_scale = 0.00027739f;
static const float transformer2_attention_in_proj_bias_zero_point = 153.07814026f;
static const int8_t transformer2_attention_in_proj_bias_quantized[] = { -103, -117, -98, 16, -88, -59, -19, 111, 0, 81, -27, 34, -73, -125, 114, -54, -105, -101, -103, -103, -103, -101, -101, -103, -101, -102, -102, -104, -102, -103, -102, -102, -27, 73, -112, 119, -1, -106, -91, -69, -59, -108, 49, -109, -102, 101, -77, 122 };

// Original range: [-0.2470461, 0.2497655]
static const float transformer2_attention_out_proj_weight_scale = 0.00194828f;
static const float transformer2_attention_out_proj_weight_zero_point = 126.80212402f;
static const int8_t transformer2_attention_out_proj_weight_quantized[] = { -42, 54, 77, -43, -121, -119, 89, 34, 45, -29, 60, -25, 92, -29, 23, 72, 38, 48, -122, -105, 115, -46, 59, 15, 57, 19, 104, 121, 76, -8, 49, -31, 90, -101, 111, -9, -13, -53, 103, -32, -30, 98, 111, 126, -47, 118, 24, -5, 22, -86, -57, 19, -57, 46, 66, 89, -72, 28, 87, 56, 93, -84, -65, 111, 91, 114, 82, 98, 64, -1, 61, 53, 41, -64, -121, -11, -31, -40, -37, -126, 119, 67, 12, -6, -87, 114, -125, 42, -64, -63, 108, -94, -74, -127, -55, -99, 11, 72, -107, 70, -99, -22, -82, 19, -22, 57, -36, -99, 32, -111, 6, -20, 43, 104, 53, -46, -64, -40, -126, 114, -27, -76, 58, 11, 127, -99, 23, -128, 22, -70, -4, 72, -37, 21, 77, -85, 45, 34, -84, 79, -84, 33, -30, 111, -81, 76, 4, -58, -14, 117, 120, -111, 83, -20, -56, 118, -119, -39, -62, 19, -44, -116, -113, -110, 16, 64, 37, -86, 73, -14, -101, 88, 0, 60, 74, -100, -55, 71, 110, 109, 81, 85, 99, 75, -39, -117, -27, 77, 49, 8, 113, 91, -37, 37, 48, -5, -86, 24, 7, -125, -71, 48, 62, -4, 22, -54, 120, 112, 12, -34, -94, -30, -83, 114, 21, 9, 29, 126, -96, -47, -55, 123, 48, 44, -89, 11, -45, -128, 80, 33, 113, 118, -44, -90, 61, 53, -86, 72, 40, -82, 66, 100, -50, -14, 49, 95, -15, -116, 91, -18, 35, -82, 33, 109, 58, -60 };

// Original range: [0.0000000, 0.0000000]
static const float transformer2_attention_out_proj_bias_scale = 0.00000000f;
static const float transformer2_attention_out_proj_bias_zero_point = nanf;
static const int8_t transformer2_attention_out_proj_bias_quantized[] = { 0, 0, 0, 0, 0, 0, 0, 0, 0, 0, 0, 0, 0, 0, 0, 0 };

// Original range: [1.0000000, 1.0000000]
static const float transformer2_norm1_weight_scale = 0.00000000f;
static const float transformer2_norm1_weight_zero_point = -inff;
static const int8_t transformer2_norm1_weight_quantized[] = { 0, 0, 0, 0, 0, 0, 0, 0, 0, 0, 0, 0, 0, 0, 0, 0 };

// Original range: [0.0000000, 0.0000000]
static const float transformer2_norm1_bias_scale = 0.00000000f;
static const float transformer2_norm1_bias_zero_point = nanf;
static const int8_t transformer2_norm1_bias_quantized[] = { 0, 0, 0, 0, 0, 0, 0, 0, 0, 0, 0, 0, 0, 0, 0, 0 };

// Original range: [-0.2499201, 0.2498083]
static const float transformer2_ffn_0_weight_scale = 0.00195972f;
static const float transformer2_ffn_0_weight_zero_point = 127.52851105f;
