#ifndef TRANSFORMER_ARRAY_DATA_H
#define TRANSFORMER_ARRAY_DATA_H


static float ln1weight[] = {0.9846035242080688, 0.9930168390274048, 1.0081734657287598, 1.0256143808364868, 1.0014021396636963, 0.991912305355072, 0.9914662837982178, 0.9814398884773254, 0.9823787808418274, 1.0313804149627686, 1.00486421585083, 0.9819793701171875, 1.0365478992462158, 0.9813019633293152, 1.0134930610656738, 0.987700879573822};
static float ln1bias[] = {-0.004855076316744089, -0.0038366809021681547, 0.0040328712202608585, -0.006528940517455339, -0.0025416603311896324, -0.0008049248135648668, -0.004344552289694548, 0.010584677569568157, 0.006649359595030546, -0.019316840916872025, 0.009962303563952446, 0.004749412648379803, 0.009267497807741165, -0.0007522300002165139, -0.005645043216645718, -0.0025992353912442923};

static float ln2weight[] = {1.02750563621521, 1.0205241441726685, 0.9888126254081726, 0.9905684590339661, 0.9941219091415405, 0.9953122138977051, 0.9876229763031006, 0.9573723673820496, 1.0022118091583252, 1.0132678747177124, 1.0306798219680786, 0.9821455478668213, 0.9900162220001221, 1.0042424201965332, 1.0192389488220215, 0.97618168592453};
static float ln2bias[] = {-9.901836165226996e-06, 0.017722630873322487, -0.01888933964073658, 0.0016266548773273826, 0.008186696097254753, 0.0020405463874340057, 0.0010938860941678286, 0.013036555610597134, 0.01144108921289444, -0.015323256142437458, 0.018725931644439697, 0.005908115766942501, -0.01869347132742405, -0.014488276094198227, 0.002702001016587019, 0.009988715872168541};

static float ln_fweight[] = {0.9807618856430054, 0.9768374562263489, 1.0188723802566528, 0.9702509641647339, 0.9884771108627319, 0.9942080974578857, 0.9785006046295166, 0.9827688336372375, 1.0212416648864746, 1.0260089635849, 0.9888871908187866, 1.015201210975647, 0.9823821783065796, 1.0051733255386353, 1.0139139890670776, 0.9776120781898499};
static float ln_fbias[] = {-0.019326919689774513, 0.01909954845905304, 0.022745298221707344, -0.018282931298017502, 0.014579244889318943, -0.021380579099059105, 0.009992357343435287, -0.020660506561398506, -0.022202152758836746, 0.021061543375253677, 0.02111281082034111, -0.021148240193724632, -0.021006032824516296, -0.021033596247434616, -0.021628037095069885, -0.021026039496064186};

static float queryweight[] = {-0.12809151411056519, 0.12486344575881958, 0.011648550629615784, 0.08594949543476105, 0.026255309581756592, 0.05272345244884491, -0.019398361444473267, -0.034360550343990326, -0.035281263291835785, -0.11908066272735596, -0.11851228773593903, 0.09604386985301971, 0.11388328671455383, -0.011470183730125427, -0.017994210124015808, -0.033432550728321075, -0.13566960394382477, -0.10242696106433868, -0.10924775153398514, 0.057104140520095825, 0.14364424347877502, 0.11304828524589539, -0.0712057501077652, -0.06917010992765427, 0.0894441157579422, 0.1250055730342865, -0.002655431628227234, -0.03769359737634659, -0.0938015729188919, 0.1305045783519745, 0.11705604195594788, 0.09710994362831116, -0.022342711687088013, -0.0934625193476677, -0.07128043472766876, -0.0689803808927536, -0.06309162825345993, 0.1263437569141388, 0.09854097664356232, -0.11978727579116821, -0.06808000057935715, 0.07595045864582062, 0.09330473840236664, -0.09894338250160217, -0.07964643090963364, -0.053702227771282196, -0.10028164833784103, 0.020491167902946472, 0.1395864188671112, -0.08768261969089508, 0.05327904224395752, 0.14261260628700256, 0.11745667457580566, 0.12668144702911377, -0.09295554459095001, -0.0944378674030304, 0.012078359723091125, -0.03937014192342758, -0.08929988741874695, 0.09432484209537506, -0.14790238440036774, -0.039579205214977264, 0.10597679018974304, 0.053595930337905884, -0.051622502505779266, -0.023946382105350494, 0.006834283471107483, -0.14474225044250488, -0.0343451127409935, 0.1258029043674469, -0.01818704605102539, 0.0050093382596969604, 0.09423626959323883, -0.1307283192873001, 0.13322123885154724, 0.14847272634506226, -0.007376953959465027, 0.08670875430107117, 0.04703979194164276, 0.03084847331047058, 0.05536288022994995, 0.04949277639389038, -0.061168842017650604, 0.019959092140197754, 0.04803754389286041, -0.091633141040802, 0.1165575385093689, 0.05188184976577759, -0.09064292907714844, 0.09920719265937805, -0.09428234398365021, 0.0030704736709594727, -0.10307776927947998, -0.10152331739664078, 0.006863147020339966, 0.06076984107494354, -0.1281760036945343, -0.07220202684402466, 0.023262113332748413, -0.012402504682540894, -0.14121685922145844, -0.018394768238067627, 0.09282651543617249, -0.09275998175144196, 0.06028382480144501, 0.04646600782871246, 0.10800862312316895, 0.06220632791519165, -0.09244464337825775, 0.00973549485206604, -0.11814479529857635, 0.04546618461608887, 0.05269540846347809, -0.11651648581027985, 0.12159794569015503, 0.12748271226882935, -0.07504548132419586, 0.06622828543186188, -0.12527458369731903, 0.07525189220905304, 0.09809336066246033, -0.10040976107120514, 0.14180654287338257, -0.13577774167060852, -0.06749293208122253, -0.022877231240272522, 0.0003674924373626709, -0.08292002230882645, 0.0013603270053863525, 0.07921870052814484, -0.02355654537677765, 0.08925589919090271, -0.1263781189918518, -0.10315032303333282, 0.10285213589668274, 0.14319676160812378, -0.019423052668571472, 0.012738615274429321, -0.10350683331489563, -0.02915472537279129, 0.13150206208229065, 0.12838518619537354, 0.023175135254859924, 0.022731304168701172, -0.03625260293483734, -0.008810088038444519, 0.03624357283115387, -0.0588516891002655, -0.07171686738729477, -0.06361768394708633, -0.06045418232679367, -0.14750699698925018, -0.14792780578136444, 0.053073763847351074, 0.025850936770439148, 0.07615241408348083, -0.04699113965034485, 0.11507314443588257, -0.026165619492530823, -0.037844620645046234, -0.03732883185148239, 0.11941492557525635, -0.11256131529808044, -0.031912662088871, -0.05616144835948944, -0.14311008155345917, -0.05323916673660278, 0.019840404391288757, -0.10825735330581665, -0.12195716053247452, -0.01676797866821289, -0.09415047615766525, 0.03767688572406769, 0.06229846179485321, -0.09688139706850052, 0.13593575358390808, -0.1278577446937561, -0.12806716561317444, 0.12227985262870789, -0.12933428585529327, -0.05884595215320587, 0.004874780774116516, 0.04230818152427673, 0.04812079668045044, -0.09708500653505325, -0.07875040173530579, 0.006628304719924927, -0.13743208348751068, 0.07544529438018799, 0.002774372696876526, -0.07885780185461044, 0.035785287618637085, 0.11308124661445618, 0.14481166005134583, -0.08024387806653976, 0.0812806636095047, 0.1053362786769867, -0.012145176529884338, -0.13358300924301147, -0.01453988254070282, 0.037467360496520996, 0.018559277057647705, 0.03995530307292938, -0.07825572043657303, -0.010903194546699524, -0.09344446659088135, 0.12978550791740417, 0.11036515235900879, 0.056458935141563416, 0.05636055767536163, 0.0426812618970871, -0.09179826080799103, -0.06412366032600403, -0.09194684773683548, 0.10441473126411438, 0.08079570531845093, 0.015566140413284302, -0.02515539526939392, 0.11669141054153442, -0.12830621004104614, 0.12879377603530884, -0.14310313761234283, 0.061922237277030945, 0.04572093486785889, 0.0653458833694458, -0.024021446704864502, -0.01343567669391632, 0.05137982964515686, -0.08842064440250397, -0.02904023975133896, 0.027883633971214294, 0.010471716523170471, 0.09026552736759186, -0.06963083893060684, -0.06596886366605759, 0.10918214917182922, -0.027547411620616913, -0.03065180778503418, -0.13201949000358582, 0.1367250382900238, 0.024361178278923035, -0.1072656512260437, -0.03184691071510315, -0.1400601714849472, -0.07528563588857651, 0.0935271829366684, -0.14738556742668152, 0.043991267681121826, 0.1180478036403656, -0.1274183988571167, 0.13617610931396484, -0.10595560073852539, 0.04469934105873108, -0.024461284279823303, 0.12527203559875488, 0.14171475172042847};

static float keyweight[] = {0.0, 0.0, 0.0, 0.0, 0.0, 0.0, 0.0, 0.0, 0.0, 0.0, 0.0, 0.0, 0.0, 0.0, 0.0, 0.0};

static float valueweight[] = {0.08146479725837708, 0.06658613681793213, 0.059561386704444885, 0.09245948493480682, 0.14779525995254517, -0.11180038750171661, -0.11397114396095276, -0.04166317731142044, 0.12057679891586304, -0.0183640718460083, 0.13055413961410522, 0.050827860832214355, 0.009847283363342285, 0.13018685579299927, 0.010853871703147888, 0.09428372979164124, -0.1360689252614975, -0.07650145143270493, 0.1017998456954956, -0.05756993591785431, -0.0024408698081970215, 0.017801925539970398, 0.051092907786369324, -0.06069469451904297, -0.049447134137153625, 0.05778242647647858, -0.03763994574546814, 0.006838962435722351, -0.12524384260177612, 0.007380738854408264, -0.14189589023590088, 0.01894429326057434, -0.13997703790664673, -0.11958618462085724, -0.02120518684387207, 0.030014023184776306, -0.10656841844320297, -0.02315722405910492, -0.12606115639209747, 0.12924006581306458, 0.01335933804512024, 0.07403157651424408, 0.047958552837371826, -0.10120108723640442, -0.09210509806871414, -0.06212807446718216, -0.13241247832775116, -0.004796415567398071, -0.087263323366642, -0.03611248731613159, 0.02208070456981659, -0.061449043452739716, -0.013833612203598022, -0.1326521337032318, 0.06586036086082458, 0.0346023291349411, 0.09375958144664764, -0.012073010206222534, -0.07669366151094437, 0.027809545397758484, -0.09558378159999847, -0.04215878248214722, 0.08857311308383942, 0.08485381305217743, 0.0753072053194046, 0.122290700674057, 0.015421286225318909, 0.1443949043750763, 0.13813230395317078, -0.08486178517341614, 0.12192922830581665, -0.06925512850284576, -0.11394724249839783, -0.04888346791267395, 0.1224578320980072, 0.11026966571807861, 0.09427192807197571, -0.00047941505908966064, 0.08821886777877808, -0.05064617097377777, -0.05618744343519211, -4.7340989112854004e-05, 0.001087874174118042, -0.01832100749015808, 0.10883358120918274, -0.041572168469429016, 0.11858129501342773, -0.005913257598876953, 0.0955820083618164, -0.0473332405090332, 0.017795056104660034, 0.00789235532283783, 0.03864903748035431, 0.11619052290916443, 0.12975424528121948, 0.056460991501808167, -0.010716691613197327, 0.03087843954563141, -0.10362885892391205, -0.08320404589176178, -0.10467849671840668, -0.012687668204307556, -0.11229956150054932, 0.05694781243801117, -0.09874486923217773, 0.08964800834655762, -0.0936627984046936, -0.0632554367184639, -0.05562685430049896, 0.07442502677440643, -0.04671217501163483, -0.08837000280618668, -0.129311203956604, -0.04572734236717224, -0.14050468802452087, -0.04169568419456482, -0.041046932339668274, -0.05200731009244919, -0.08602041751146317, 0.1430913209915161, -0.10594002902507782, 0.09993870556354523, 0.1391836404800415, -0.0276927649974823, -0.14577442407608032, -0.13802722096443176, 0.0342782586812973, -0.08018626272678375, 0.039833441376686096, -0.0948139950633049, -0.10883001238107681, 0.1444060206413269, 0.0029999762773513794, 0.11594778299331665, -0.07419884949922562, 0.022315651178359985, -0.08879142254590988, -0.11761247366666794, -0.05568539351224899, -0.1218956857919693, -0.12571080029010773, -0.052639491856098175, 0.015869155526161194, 0.04133693873882294, -0.02971835434436798, 0.05648857355117798, -0.006594941020011902, 0.08902892470359802, -0.09757430851459503, -0.03436341881752014, -0.08901327103376389, -0.14813832938671112, -0.14028574526309967, -0.1251009702682495, -0.048472531139850616, 0.02338901162147522, -0.06776133924722672, 0.04794909060001373, 0.11376509070396423, -0.009723171591758728, -0.1054597944021225, -0.00825566053390503, 0.07616980373859406, -0.013100728392601013, -0.03566167503595352, 0.08632098138332367, 0.00586584210395813, -0.0853755921125412, 0.08891667425632477, -0.05271410197019577, -0.09899872541427612, -0.01857772469520569, -0.052133120596408844, 0.06023910641670227, 0.06765908002853394, 0.05599437654018402, -0.10252808779478073, 0.016267701983451843, -0.052882127463817596, -0.10330074280500412, 0.14490815997123718, -0.009541124105453491, 0.12919864058494568, -0.1289234459400177, 0.06118285655975342, -0.04882299154996872, -0.08984212577342987, 0.09548655152320862, 0.024812906980514526, 0.12836265563964844, 0.008112430572509766, 0.07772523164749146, 0.11751911044120789, -0.13868162035942078, -0.07740990817546844, 0.037796929478645325, 0.039419710636138916, -0.013250306248664856, -0.0710248053073883, 0.10126525163650513, -0.11585626006126404, 0.01342037320137024, 0.09100931882858276, -0.06551677733659744, 0.08647483587265015, -0.04373157024383545, -0.05940224975347519, -0.04049406945705414, -0.08253280818462372, 0.04362809658050537, 0.005923599004745483, -0.025960490107536316, 0.0004202127456665039, 0.11857235431671143, -0.11567162722349167, -0.10184962302446365, -0.004174426198005676, -0.05808328092098236, 0.043007612228393555, -0.14703139662742615, -0.049538567662239075, 0.01643550395965576, 0.07002003490924835, -0.08331902325153351, 0.13316401839256287, 0.0750853568315506, -0.025378696620464325, -0.11594170331954956, -0.13194920122623444, 0.06105588376522064, -0.07613467425107956, 0.07801149785518646, 0.09021350741386414, 0.09151841700077057, -0.07324716448783875, -0.05737496167421341, -0.05251927673816681, 0.1168714165687561, -0.023239225149154663, -0.08139641582965851, -0.07200489193201065, -0.0931115671992302, -0.07964235544204712, 0.12427335977554321, -0.05717337131500244, 0.007842600345611572, 0.04109951853752136, -0.021018579602241516, 0.06261751055717468, -0.08791445195674896, 0.14027848839759827, 0.009039968252182007, 0.14668500423431396, -0.012686744332313538, -0.03321775048971176, 0.03533916175365448};

static float projweight[] = {0.0, 0.0, 0.0, 0.0, 0.0, 0.0, 0.0, 0.0, 0.0, 0.0, 0.0, 0.0, 0.0, 0.0, 0.0, 0.0};

static float projbias[] = {0.002255812054499984, 0.014907434582710266, -0.023488445207476616, 0.003147382754832506, 0.003913546912372112, 0.005201711785048246, -0.005000448320060968, 0.004483464173972607, 0.011499145068228245, 0.015349403955042362, 0.015854796394705772, -0.019178597256541252, -0.016869300976395607, -0.028845401480793953, 0.009548060595989227, 0.0004546974669210613};

static float ffwd0weight[] = {-0.17427176237106323, -0.10568108409643173, 0.03915204852819443, -0.03208065405488014, -0.28025856614112854, -0.18370097875595093, 0.17651312053203583, 0.2126389890909195, -0.010979394428431988, 0.35118409991264343, 0.31656414270401, -0.24548275768756866, -0.3210965394973755, -0.24000295996665955, 0.22144892811775208, 0.24384424090385437, 0.27133259177207947, -0.11675120145082474, 0.2765388786792755, 0.01301073282957077, -0.07389277219772339, 0.2315453290939331, -0.21316197514533997, -0.09171886742115021, -0.3163861632347107, -0.14741572737693787, -0.12102212756872177, -0.04216288402676582, 0.011867179535329342, -0.1307571530342102, -0.07518519461154938, -0.165764719247818, -0.22650977969169617, 0.3437252342700958, 0.18777959048748016, -0.1717682182788849, -0.20052246749401093, -0.18361009657382965, 0.11819269508123398, 0.16080668568611145, -0.06475991755723953, 0.2511111795902252, -0.15342551469802856, -0.15660972893238068, -0.323525995016098, -0.039029620587825775, 0.023691819980740547, 0.30552810430526733, -0.014219011180102825, -0.059843044728040695, -0.2860002815723419, -0.05983087420463562, 0.2171282023191452, 0.0006345578585751355, -0.06698116660118103, -0.2797694504261017, -0.3415195643901825, -0.1842527687549591, 0.30397793650627136, -0.13565637171268463, -0.30877479910850525, -0.3103927969932556, -0.28145071864128113, 0.29462093114852905, -0.16292209923267365, -0.0701390877366066, -0.08591670542955399, -0.3331255614757538, 0.321940153837204, -0.1740351766347885, 0.051322903484106064, 0.2870998680591583, -0.258826345205307, -0.220102459192276, 0.2973523736000061, 0.27003178000450134, 0.2625875473022461, 0.30370357632637024, -0.3235985040664673, -0.09757865965366364, -0.09337040036916733, 0.24681343138217926, 0.2881286144256592, -0.17673152685165405, 0.07495980709791183, 0.26150423288345337, -0.19133326411247253, 0.2443050742149353, -0.2858026623725891, -0.2911585867404938, 0.06041325256228447, -0.11656514555215836, -0.3504197895526886, 0.25155937671661377, 0.15087956190109253, 0.2736213803291321, 0.060030557215213776, 0.19532069563865662, -0.301294207572937, -0.13109517097473145, -0.31230655312538147, 0.24818627536296844, 0.22660651803016663, -0.04345685616135597, -0.05331377685070038, 0.09425557404756546, -0.012402121908962727, -0.022090164944529533, -0.15417061746120453, 0.037269819527864456, 0.3695223033428192, -0.032871827483177185, -0.1736142337322235, 0.39064356684684753, 0.16998682916164398, -0.19343209266662598, -0.12402261793613434, 0.14677684009075165, 0.25605204701423645, 0.24470554292201996, 0.07804472744464874, 0.279557466506958, -0.20617344975471497, -0.21605947613716125, 0.09103135764598846, 0.15635356307029724, 0.009496395476162434, 0.1526261419057846, 0.02845263108611107, 0.17470774054527283, -0.103000208735466, 0.08047382533550262, -0.09339214116334915, -0.2845675051212311, -0.12426012754440308, 0.10410668700933456, -0.2874164283275604, -0.13166065514087677, -0.10033895820379257, -0.26475539803504944, -0.34251829981803894, 0.36021319031715393, 0.16961488127708435, -0.30934497714042664, -0.2502720355987549, 0.2147601842880249, -0.0007203281274996698, -0.14790263772010803, -0.1743191033601761, 0.037581272423267365, 0.08246470242738724, 0.020410727709531784, 0.11697781085968018, -0.34586790204048157, -0.2838825583457947, -0.014202350750565529, 0.23541492223739624, 0.12724393606185913, 0.28636977076530457, -0.1416882872581482, -0.21556442975997925, -0.2071596384048462, -0.2714404761791229, -0.25577011704444885, -0.052304867655038834, 0.27900370955467224, 0.258953720331192, 0.28298473358154297, 0.26792365312576294, 0.035755135118961334, -0.14418470859527588, 0.29419395327568054, 0.06989605724811554, -0.03200330585241318, -0.044445186853408813, -0.3495137691497803, -0.12150020152330399, -0.0709775760769844, 0.12255216389894485, 0.09330370277166367, -0.306550532579422, -0.15685823559761047, -0.1347840279340744, -0.30461591482162476, -0.3453628718852997, 0.17708316445350647, -0.09149688482284546, -0.025241771712899208, 0.21693938970565796, -0.09973526000976562, 0.22549007833003998, 0.30007630586624146, -0.25437912344932556, 0.03765953332185745, 0.21316730976104736, -0.27234169840812683, -0.12003470212221146, -0.03287307173013687, -0.10315719246864319, -0.0682201087474823, -0.26310017704963684, 0.08314496278762817, 0.338778018951416, 0.29621776938438416, 0.0808359757065773, 0.02985759638249874, 0.25911423563957214, 0.05923513323068619, -0.12879621982574463, -0.2341405600309372, -0.2561854422092438, -0.16085578501224518, -0.11057133227586746, 0.34955132007598877, 0.02776457369327545, -0.08661265671253204, 0.2501767873764038, -0.20000970363616943, -0.129630908370018, -0.2898731231689453, 0.08039097487926483, 0.29605379700660706, 0.04003489017486572, -0.17981067299842834, 0.2745406925678253, -0.3083428740501404, -0.26197919249534607, -0.3309471607208252, 0.29766613245010376, -0.06834916025400162, -0.1829889565706253, -0.2584005296230316, 0.15911325812339783, -0.07391413301229477, -0.09337284415960312, 0.0065559642389416695, -0.11218314617872238, -0.16782811284065247, 0.16501209139823914, -0.15208645164966583, 0.12434279918670654, -0.2473410665988922, -0.20781764388084412, -0.02458563633263111, 0.1584239900112152, 0.16604721546173096, 0.24707089364528656, -0.24281205236911774, -0.344608873128891, -0.19574706256389618, -0.11779798567295074, -0.3128397762775421, 0.2791586220264435, 0.29704219102859497, -0.21648192405700684, 0.30565184354782104, 0.33805957436561584, -0.019797630608081818, 0.2796047627925873, 0.05327581986784935, 0.01558650378137827, -0.18100963532924652, -0.01687379740178585, -0.08272092789411545, -0.33025312423706055, -0.3271997570991516, -0.2543337345123291, -0.3156251907348633, -0.3312641978263855, -0.2895870506763458, 0.07752549648284912, -0.31707507371902466, -0.2272656112909317, 0.13347522914409637, -0.3116212487220764, 0.2719511091709137, 0.1594686657190323, -0.29709532856941223, -0.1127573624253273, -0.07769183069467545, 0.18387340009212494, 0.20716919004917145, -0.13199931383132935, 0.04110752046108246, -0.10547979921102524, 0.315277099609375, 0.1703714281320572, 0.1509917974472046, 0.09362568706274033, -0.09784689545631409, -0.32834678888320923, 0.0725434198975563, 0.1512354463338852, -0.24189512431621552, 0.048739731311798096, -0.2353041023015976, 0.31778988242149353, -0.06836118549108505, -0.1886705607175827, 0.1624041348695755, 0.11037981510162354, -0.24176117777824402, 0.21589170396327972, 0.1389840841293335, -0.04262004420161247, 0.16328880190849304, 0.05563245341181755, 0.13460566103458405, -0.18856112658977509, -0.3160177171230316, 0.2021714299917221, 0.21835032105445862, -0.010625457391142845, 0.30528873205184937, -0.09203477203845978, -0.08522726595401764, 0.014726086519658566, 0.1814914047718048, -0.10064677149057388, -0.17754454910755157, -0.03281790763139725, 0.19421935081481934, -0.14424270391464233, 0.0963963195681572, -0.09219753742218018, -0.17182916402816772, 0.07311175018548965, -0.18538713455200195, 0.33475351333618164, -0.27642640471458435, 0.3425852954387665, -0.3334425389766693, 0.28590887784957886, -0.32463204860687256, -0.015775002539157867, -0.038323432207107544, -0.005701243411749601, 0.26357224583625793, -0.33549943566322327, -0.12675915658473969, 0.3592069149017334, 0.08021564036607742, -0.26304662227630615, 0.13273018598556519, 0.32240113615989685, -0.3510366678237915, -0.12547509372234344, -0.2082619071006775, -0.24623380601406097, -0.16095709800720215, 0.07318564504384995, -0.11933837831020355, -0.14080820977687836, 0.23426653444766998, -0.1802036315202713, 0.2628014385700226, 0.168779656291008, 0.31279709935188293, -0.11353801190853119, 0.0962844043970108, 0.35121244192123413, 0.260139137506485, 0.09243514388799667, -0.2480541467666626, -0.07028625905513763, 0.16128963232040405, -0.1364547610282898, -0.2170572131872177, 0.1752406805753708, 0.21817556023597717, 0.20542274415493011, -0.3263963758945465, -0.04498809203505516, -0.12260712683200836, -0.297683447599411, -0.023921888321638107, 0.23395191133022308, 0.21094611287117004, -0.25107747316360474, 0.3612203896045685, 0.24327898025512695, 0.2326653003692627, 0.17301005125045776, 0.18359068036079407, 0.2963177561759949, -0.11024072021245956, 0.28413593769073486, 0.32664650678634644, 0.31979721784591675, 0.26830214262008667, 0.2821179926395416, -0.00934979785233736, -0.14274588227272034, 0.3247077465057373, 0.27664700150489807, 0.17642131447792053, 0.1624389886856079, -0.11257404088973999, -0.11761827766895294, 0.08826388418674469, -0.10654985159635544, -0.2740233838558197, 0.34043267369270325, -0.19341066479682922, 0.01043593231588602, -0.08208121359348297, -0.07346875965595245, -0.1486111581325531, 0.22369569540023804, 0.19125473499298096, -0.306086003780365, -0.07730456441640854, -0.1169993132352829, 0.008136286400258541, 0.018320318311452866, -0.12209851294755936, -0.02946573868393898, -0.1019512191414833, 0.11319226026535034, 0.24743543565273285, -0.0020515834912657738, -0.2701402008533478, -0.3264833688735962, -0.02435002662241459, 0.1325051337480545, 0.2706385552883148, -0.3319721221923828, 0.18195825815200806, -0.02342250384390354, 0.23074539005756378, -0.18106509745121002, 0.3352668285369873, 0.32491299510002136, -0.2393772304058075, -0.13373057544231415, -0.19847577810287476, -0.2631987929344177, 0.14082083106040955, 0.20466813445091248, 0.3585481643676758, -0.047090668231248856, -0.11409592628479004, -0.2869987487792969, -0.038971032947301865, -0.18153801560401917, -0.2304919958114624, 0.008295686915516853, -0.1041966900229454, 0.11110629886388779, 0.2861197590827942, -0.23571574687957764, -0.055541183799505234, 0.123162642121315, -0.24079729616641998, 0.03637298569083214, -0.11813527345657349, 0.03804685175418854, 0.21987654268741608, -0.0016169706359505653, -0.24942746758460999, 0.035734813660383224, -0.29095521569252014, -0.13262411952018738, -0.1636562943458557, -0.1913762092590332, -0.24131257832050323, -0.0887121930718422, 0.15157996118068695, -0.00025333004305139184, 0.3292961120605469, -0.024684075266122818, 0.23554126918315887, -0.18211591243743896, 0.16364175081253052, 0.07405310124158859, 0.03858572989702225, -0.20496174693107605, -0.19686730206012726, -0.11410845071077347, -0.3098532557487488, 0.21781504154205322, 0.2403184175491333, -0.05577250197529793, -0.1678086668252945, 0.16266903281211853, 0.11093203723430634, 0.0807051807641983, -0.11820977181196213, -0.12063328176736832, 0.03743917867541313, 0.10677029192447662, -0.13666732609272003, -0.137070432305336, -0.0563679039478302, -0.1250748187303543, -0.22157332301139832, -0.14360731840133667, 0.26545393466949463, 0.32896292209625244, -0.288395494222641, -0.1129123643040657, 0.17421603202819824, -0.33247002959251404, -0.3075663149356842, 0.24129189550876617, 0.2029617875814438, -0.2094479352235794, 0.04164097085595131, 0.29518234729766846, -0.1468513309955597, 0.3419380486011505, -0.25473928451538086};

static float ffwd0bias[] = {0.023105720058083534, 0.0023167061153799295, -0.006616324186325073, -0.016149064525961876, -0.01959722861647606, 0.012468240223824978, 0.007323016412556171, -0.0061892252415418625, -0.00027093227254226804, 0.014872709289193153, -0.010983039624989033, -0.007952366955578327, -0.013871192932128906, -0.008355522528290749, -0.012892660684883595, -0.024308202788233757, -0.0007921586511656642, 0.029154926538467407, -0.026995906606316566, 0.0034914601128548384, 0.01052413135766983, -0.005673645529896021, -0.04033723101019859, -0.02268974669277668, 0.006177513860166073, -0.01226083841174841, -0.005900759715586901, -0.015564032830297947, 0.007788895163685083, 0.004541488830000162, -0.005932625383138657, -0.026805082336068153};

static float ffwd2weight[] = {-0.023016879335045815, -0.01577039621770382, 0.16692079603672028, 0.07760307937860489, 0.16582898795604706, 0.30016565322875977, -0.02364896424114704, 0.3208702504634857, 0.0949983075261116, -0.02186046727001667, 0.3227769136428833, -0.262439489364624, -0.17938977479934692, 0.24042218923568726, 0.13612499833106995, -0.21211425960063934, -0.34596696496009827, 0.32497352361679077, 0.06675469875335693, 0.0579930916428566, 0.24649088084697723, -0.11327964067459106, 0.05436462163925171, 0.04823463037610054, 0.12800543010234833, 0.14586293697357178, 0.1873767375946045, 0.17483791708946228, -0.10902322083711624, 0.27909019589424133, -0.30131781101226807, -0.08839734643697739, 0.18723773956298828, -0.1841343194246292, 0.08593662083148956, 0.2257421314716339, -0.09714795649051666, -0.05267500504851341, -0.27946725487709045, -0.13643337786197662, -0.10810913145542145, -0.04954148828983307, -0.28279340267181396, -0.2487528771162033, 0.07129868865013123, -0.2609292268753052, 0.1266816258430481, 0.29492366313934326, 0.07124528288841248, -0.3277240991592407, -0.1344371736049652, -0.25792598724365234, -0.23562216758728027, 0.1919896900653839, 0.00876663438975811, 0.15626965463161469, -0.1089094951748848, -0.1328527182340622, 0.16157479584217072, 0.26598653197288513, -0.1841430515050888, 0.13205765187740326, -0.15002064406871796, 0.2453915923833847, 0.24095137417316437, -0.2947389483451843, 0.2943562865257263, 0.13310836255550385, -0.2542057931423187, 0.1203952506184578, -0.158185213804245, -0.1891358345746994, 0.243789941072464, 0.12960126996040344, 0.03364546224474907, 0.23608694970607758, 0.09496140480041504, 0.2625473737716675, -0.2725357413291931, 0.3373907804489136, -0.3197527825832367, -0.3252834975719452, -0.34175416827201843, 0.2532782256603241, -0.015078718774020672, 0.15437667071819305, 0.13246643543243408, -0.07082017511129379, -0.17326690256595612, 0.12705035507678986, -0.10923541337251663, 0.30994972586631775, 0.06974073499441147, -0.2836683392524719, -0.0027962173335254192, -0.0636167824268341, -0.01589658297598362, -0.2689070701599121, 0.3368472456932068, 0.22087936103343964, -0.10866974294185638, 0.14243727922439575, -0.1498134881258011, 0.09772425889968872, -0.35434505343437195, 0.05119071155786514, -0.0695217177271843, 0.12392214685678482, -0.08088502287864685, -0.2829919755458832, 0.22008740901947021, 0.2236323207616806, -0.25089630484580994, -0.283157080411911, 0.2598230242729187, -0.35487794876098633, 0.19086474180221558, 0.1779165118932724, 0.16771265864372253, -0.23977620899677277, 0.16176185011863708, 0.22019557654857635, 0.10113546997308731, -0.16676409542560577, 0.17986425757408142, 0.24533383548259735, 0.27345213294029236, 0.011382639408111572, 0.2269720882177353, -0.23323069512844086, 0.19192183017730713, 0.1621377170085907, -0.11039844155311584, 0.34366658329963684, -0.34877443313598633, 0.05089699849486351, 0.2231244444847107, -0.23338191211223602, 0.24142417311668396, -0.2559620141983032, 0.03485650569200516, -0.08648869395256042, -0.19160373508930206, 0.2609230875968933, -0.03452051803469658, 0.18776436150074005, -0.3374503254890442, -0.17423824965953827, -0.0715789645910263, 0.10742320865392685, 0.12547491490840912, -0.08637305349111557, 0.26420819759368896, 0.20316082239151, -0.1913321167230606, 0.1679844856262207, -0.17268157005310059, -0.25078991055488586, -0.1534942239522934, -0.11723943799734116, -0.3208494484424591, -0.23467709124088287, 0.09645069390535355, -0.35400381684303284, -0.18056148290634155, 0.21183264255523682, -0.09370467066764832, 0.16016913950443268, -0.029528940096497536, 0.299319863319397, -0.31964007019996643, 0.00016218337987083942, 0.16659510135650635, 0.21223704516887665, 0.23619495332241058, 0.07831426709890366, -0.2861422002315521, 0.1890815943479538, -0.12997789680957794, -0.3846339285373688, 0.019822334870696068, 0.14671941101551056, 0.2652631103992462, 0.11214768141508102, -0.15242689847946167, -0.23699036240577698, 0.29498404264450073, -0.030488749966025352, -0.14792285859584808, 0.06285835802555084, -0.22618959844112396, 0.1886911243200302, 0.26719972491264343, -0.004092805553227663, 0.03743525594472885, -0.0891321524977684, -0.1098925918340683, -0.22205503284931183, 0.2450944483280182, 0.28981050848960876, -0.0014501098776236176, -0.007413598708808422, -0.20621033012866974, 0.10222811996936798, -0.051893752068281174, 0.08988069742918015, 0.3034302592277527, 0.1734483689069748, -0.01377838384360075, 0.08033380657434464, 0.14449921250343323, 0.1136675626039505, -0.07392801344394684, -0.17029856145381927, -0.1354706734418869, 0.21288275718688965, -0.010763968341052532, 0.2963065207004547, -0.10342032462358475, 0.05532291904091835, 0.16948609054088593, 0.31211936473846436, 0.09496719390153885, -0.3278540074825287, -0.03903951495885849, 0.027496840804815292, -0.17864777147769928, -0.1479589343070984, -0.021769052371382713, -0.3018397390842438, -0.21356721222400665, 0.022016901522874832, 0.23622745275497437, -0.31181374192237854, -0.1767643392086029, 0.13327068090438843, -0.011261044070124626, -0.09955579787492752, -0.08882304280996323, -0.3202023506164551, -0.21533697843551636, -0.20245471596717834, -0.09416893124580383, -0.23379796743392944, -0.2446407973766327, 0.1172642782330513, 0.1547812968492508, 0.32241252064704895, 0.08928412944078445, -0.02456722967326641, 0.11866287142038345, 0.05046684667468071, -0.32353535294532776, 0.2980247437953949, -0.23023129999637604, -0.12705212831497192, 0.06577493250370026, -0.03560670465230942, 0.32177358865737915, -0.14635363221168518, 0.23196369409561157, 0.018590005114674568, -0.04209055006504059, -0.007643932942301035, 0.23987892270088196, 0.13002361357212067, -0.05227268859744072, -0.2789013981819153, -0.20463824272155762, 0.17217126488685608, -0.02027975767850876, -0.3068963587284088, 0.3349856734275818, 0.11070176959037781, 0.09517347067594528, 0.08107104897499084, -0.28360721468925476, 0.033786188811063766, 0.21958206593990326, 0.11637754738330841, -0.23846256732940674, 0.03411783650517464, 0.2690247595310211, -0.07678413391113281, -0.3526279330253601, 0.15951259434223175, -0.03140021488070488, 0.24444371461868286, 0.05797722563147545, 0.13043628633022308, -0.28162142634391785, 0.1836945116519928, -0.2659815549850464, 0.2734163701534271, -0.10987669229507446, 0.32653674483299255, -0.29946640133857727, 0.07970719784498215, 0.11924578994512558, 0.3097434341907501, 0.3071764409542084, 0.32572615146636963, -0.18661276996135712, -0.1042901799082756, -0.1531335562467575, 0.008393299765884876, -0.05368376895785332, 0.2307133823633194, -0.014244642108678818, -0.17304572463035583, -0.2310866266489029, -0.2788386940956116, 0.0897764191031456, 0.08736968040466309, -0.15996268391609192, 0.02420802041888237, -0.0022786154877394438, -0.15951967239379883, 0.09909418970346451, -0.060595035552978516, 0.3492375910282135, 0.17317210137844086, 0.3020254969596863, 0.11060597002506256, -0.01463256124407053, 0.3192051351070404, 0.06888361275196075, -0.21093101799488068, -0.11550319194793701, 0.2932877838611603, -0.1054118350148201, 0.029638279229402542, 0.27187758684158325, -0.19117967784404755, -0.013069447129964828, 0.2349986433982849, 0.33738017082214355, -0.2508935034275055, 0.12474550306797028, -0.34917324781417847, 0.010625896975398064, -0.1832629144191742, -0.12799900770187378, 0.028950011357665062, -0.14740343391895294, -0.08780932426452637, 0.1892627775669098, 0.12139955908060074, 0.3368469476699829, 0.05431079864501953, -0.0783638134598732, 0.2607496976852417, -0.1232224777340889, -0.1253492534160614, -0.13479745388031006, 0.1991288810968399, 0.006264401134103537, 0.08329012244939804, 0.12544278800487518, -0.2512979507446289, 0.24872392416000366, -0.10120336711406708, 0.2750813961029053, 0.2617567777633667, -0.19433699548244476, 0.3353743851184845, -0.1374642252922058, 0.18248410522937775, -0.1338007152080536, 0.21764375269412994, -0.30594345927238464, -0.1854245960712433, -0.12373540550470352, -0.2076427936553955, 0.18499621748924255, 0.24480485916137695, -0.3333951532840729, -0.29404693841934204, 0.16080771386623383, -0.026657385751605034, 0.2030879110097885, 0.3147604465484619, -0.10292838513851166, -0.006326311733573675, -0.24906077980995178, -0.05177554488182068, 0.028488099575042725, 0.10931668430566788, -0.05796397104859352, 0.15004830062389374, 0.1138293594121933, -0.006661129184067249, -0.14302632212638855, 0.23721551895141602, 0.0803392231464386, 0.29083016514778137, -0.1754297912120819, 0.10012157261371613, 0.16624309122562408, -0.26496103405952454, -0.21572048962116241, 0.11899135261774063, -0.2926971912384033, -0.0841687023639679, -0.08234420418739319, -0.2715933322906494, 0.20359517633914948, 0.048070669174194336, 0.21684163808822632, -0.23165854811668396, -0.16746993362903595, -0.04997403174638748, -0.12195354700088501, 0.33312955498695374, -0.03400177136063576, 0.08619034290313721, 0.1830444186925888, -0.1080162525177002, 0.23589621484279633, -0.16515596210956573, 0.1992173045873642, -0.30551496148109436, -0.17631757259368896, -0.11972545087337494, -0.24147291481494904, 0.12944979965686798, 0.060558900237083435, 0.058761049062013626, 0.175650954246521, 0.08053217828273773, -0.31125524640083313, 0.2897394001483917, -0.3510042428970337, 0.32253655791282654, 0.018472163006663322, 0.27912798523902893, -0.08208459615707397, -0.2069251388311386, -0.029201170429587364, 0.03054444119334221, 0.29698053002357483, -0.26122888922691345, 0.3149072527885437, 0.1139330267906189, -0.3351273536682129, 0.35627561807632446, 0.19724656641483307, -0.05965223163366318, 0.07288244366645813, 0.11029001325368881, -0.010795077309012413, -0.09744357317686081, -0.06400329619646072, 0.3350175619125366, 0.2475975900888443, 0.27619537711143494, 0.19239206612110138, 0.11946119368076324, 0.23548705875873566, 0.21137650310993195, 0.12896494567394257, 0.08454851806163788, -0.18770867586135864, 0.28257203102111816, -0.0766439437866211, 0.25980445742607117, -0.04368988797068596, 0.094987653195858, -0.24000832438468933, 0.1353565901517868, 0.0721476599574089, -0.05267135426402092, -0.32580554485321045, 0.31450942158699036, 0.3140869438648224, 0.3478792607784271, -0.1862744837999344, -0.21204125881195068, 0.235687717795372, 0.16690891981124878, -0.03988690301775932, -0.1166345477104187, 0.21732789278030396, 0.12866522371768951, 0.12174796313047409, 0.2740834653377533, 0.32466915249824524, -0.3171085715293884, 0.10349281132221222, 0.30619463324546814, 0.12337727844715118, -0.3264494836330414, 0.285150408744812, 0.30316370725631714, 0.3534887731075287, -0.10372059047222137, -0.03486314415931702, -0.18705898523330688, 0.0055114878341555595, -0.18498940765857697, -0.11066588759422302, -0.1351614147424698, 0.07363228499889374, -0.1740035116672516, -0.13287989795207977, -0.09846843779087067, 0.07127848267555237, -0.31457072496414185, 0.05053042620420456, -0.009323352947831154, -0.13470858335494995, 0.2275383621454239};

static float ffwd2bias[] = {0.02785339392721653, 0.017964182421565056, 0.01195718627423048, -0.011810975149273872, 0.002781075658276677, 0.008503064513206482, 0.006360317580401897, -0.01645139791071415, 0.007236753590404987, 0.01564778946340084, 0.0130271315574646, -0.01562790758907795, -0.01375797763466835, -0.02135614864528179, 0.019895421341061592, -0.009741012006998062};

static float weight[] = {-0.05890253186225891, 0.04086533561348915, -0.19614632427692413, -0.33296501636505127, 0.1758331060409546, 0.173125758767128, 0.03055870532989502, 0.41270753741264343, 0.3384251594543457, -0.5757665038108826, -0.35862794518470764, 0.4412883520126343, 0.20439831912517548, 0.45474955439567566, -0.34342244267463684, 0.3953324854373932, -0.14127230644226074, 0.09985728561878204, -0.08595897257328033, -0.34404855966567993, 0.14681386947631836, -0.051485057920217514, 0.023901313543319702, -0.05407707393169403, 0.2061605602502823, 0.1604715883731842, -0.02438374236226082, -0.02993733249604702, -0.458748459815979, -0.10830144584178925, -0.4360235929489136, -0.2519901394844055};
static float bias[] = {-0.0210809875279665, 0.0210809875279665};

#endif